914 100
not 0.0017134731 0.00019627942 -0.0038054404 -0.002436008 -0.0033648121 -0.00033291322 -0.004828967 0.0008887018 -0.0011816525 -4.248737e-05 0.0020296576 -0.00034075396 -0.0013577869 0.00012675673 -0.0025882216 0.0023682287 0.0012079589 -3.5915124e-05 0.0009384214 0.0036742706 0.006314413 0.00090381637 -0.003273754 0.0017305852 -0.00059003365 0.0003074007 -0.0016063396 -0.0030803594 -0.004920906 0.00026829328 -0.0010514442 -0.0036366323 0.00022218183 -0.002549544 0.0039531505 0.00048153932 -0.003341813 0.0033526644 -0.0007035178 -0.0007021107 0.0016624632 5.1011863e-05 -0.0026706841 0.0005333936 0.002027876 -0.003534446 0.00066090695 -0.0011751482 -0.0023749599 -0.0041952212 0.00081727334 -0.00046158538 0.0036626696 -0.0016848302 -0.0005843983 -0.0011252444 0.00063912093 0.0014581739 0.0021272562 -0.00045780558 -0.0029867368 0.0039414885 0.0006521141 0.003180089 -0.0018112272 -9.99208e-05 0.0024234853 -0.00084996596 0.0016984248 -0.0020525602 0.002549809 -0.00034095556 -0.0030164183 0.001226017 -0.00027743445 0.0016452027 -0.0009606966 -0.0021519477 0.0038491173 0.0046277056 0.003078448 -0.0005676008 -0.0025553214 -0.0017522564 -0.0007105144 0.0015263002 -0.0015434686 0.0009596558 -0.0020917358 0.000428403 -0.0012978207 0.002440856 0.0014091504 0.0005409433 -0.0038169671 -0.0023928806 0.0021651634 0.0014565411 -0.00045572832 0.0010588076
film -0.0020534487 -0.0026436094 -0.00043985664 0.00036347882 -0.003346878 -3.0784445e-06 -0.0045676418 0.002527046 -0.0018573063 -7.848221e-05 -0.004883141 -0.0012513233 0.0030279295 -0.0016397272 0.0005950229 -0.003177887 0.0025674358 -0.00027212317 0.003261592 -0.0006956698 0.0005773455 0.0014150415 -0.0028159376 -0.0019728036 -0.00042177207 -0.0016195502 0.00035313793 0.001615562 0.0018653763 -0.0017051975 -0.0016409057 -0.00017886491 0.0018899911 -0.0046449243 0.0013952794 -5.1870305e-05 0.00036825988 -0.0006066316 0.0036259629 0.0013653301 -0.0027970115 -0.00015218445 -0.0026404555 0.00044116005 -0.0024832906 0.00028692678 0.00050875073 -0.00020597824 0.0024792822 -0.0011935795 0.0012400617 -3.35363e-05 0.0017127242 0.00094895455 -0.0026535057 0.0018739329 -0.0012505904 -0.0010295411 0.0035541237 -0.0020070262 0.00011921219 -0.0019054561 -0.00017346941 0.0006181993 0.00039690852 -0.0005914543 -0.0022459489 0.0004132595 0.00091520866 0.0010736495 -0.0019229826 -0.0013176948 0.00039219 -0.0010087079 0.0009940118 0.0004007875 -0.0037499077 -0.0022494758 -0.00015212985 0.0010612382 -0.0004984132 0.0017525367 0.0016008951 0.00074488926 -0.0016876676 -0.0012090896 -0.0013642973 0.00018776958 -0.0031103382 0.0016360491 0.0003551204 9.040018e-05 0.0037595576 0.00012532131 0.0026649393 0.0008596864 0.002001531 0.00035323726 0.0013114474 0.0018135459
movie -0.0013800772 -0.0008621689 -0.0013047904 0.0015726442 7.609741e-05 -0.0020185183 -0.0008471447 0.001221517 1.535487e-05 -0.0007512505 -0.0014207067 -0.0015607497 -0.0015423114 -0.0010238093 -0.00041303557 -0.00025627698 -0.0007010965 0.0008647939 0.002815918 -0.0003712565 0.00019809899 -0.0015972127 -0.00031192738 -0.000972913 0.001882049 0.0010615162 -0.0015961595 -8.745383e-05 0.0017824277 0.0008811035 0.0009804023 -0.00147378 0.0024536857 0.00038146583 0.002575775 0.0008687958 -0.0020189702 -0.0007294194 0.0002893781 0.00085183705 -0.0012682491 0.002208328 0.0006391943 -9.340357e-05 0.00012196032 0.0015542887 -0.00023959254 -0.0007816275 -0.00010384174 -0.00040241762 -0.0012693324 0.0017813236 0.00027307498 -0.00065487146 7.0209926e-06 0.0008718042 0.000649972 0.0008387124 0.0010644066 0.0014233317 0.0004358676 3.818834e-05 -0.0037956482 0.0003358273 0.00019946741 -0.00049778476 -5.6824865e-05 -0.0012747328 -0.002977348 -0.002012989 -0.0006040058 -0.0011241903 -0.0016004649 -1.1078921e-05 0.0013302718 0.00018100427 -0.0029257482 -0.001035653 -0.0020731825 0.0015569034 0.0017919625 -0.00041946347 0.00059778866 0.0016750352 -0.0006628366 0.0011424676 -0.0013861116 0.0013740881 6.162041e-05 -0.0002020066 -0.0006644527 0.0025636167 -0.0005789347 0.00024725613 0.00024120128 0.0014287845 -0.0021306772 0.0006370858 0.0013990593 0.0004409361
one -0.003667141 -0.002977963 -0.001131972 -0.0025969096 -0.0025121334 0.0009228439 -0.0015567185 0.0015276151 0.0013338112 -0.0007180764 5.802685e-05 0.0010336459 -0.0011904772 -0.00076467596 0.00095513096 -0.0037863906 0.0052604554 0.0014651257 0.0047307117 -0.0023558696 0.0024453215 -0.0012243486 0.0017019885 -0.003602537 0.0009015241 -0.0015349764 -0.0028362765 0.00011998309 -0.0035511446 -0.0018768777 0.0010523327 0.003822945 0.0004582537 -0.0031513087 0.0034876536 0.0029329918 -0.0024121664 0.007748007 0.0040170522 -0.0031709762 0.0035508946 0.0026017432 -0.0024638867 0.0053769276 -0.0017025685 -0.0010373504 -0.003184256 -0.003189418 0.00394717 -0.00024762633 0.00033651106 0.0033273308 0.00087871484 -0.0026948568 -0.0012007228 -0.0031005624 0.004205437 -0.0007587788 0.0030070718 0.0054616863 0.0026781168 0.0003549116 -0.003281927 0.00498031 0.00053318316 0.0021584986 -0.0023880075 -0.0019244996 -0.00053838507 -0.0012243042 -0.00042796342 0.0016376271 0.00225569 -0.00052954693 -0.00026429803 0.0018476581 0.0021762007 0.0008650518 0.0026101216 -0.0018058829 -0.0021509656 -0.0018889474 -0.0030425885 -0.0011723562 -0.0019225591 -0.00163025 0.0031819677 6.575878e-05 -0.0012627213 0.0013688451 -0.004084633 0.0012475171 0.00377132 0.0031979228 -0.00042292842 0.002511422 -0.00073616375 0.0037778984 0.00095978886 0.0011837938
see 0.0019015167 0.0014438691 -0.0041969083 -0.00083672075 -0.00036593937 1.21516305e-05 -0.002794567 0.0038333943 -0.004511284 -0.0016954299 -0.0044765905 -0.0011054246 -0.00025098916 -0.00077003764 0.0032866108 0.0021615857 0.0027783697 -0.0011193753 0.0035712968 0.0012789421 0.0010717645 0.0027661042 -0.000679044 -0.0011298481 -0.0014725995 -0.0008130675 -0.00065207377 -0.0009165468 0.0042140973 0.0023533425 0.003077261 -0.0019333261 0.00024716975 0.002957721 0.003550628 -0.0005920286 0.0009889215 -0.0027585614 0.00036091186 -0.004980863 2.9883513e-05 -0.00070504274 -7.241192e-05 7.9202866e-05 0.0028936784 -0.0008515759 -0.0028307065 0.001439491 0.003697096 -0.0026639898 0.0062767575 0.002090814 0.0044741803 0.0027386397 -0.0011113689 -0.001003812 0.002862884 -0.00042056665 -8.402352e-05 0.00016615853 0.002850897 0.0014903616 -0.004552565 -0.00052160304 0.001677105 -0.0052411035 0.000113786395 -0.0027678127 -0.00061639625 0.001561106 0.0022163566 0.0005064336 0.001850994 -0.0009995153 0.0013570504 0.002794409 0.0024794154 -0.0019339386 0.0017977742 -0.002819319 0.0027040124 0.0018167002 0.0027664048 0.0028404247 0.0013656009 0.0003564185 0.0020096258 -0.0039715436 -0.0019549283 -0.0049821334 -0.00030818308 0.00039630622 0.0037310203 -0.001029181 0.0012186877 0.00092073187 0.005194352 0.0013754482 0.0002367364 0.0014384101
go -0.003245854 0.0017682451 -0.00018216018 0.00065017724 0.0013867146 -0.0008980138 -0.00034346478 -0.0003722281 0.004638596 -0.0023299493 -0.001431059 -0.0056585576 -0.000705719 0.0005926753 -0.00019575923 -0.00015394657 0.0042576483 -0.0031345438 0.0020740866 0.008244542 0.0019456828 -0.0027645526 0.0004834464 0.0034864962 0.0011640678 -0.0006533418 -0.00081144634 0.0001803505 -0.00024068332 0.0018181948 0.0062937415 -0.0071742875 0.0016963381 0.0015531085 0.0036493978 0.0007288165 0.003803879 -0.0012810273 -0.005910049 -0.00094341044 0.000117018295 0.000500115 0.0035190303 -0.004412271 -0.0026684352 -0.0010417679 0.006716812 -0.0026898151 0.0048959525 -0.0040488075 0.0013051182 0.0019419836 0.0018807082 -0.004766263 -0.0009991298 -0.004615145 -0.0014347332 0.0006423098 0.0018934872 -0.0015604193 -0.0036213784 0.002724816 -0.0005754263 -0.0030037167 0.0033479254 0.002389817 -0.0003670944 0.0009598314 0.001747434 -0.004297294 -0.0014568089 0.0046505393 0.0017437739 0.0050081015 -0.002978687 0.0014046541 -0.0011151055 -0.0013031602 0.0026766686 0.0009032164 0.0023271178 -0.0050285123 0.0029110184 0.0025435754 -0.0017682544 -0.0020986376 -0.001561205 0.0010322309 -0.0043176864 -0.0035426067 -0.0027301717 -0.0024046786 0.0057501323 -0.0018232442 0.00011984425 -0.0037297378 0.0022367807 -0.000880318 0.0020862503 4.622247e-05
would -0.001796525 0.0008188427 -0.00012603698 -0.0008122594 0.00026670232 0.00086397404 0.00016065306 0.00029033032 0.0014677293 0.00083004974 -0.0032853736 0.003091809 -0.00040033003 -0.00096674176 0.0009674577 -0.00020047357 0.0014972967 -0.0005876839 0.005236731 -7.929926e-05 0.00085268565 0.002782493 0.00021241095 0.0039733965 -0.00015055273 -0.0026426262 0.00021766908 0.00032823795 -0.00081007037 -0.0017665853 -4.9752787e-05 -0.0011995941 0.0020437492 -0.00078602345 0.0018721789 0.0010240765 -0.0036173896 0.0010167434 -0.0004480308 -0.0024831258 -0.0004977528 -0.0021311466 -0.0009189445 0.002920219 0.00052481366 -0.0012729521 -0.0006870405 8.7859975e-05 0.0040812152 -0.0016644791 0.0032902793 0.0021542476 0.0013851519 -0.00041414006 -0.0016189154 -0.000487087 -0.0012224015 -0.0008543629 -0.0012505663 -0.0009782359 0.003886011 0.0006778285 -0.0032031096 0.0016677454 -0.0011651444 -0.0015015148 -0.00097571925 -0.0014581025 0.0015571165 -0.0019800132 -0.00014453226 -0.0030179264 -0.0017473798 0.0011496813 0.00010112561 0.001821562 8.1467006e-05 -0.0024149893 0.0001204391 0.002315707 0.00053153647 -0.0018374972 -0.00021627461 0.0017941213 -0.000104133105 0.0013497391 -0.0007568886 -0.00059869664 -0.0017398683 -0.0010490256 -0.0041108252 0.0019806626 0.0020028155 0.0019864351 -0.0032619932 -0.0013884847 -0.0019486563 0.0008582108 0.002283518 -0.001139719
like 0.0011366371 -0.0011291018 0.0008640562 -0.0035643645 -0.000110321336 -0.0022657777 0.001367414 0.0009762501 -0.00012571608 -0.00019547652 -0.0024343482 9.010423e-05 -0.00039357634 0.001981358 -0.0002242723 -0.0010737202 -6.645524e-05 0.0018297774 0.0011098194 -0.0035706512 0.0015865169 0.00044513214 -4.779971e-05 0.0015640738 0.0030921323 0.0012757045 -0.0002880405 -0.0044373847 -0.0009605585 -0.0027917903 -0.0006947067 -0.0010776758 0.000899346 -0.0008017998 0.0012933738 0.0024500424 -0.0005242851 0.0021006463 0.0021412636 -0.00022846651 0.00069046865 -9.033922e-05 -0.00014978998 0.00444907 -0.0016890847 -0.0023787615 0.0030408201 0.0022457696 0.0028873642 0.00094244815 0.0017615486 0.0022247077 0.0016355809 0.0010405234 -0.00036059043 0.0005452679 0.0012436918 -0.0007902065 -6.877733e-05 -0.0014647142 -0.0016322929 0.0012197072 -0.0024925377 -0.0021216131 -0.0038148172 -0.0027268245 0.0009897887 -0.0034424094 0.0016199638 -0.0025307934 0.003166109 -0.00045426367 0.0009299157 -0.0006879569 0.0035904758 -0.0005300967 0.0003649382 0.0017107989 0.00055792177 0.0016577789 0.0013424448 0.00076118764 -0.0011457107 0.0037823073 8.02182e-05 -0.00012731907 0.0012657553 0.00059819175 -0.0038636557 0.0017597985 -3.3022625e-05 0.0022094776 -0.00060702907 -3.952876e-05 0.0027139655 -0.0028782098 0.0017663136 0.00074762705 -0.0022613003 0.0038227213
make -0.0030035959 -0.0034916229 -1.7271801e-05 0.001048818 -0.0042340774 0.0009425035 -0.003919418 -0.00078298204 -0.00054631464 -0.003601485 -0.0022109712 0.00013774837 0.0028039305 -0.0009206312 0.0034509248 -0.002874875 0.0010193684 -0.0006042206 0.0023934734 0.0008053091 0.0038215155 0.0008499944 0.0029250404 6.8940346e-05 0.001047719 -0.0009965025 -0.0025172294 -0.00199776 -0.0021958405 -1.2846452e-05 -0.002849251 -0.003722258 0.0011043629 0.00307071 0.0025653585 0.0014337663 -0.0036886146 0.0013298658 0.0020163928 0.0024286294 -0.0032720023 -0.00081322173 -0.0027289202 0.006154762 0.000207017 -0.0026450602 0.0005623365 -0.00049298047 0.005017623 -0.0012782511 0.0029201836 0.0047936025 0.00019829809 -0.0019259136 -0.0021053106 0.00022115397 0.0026822567 0.00071955234 0.0009387425 0.002332017 0.000980915 0.0028730677 0.0007390876 0.0013469906 -0.0003867103 -7.6978824e-05 -0.003168329 -0.0020033242 0.00058852317 -0.002636622 -0.00054155797 -0.0018322808 7.5062126e-05 -0.00095894927 0.002943589 -0.0010769953 0.001281424 -0.0001735208 0.0011496075 0.0019823075 -0.0019929076 0.00061939296 0.001870863 0.00022646278 0.0011421648 0.0026911946 0.0012161037 -0.002443309 0.002866829 0.00079337653 -0.0025286598 0.0009511346 0.0015097066 0.0027042336 0.003363543 -0.001315272 0.002121412 0.001434729 -0.0011698975 -0.0015501512
get -0.005067182 -0.0033006484 -0.0009013102 0.0021545344 -0.0019706765 0.00059065624 -0.0031755853 0.0018016843 0.001564471 -0.0028741534 -0.004024128 -0.0011506901 -0.0012549234 -0.0021068358 -0.0012767239 0.0007228038 0.00214269 -0.0016582164 0.0032667296 -0.0025876488 0.0013350463 -0.00074863195 -0.00080751267 0.002765825 0.0013645834 -0.00080056157 -0.0004214685 -0.0017124951 0.002434375 0.0016111239 0.00022754433 -4.127209e-05 -0.0020548443 -0.002225079 0.0023038152 0.0034117033 -0.00032881435 0.0019483779 -0.0028093657 -0.0022537878 -0.0018932186 -0.002066803 0.0034415685 -0.0010295303 -0.0013377914 -0.000522578 0.0008616844 0.0012392929 0.00065424625 0.00028426814 -0.004661102 0.00022681097 0.0002737916 -0.0016877131 -0.0038716397 -0.0022899476 -0.004345428 -0.0006665579 0.003374172 0.0005326521 0.0019393127 -2.390093e-05 0.0006844191 0.004626063 -0.0016451494 -0.00073081115 0.0022235757 -0.0011703165 0.003968351 0.0010992108 0.0009081372 0.0025725358 -0.0026278761 0.0026628175 -0.002324208 -0.00065463607 0.0004968924 0.0012829079 0.00035919202 0.0013941495 -0.0033295911 -0.0018338886 -0.0011447357 0.0017234627 0.0018723021 0.00019960944 0.00028413764 0.0007774656 -0.0015738981 0.00027421414 -0.002892318 -0.0009193416 0.0029866819 -0.00049855106 -0.00018215539 -0.00037156467 0.0028277982 0.0029228332 -0.0010647579 0.0023013207
show -9.1228634e-05 -0.00098997 0.00091536803 0.0018787171 -0.0011251607 -0.0011005002 -0.0017817299 9.858041e-05 0.0006545806 -0.000712052 0.0011761046 -0.00014507376 3.3376484e-05 0.0007398893 -0.0015417016 0.0016275044 -0.00031466156 -0.0006153892 -0.00061030773 -0.0015626672 5.4123473e-05 0.0025464455 -0.001278742 0.0008943018 0.00012165215 -0.001516427 -2.9452738e-05 -0.001137882 0.00030120314 -0.0010199654 -0.00045913365 0.0028439232 0.0020685524 0.00062309136 0.0015864804 -0.0036030086 -0.0032373148 0.00023603608 0.00024148915 0.00305215 0.00014902042 0.0015689806 -0.0012839038 1.7139448e-05 -0.00060110795 9.384067e-05 0.0017139125 0.0010516506 0.0049335095 -0.0024084544 0.0030985235 0.0028798683 0.004048433 0.00256083 -0.0017491445 -0.0046242806 0.0024743727 0.0008919129 6.727417e-05 0.0045871916 -2.8530221e-05 -0.0010678177 -0.00090572913 0.0026410164 -0.0009499239 0.0021809286 -0.0004303198 -0.0018656249 0.0026012587 -0.0005317651 -0.00062580017 -0.00048073326 -0.0014031503 -0.00014969656 0.0023305465 -0.0001703912 0.0023300326 -0.0013522588 -0.0018554613 0.0015740581 0.0010774188 -0.0007005077 0.002034868 0.0021171814 -0.00079856254 0.0009407286 0.00041644459 -0.0043360423 -0.00016896562 0.0014177992 0.001756337 0.0014667307 0.0015604302 0.0021968903 -0.0007803526 -0.00041249173 -0.0022300978 0.0010518954 -0.0015616291 -0.0005201956
no -0.0035684058 0.0022782693 -0.00057850755 -0.0021887831 0.0023216745 0.0014244688 0.0043001147 0.002274088 0.00011148123 0.0025310116 -0.0034252745 -0.003653624 0.006344172 -0.0026709537 -0.0029214395 -0.0011204766 -0.0008045023 -0.00047855673 8.376187e-05 0.0013205131 0.003231121 -0.0060571874 0.0026168246 -0.0032724896 -0.0007737611 0.00077471125 0.002551694 -0.0019884484 0.00044603884 -0.0017339562 -0.006162719 -0.0045275874 -0.004618612 0.0013247769 0.002097624 -0.0024084046 0.00060295436 0.003074923 0.0022993565 0.00092480646 -0.00432281 -0.0025637443 0.00067544775 -0.0005263656 0.00034118642 0.0053772107 -0.0018514858 -0.000845165 0.0029231936 -0.0052943258 0.004602133 0.0024317899 0.0008340967 -0.0015774803 -6.3415384e-05 0.00055361894 -0.0029032254 0.0035366863 0.0026702872 -0.0022660596 -0.002770446 0.0011942256 -0.00195743 0.004131841 -0.0039913123 -0.0032196343 0.00354593 -0.0033929776 -0.0021194841 -0.0006115434 0.0034114728 -0.0011334044 0.0024070062 -0.0056203455 0.0019543443 -0.0022523394 -0.007000063 0.0009662765 0.005271188 0.00766147 -2.9931543e-06 0.0011862555 0.0014308891 -0.0001293656 0.0009826733 -0.003569636 -0.0005543289 0.0023412344 -0.0015016673 0.0015275584 0.0021609296 -0.000712305 0.0041786092 0.0025147935 0.0009526479 0.0024785793 -0.00040614879 -0.0058990107 -0.003068802 0.003905736
watch -0.002521417 0.0028131423 0.0012359432 0.00073211355 -0.00015444309 -0.0005645526 0.0006954002 0.005107786 0.00063988747 0.00016987348 0.0006705778 -0.0026529224 0.00022686229 0.001924293 -0.0005411524 -0.00045046458 0.0029103872 -0.001061303 0.0019841515 -0.0035967682 0.0017803375 0.0015434915 0.00015057251 -0.0011327785 -0.0010260125 -3.359029e-05 2.9302326e-05 -0.00058499974 -0.002079685 -0.0023430139 -0.00016554612 -0.0013195912 0.00078324357 0.000988215 0.00159926 -0.0016318434 -0.00059901463 0.0020934404 -0.0011451802 -0.0018357347 -0.00023808819 -0.00053963315 -0.0011651658 -0.0007020138 0.00183908 -0.0013956417 -0.00016263401 0.00021615668 0.0001464361 -0.00024932838 0.0026009642 0.0033538456 0.0011660951 -0.0023752814 -0.0020910273 -0.0020247956 0.0012892131 0.00026835725 0.0015616562 -0.0021479058 0.0009776305 -0.00071893504 0.00020983843 0.003666274 -0.0014049244 0.0031139657 -0.0028363487 -0.0001503978 -0.00015490825 -0.0009692756 -0.00023846791 -0.0015796815 8.817545e-05 -0.0021738515 -0.0011173909 -0.00040253633 -0.0006583969 0.0018762398 -0.00021487042 -0.00023288433 -0.002133717 -0.0022716948 0.00028272808 0.00087796623 -0.0014723482 0.00037404124 -0.00024819368 -0.001727887 -0.00028514882 0.0020955289 -0.0014722331 -0.00021029428 -8.3805746e-05 0.0023971524 -0.0011518797 4.302316e-05 -0.0008149411 -0.0016544762 0.00077172765 0.0011174598
first 0.0005668296 -0.0033005886 -0.0005803621 0.00077140424 -0.0017948606 0.00022194562 0.001627723 0.003479882 0.002290046 0.0013100773 0.00092241535 -0.0009527998 -0.00034122483 0.00015746373 -0.0010771159 -0.001594259 0.0002192022 -0.0008157592 0.0014918653 -0.0026384515 0.0031303542 0.0026399738 0.0017345513 -0.00010411681 -0.001621555 -0.0003599175 0.00081106107 -0.0017628026 -0.000216071 -0.0029698943 0.0001901879 0.00080375856 -0.00038841134 -0.003187339 0.0023699629 0.0018322336 0.0013819409 0.0009072043 0.0030054378 8.8689536e-05 0.0006667505 -0.00070225896 -0.00047028184 0.0010356193 -0.0006805744 8.8089146e-05 0.00048300813 -0.0021686803 0.0026897544 0.0007345069 -0.0013923463 8.743362e-05 0.0005788431 -0.0014105664 4.192563e-05 0.0037387277 0.001644502 0.0009079697 0.0019266803 -0.000848347 -0.0008222854 0.002396689 -0.00010911754 0.0008098579 -0.0014970322 0.0002770124 -0.0027333854 0.0009415187 0.0026829988 -0.0011245387 0.0010361794 -0.0019351662 -0.0033389246 -0.0017562336 -0.0010996539 0.00093572174 -0.0021546485 0.0016247197 -0.0006686467 0.002338095 -0.00019897349 0.0027596592 -0.00054104044 0.0030316298 0.00090754137 -9.307234e-05 -0.0013892837 0.0015975612 -0.0014313643 -0.0005637379 -0.0005124392 -0.0011314667 1.00565785e-05 0.00033079562 -0.0009428283 -0.0005760687 -0.00097471254 -0.0003689795 0.0031009526 0.0025932114
far -0.0054380144 -0.0008139449 -0.0021248432 0.0015019489 0.00082184176 0.0014194228 -0.0016291406 0.0028479528 -0.0015887504 -0.0028994584 -0.0027122493 0.0006147625 -0.00055605045 -0.00022395408 0.0016788954 0.002321365 0.0010824755 0.0008768092 0.0011377877 0.0019061582 -0.0006947794 0.000901331 0.0026007567 0.0023500412 0.0024152708 4.6636178e-05 -0.0026769114 -0.0027719396 0.002218168 0.002887932 -0.0028988558 0.0007977894 0.0011276746 0.001253503 0.0007328098 0.0045199017 0.0007610658 0.001971367 -0.0034708981 -0.0001829506 -0.0013644852 0.00012776881 0.002975103 0.0001237907 -0.00031054873 0.0011842322 -0.0031978667 0.0024045852 0.0012028861 -0.0022131882 0.003261324 -0.0029625166 -0.0018499882 -0.00075918983 0.00056276674 -0.0009843997 0.0024510834 0.00070729916 0.003456352 0.0001690158 -0.0007141565 0.0021597554 -0.0018541912 -0.0023835618 -0.0005843382 -0.00028898826 0.0012657371 -0.0040505375 0.0015697676 0.0043221996 -0.0001423979 0.00075516955 -0.0036118808 -0.00587603 -0.00063846615 -0.002804019 0.0019018939 0.0019861262 0.00087962433 -0.00019868347 -0.003799295 -0.0011158036 0.00023010047 0.0042612534 0.0017882552 -0.0013119031 0.0040071877 0.0012076098 0.00019695517 -0.002304549 -0.00042780954 -0.0013048716 0.0026783273 0.0006271782 -0.0010151056 -0.0021894674 0.0018020925 0.0002209495 0.0018664368 0.0013697472
out -0.0013976025 0.00031937385 0.0018989398 0.0025210674 -0.0007206778 0.0023019724 -0.0013822349 0.0012426352 -0.0045692553 -0.000367138 -7.1614384e-05 -0.0033640251 -0.0019490634 -0.0015536463 -3.8632246e-05 0.0003841451 -0.003428249 -0.0037807692 0.00076174055 0.0037317052 -0.0023677053 0.0017953276 0.0024648372 -0.0028894374 0.0014538185 -0.0009915428 -8.187656e-06 -0.0028506329 3.002185e-07 -0.00087233976 0.0020389834 5.555306e-05 -9.683248e-05 -0.001660443 -0.0019286618 -0.00041170162 -0.0002983543 -0.0010973074 -0.0018762248 0.002586698 -0.004403698 0.0017479474 -0.0012880365 -0.0047534136 0.00039640474 1.5541047e-05 -0.0001458698 0.00013364239 -0.0008351454 -0.0014186766 -0.0001006337 0.00083634804 0.00070427585 -0.0025978365 -8.439199e-05 -0.0006426081 -0.0014691595 -0.0017942494 0.0013017487 0.0016054662 0.0008660581 0.0046850005 -0.0025088915 0.004926356 0.001860648 -0.0006646001 0.00013009552 -0.0027589742 0.001151556 -0.0019309062 0.006634378 -0.0024578918 -0.004518777 -0.002958743 -0.0016741054 0.00061466964 -0.00066877657 0.0030189522 -0.00035260912 -0.00016180353 -0.0010476197 -0.004229519 -0.0024288273 -0.00072432857 0.0033079665 -0.0046577714 -0.0011222111 0.0018577294 0.00061170786 0.0008937751 0.0034451827 0.0019400999 -0.0012193869 -0.0007765536 0.0035761155 -0.0038611202 -0.0002811496 -0.0032580842 -0.0005975069 -0.0011542459
play -0.0021758424 -0.0025649974 0.00047284534 -0.0004549848 -0.003674671 0.0022132462 -0.0016837892 0.0019704883 -0.0027900496 0.0025489498 -0.0022787927 -0.0019783298 -2.5109768e-05 -0.0009645065 0.0013149577 -0.0012464179 0.0014078789 -0.0018368665 0.0027884566 -0.0011353395 0.0020075198 0.0039454903 0.002986741 0.0019148571 0.00037632388 -0.00055119675 -0.0008074883 0.0013371408 0.00096527976 0.0020049007 0.003125024 0.0004817184 0.0021624116 0.0006433413 -0.0016735357 -0.0008382022 -0.0012029979 0.00093122275 0.0023427624 -0.00055136514 0.0007975698 -0.0016839593 0.00031669086 0.0026291145 0.001973196 -0.0006838878 -0.0012360676 -0.0006737586 0.0003292938 0.0018327973 -0.00013209083 0.0008267673 0.0005054031 -5.787505e-05 -0.00058327924 -0.0045399037 -0.0014506701 -0.0016474895 0.0010312696 0.0019673794 0.0004744326 -5.253832e-05 0.0013586974 0.003997657 -0.0008157098 -0.0027263074 -0.0046592904 0.0016576796 0.0040936726 0.00095147156 -0.0011554122 -0.0021170394 -0.0020027116 -0.00043185466 0.00043996776 0.002632113 0.00089847186 0.00056078465 0.003068661 0.0023114125 -0.004253927 -0.0016093879 -0.0017725063 -0.00015616127 -0.002923116 0.0014759876 0.000598401 -0.0035219158 0.0007928273 -0.0015134007 0.0036870702 0.0014835949 0.0024556688 0.0045584477 -0.0006774529 0.004426921 -0.0013914163 -0.0012647762 -0.0006939243 7.386347e-05
bad -0.0011074601 -0.0004649765 -0.0012232953 -0.0020895293 -0.004885691 -9.163526e-05 -0.0017470906 0.0010798657 -0.0033386468 -0.002576159 0.0017343798 0.00033226568 0.00020706654 -0.0019906682 -0.0010188589 -0.0007429852 -0.00014123393 0.0007525748 -0.0028345145 -0.0008179752 0.0024521272 6.730728e-05 0.0074200076 0.00041272026 0.002185066 0.0015148188 -0.0016355535 0.0053720833 -0.0005549848 0.000984057 -0.00011140398 0.0018536104 0.0009082497 -0.0018971724 0.0014146355 -0.0027987666 0.0021491537 0.0008514159 -0.0022118604 -0.0004182698 -0.0028956446 0.0012310725 0.0010710914 0.003652941 0.000837671 -0.0024959706 0.0009871817 0.0013679394 0.0014591614 -0.00067883625 -0.0019378738 0.0022203096 0.0037884389 0.0019625232 -0.0015968932 0.002005307 -0.0018911836 0.00048760817 -0.0007777174 -0.0016628549 0.0011623419 0.0029431412 0.0005276533 0.0012319342 2.515835e-05 -0.00023665828 -0.0028446882 -0.0006042543 -0.0005074898 0.004341968 0.0022531631 -0.0018240794 0.0054480606 0.00051428826 0.0023086038 0.0010654323 -0.0035695492 0.0012299868 0.000105847525 -0.002776507 -0.0004590205 0.003337295 -0.0026208083 -0.0010720313 0.002583395 0.0015935239 -0.0025826506 0.0010960235 -0.0025423765 0.0038790102 -0.0019379675 -0.004266332 0.0023720493 0.0016437537 0.0016725495 -0.0011444108 -0.0030951856 -0.00040509156 0.0032693108 0.001150979
scene 0.0002034129 -0.0026165678 -0.00059060776 -0.0002821148 0.0012858971 0.00083386846 4.6547644e-05 -0.0006810661 -0.0016855341 -3.4317498e-05 0.0006780066 -0.0021704957 -0.0004672915 0.00037849098 -0.0012860611 0.0011302971 0.0037522817 0.0009057278 0.0018547052 -0.0011763719 -0.0013778674 0.0007291479 -0.0010856393 -0.0040083635 0.00087938586 -0.0011456243 0.00097383524 -0.0018414927 -0.00078330084 0.0034127154 -0.0003412024 -0.000108698136 -0.0036054542 -0.0022757505 0.0015156195 0.00022743174 -0.0018506016 0.0021068542 0.0031399461 0.0012837882 -0.001608026 0.0006657519 -0.0004787463 0.003587388 -0.0005366039 -0.0004599369 -0.00090594566 0.0007947132 0.00025828445 0.0015439875 0.00020260649 0.0005054671 0.0035868506 0.003428633 0.0013870557 -0.004975373 -0.0020232424 -0.00022569744 0.00051514746 -0.0035645158 -0.002649936 0.0017046588 -0.001804744 0.0023329342 0.00074056286 0.0006059607 -0.0003647839 -0.00059569505 -0.00054396136 -0.0023056197 0.0006400975 -0.00022929242 -0.0012324726 -0.0006841248 -0.0017233498 0.0031052376 -0.0010285139 -0.00196119 0.0004721787 0.002277055 0.0011089045 0.00010763086 -0.0012463671 0.002501096 0.0008750684 0.00025383828 -0.0017466135 -0.00040684346 -0.0013639049 0.0003134679 -0.00095922017 -0.0029323297 0.0016303264 -0.00046366913 0.00090480584 0.0012130308 0.0013530854 -0.00014329817 -0.00063758955 0.0034530575
right 0.00022902364 -0.0010806189 -0.00021400253 -0.00019301452 -0.001034442 -0.002978145 0.00044665483 0.0005157496 -0.0013837328 -0.0019073454 -0.0026634003 -0.002211385 -0.0017776263 -0.0033927187 0.0016116895 -0.0019758204 0.0027774822 -0.00043984732 0.0010454112 0.0024649473 -0.00096388295 0.0028847118 0.0005507011 -0.0015533406 -0.00025214622 -0.00072549295 0.0015825003 -0.002277436 0.002195073 0.0005383762 -0.0009814317 -0.002135238 0.00077138585 -0.0020778526 0.0022989705 -0.0020939256 0.0008932654 0.0046016322 -0.0010895677 -0.0021021694 -0.001667532 0.001034653 -0.0012540588 0.0011671087 0.0019340991 -0.0005951136 -0.0011504745 -0.002010761 0.00553074 0.0006652138 0.001798936 -0.00068003684 0.0012529151 0.00063963124 0.00020942326 -0.0009349535 0.0005897131 0.0012832795 0.0014712726 0.0025084412 -0.000924581 0.0024811842 -0.00043683633 0.0050715483 -0.0018879059 0.001251879 -0.0015290885 0.00136217 0.00014673403 -0.0015038158 -0.0002903464 -0.0003690519 0.00012606078 0.001565088 7.207148e-05 -0.0015523041 -0.0032853193 -0.0010959859 0.001764637 0.0027138554 -0.0031107564 -0.0014164536 0.0026028748 -0.0006891072 -0.0031994362 0.0040179524 4.688953e-05 -0.0015092863 -0.0021573293 0.0008484066 0.00053922815 -0.000790205 -0.0001767693 2.4403787e-05 0.0006863633 0.0003540863 0.0016611669 1.5881534e-06 0.0006747316 -0.00040787886
thing -0.00035833236 -0.0034199408 -0.003244732 -0.0018042639 0.0005058304 0.00066596654 -0.0016779099 0.00010480719 -0.0023746153 -0.0011330034 0.001139006 -0.00031984595 -0.0013405357 -0.001463456 0.0007108424 -0.0012933667 0.0023759531 -0.001213375 0.0013728004 -0.0010971909 0.003152968 0.0017891392 0.0018925832 -0.00067344005 -0.0016940528 0.0009202076 -0.00043176618 -0.0020389324 0.0006472851 0.0019585164 -0.0016916365 0.0017622786 0.0026222325 0.0006458266 0.0042540366 -0.00028032466 -0.0038367086 -0.0016157626 0.0013115176 -0.0027100139 8.176267e-05 0.0018422257 -0.00011521823 0.0022856758 -0.0023110248 -0.0017679163 0.0009819604 0.0003813342 0.0023247227 -0.0036676303 -0.0009987716 0.0037067076 -0.0002994626 -0.0017506575 -0.0007808694 -0.00055738626 0.0004388574 0.0011077671 -0.0006467882 -0.001591977 0.00023938256 0.00024016417 0.0009804476 0.0028227845 -0.00011538015 -0.0024990526 -0.00013053045 -0.0026549345 0.0027881467 -0.00040412118 0.0026529133 -0.0004894772 -0.0014167378 0.00015914098 -0.0032004283 0.00025564813 -6.693474e-05 -0.0032262127 0.0013354096 0.0003580446 -0.0021892018 -0.00031530263 0.0009681052 0.0024874997 -0.0010275211 -0.0001967996 -0.0015000749 -0.0024583004 -0.0016736445 0.0025381024 -0.002343456 0.0017117395 0.0026629895 0.00015749925 0.002199737 0.0006044662 -0.001621448 0.0026503433 0.00028620558 0.0012482778
say -0.0036251268 -0.0024484454 -0.0006942765 0.0031633154 -0.0037857944 -0.00043559755 -0.0025778513 0.0044127554 0.0009827515 -0.000874194 0.0028301955 -0.0010934211 0.0031991298 -0.0012644237 4.9887225e-05 0.0027865688 0.0023365996 -0.0004231979 -0.00214886 0.00027382228 0.0017090134 0.0005760485 0.0033025756 0.0017676437 -0.0017044593 -0.0010936118 0.0030281001 -0.0062792427 0.0035586245 0.0018602406 0.0049177534 0.003058609 -0.0017699676 -0.0011925731 0.004334132 -0.0012422582 -0.0020360893 -0.0002663339 -0.00020273213 -0.0016735162 -0.001688299 0.0035580385 -0.002611084 0.0030637512 -0.0019100879 -0.004354908 -0.0027501502 -0.004941345 0.0015084102 -0.00093672425 0.0002466103 0.0010886876 0.0026697607 -0.0015251839 -0.0005606996 -0.0042996733 -0.0035989112 0.0014919889 -0.0023650664 0.0011656274 0.0002223818 -0.004167865 0.0011776506 0.0034273972 -0.0016346907 -0.00070038356 -0.002155474 0.0001274151 0.0009811172 0.00082177616 -0.0013827222 -0.0015707174 0.0011302719 -0.0019443183 0.0033567583 -0.0024529488 -0.00056604046 0.0015141781 0.00084531395 0.0036741237 -0.0025146694 -0.0014546572 0.00020420927 -0.002490945 -0.0006949717 0.0010292513 -0.00031165688 0.00075809885 0.0014226937 -0.0010405506 -0.0024381184 -0.0026321039 0.0019436668 0.002946338 0.00055001123 0.0025782248 -0.00036702 -0.0023428209 -0.003746738 0.0017168858
than -0.0011013412 -0.0002297616 -0.00048680083 -0.0018852528 0.0015955287 -0.0029912977 0.002219788 0.00037223168 0.0033609471 0.0019233857 -0.0010474944 0.00053873274 -0.0021686119 0.0005422832 0.00071619655 -0.0012655033 0.002456933 -0.0018825919 -0.00064551964 6.130776e-05 0.0023622345 0.0005036024 0.0012546347 0.0018779129 -0.0026170867 -0.0017896827 0.00045100052 -0.0025624929 -0.0022351448 0.00303427 -0.00018046492 0.0027128502 -0.0031253411 -4.3626536e-05 0.004088475 -0.0027113834 -0.002500295 0.0019278015 0.0013271498 -0.0017358232 0.0028883107 -0.0014979375 -0.0002832869 0.00024458065 -0.0031439364 -9.0929956e-05 5.7065223e-05 -0.0011939936 0.0042284625 0.0030660005 0.0059196623 0.0019986948 0.0016695095 -0.0007481199 -0.0007301301 -0.0022760527 -0.00029298573 6.325835e-05 -0.00046016157 0.0023487273 0.0025338524 -0.00077674235 0.0014506987 -0.00087851385 0.0006557438 -0.0009403508 -0.002454503 -0.0004808931 0.0011952776 -0.0034415955 -0.00031317008 0.0014490536 0.00044246027 -0.00018840432 -0.0029751414 0.0017893602 -0.00021025898 0.0003888337 0.0025477954 0.003281322 -0.0037396536 0.0008769427 -0.00065205176 0.00018733893 -0.00011760467 0.002034695 -0.0006312518 0.0007249287 -0.0028445942 0.001769162 -0.0020870047 0.0024072847 0.0025922088 -0.001020018 -9.956744e-05 -0.0014673491 0.0019141439 -0.00086210296 0.0033857047 0.0004881084
time -0.0020120621 0.00095247966 -0.0023204794 -0.0011093528 -0.0010757837 -0.0019762507 0.0015791138 0.0029737928 -0.0019978182 0.0008349312 -0.0010818976 0.0018986367 -0.0022091032 -0.00043312376 -0.0012825027 -0.0017604005 0.004110335 0.0013310675 0.0032912039 -0.0003056195 -0.0014073547 0.00044695783 -0.000468061 0.0011518354 0.0022982066 -0.0030813103 -0.000926931 -0.0025616572 0.0004928377 0.00048475235 0.001754776 -0.0024981303 0.0028420798 -0.0013319618 0.0007840535 0.004974692 -0.0018264719 0.0035645498 0.00035275205 0.0019587101 -0.0013147104 -0.0016920853 -0.00094720314 0.00061050314 0.0005176798 -0.00034789552 0.0014046165 0.0017556094 0.0037301285 0.0015828534 -0.0011689914 0.00047806592 0.0008918945 0.0011980367 -0.0015223165 -0.0015512157 -0.001335046 0.0017787275 0.0011283591 -0.00096941035 0.0012275438 0.00075757265 -0.0032859081 0.00055403204 -0.0005660861 0.0014318123 0.00011553044 0.0017670001 0.0005353182 -0.0015380085 0.0002877662 -0.0012763422 -0.00031270113 -0.0014971722 7.915954e-05 -0.0011161088 -0.00028447693 -0.0010205038 -0.00080217794 -0.0009239446 0.0021493728 -0.0019707272 0.00032614736 0.0013549133 0.00049216964 -0.0005598311 0.002370181 0.0016312618 0.00053832127 0.0014803637 -0.0024193428 -0.000507673 0.0015631671 0.0023780079 -9.95751e-05 -0.0007078134 0.0003655595 -0.0009549577 -0.0010220788 0.0022919641
character -0.00076873327 -0.002848632 -0.00206101 0.0019107526 -0.0022046908 -0.0006940657 -0.0009912105 0.0006422883 -0.00083789165 -0.00040052572 -0.002114209 0.000885231 -0.000525996 0.00034719723 -0.00097543583 -0.0006596563 0.0012699431 -0.0004529024 0.0016168983 0.0005744339 0.0024443264 0.0018030122 -0.00079617265 0.0003017529 0.00010549057 -0.000106461135 0.0013020023 -0.0022849177 -0.00033327242 0.0007744655 -0.0003075541 -0.0012333645 -0.00077529333 -0.00072696636 0.0021625003 0.0017283047 -0.0021762867 0.0019007056 0.00037617932 0.00057237834 -0.0016100801 -0.0022287308 0.00029335343 0.0029482446 0.0008743486 -0.00110845 -0.0008510707 0.00013695203 0.0013091795 -0.0018079081 0.002003996 0.000718622 0.0028715297 -0.00030187998 -0.0023745487 -0.0005538234 0.00070616306 0.0013935611 0.0008326165 0.0014688657 0.0023313512 -0.0006645006 -0.00014477555 -0.0002121745 -0.0010448168 -6.254719e-05 -0.0016241106 7.3351956e-05 0.001200884 -0.0024994698 0.0004620668 0.0011011402 0.002107549 4.6953806e-05 0.0011393154 -0.0010391071 -0.0010439227 -0.00070415076 -0.0007843729 0.0031380795 -0.0019994692 0.00037650694 0.00014294704 0.0005424496 -0.0009766322 0.0013533444 -0.0029244544 -0.0002008577 -0.0019326631 0.0013612622 -0.0012881355 0.00015793179 0.0015165651 -0.0009234772 6.890582e-05 -0.00081350753 -0.0027950762 0.00045573202 -0.00012357168 0.0006113093
pretty 0.0019152354 -0.0010695417 -0.0007845891 -0.0004392831 -0.00016417222 4.5561806e-05 -0.0006548143 0.0014337183 0.00034996384 0.00041581233 0.0009957738 0.00049391086 -0.0020082847 -0.003096759 -0.00073218753 0.001959659 0.00011628185 -0.00058839197 -0.0015071876 0.0015062467 0.0019138328 0.0016264268 0.0019241115 0.001729088 0.0016442011 -0.0017450387 -0.0004785538 -0.0030977763 1.7354767e-05 -0.0013741759 0.0019009007 -0.0019373544 -0.0015574386 -0.0019540272 0.0013591266 0.0006673114 -0.0017372379 -0.0009751303 0.0017097343 -0.0014957347 0.00063009374 0.00065734796 -0.0019821168 0.0022393146 0.0031490456 -0.002457458 0.0011358309 0.0009996396 0.0021890693 -0.0017604375 0.0025010437 0.00078451907 -0.0001583028 -0.0029188795 -0.0023035149 0.0010097139 -0.0004210381 -0.0019663584 0.0025509316 0.002766789 0.0013909092 -0.00021584879 -0.001249076 0.001029804 -0.0033954312 -0.00088080304 -0.0010688001 0.00022895692 0.0022800188 -0.0016659541 7.345304e-05 -0.0018446373 -0.00066247594 0.0007460827 -0.0007832566 0.0003815303 0.0008388411 -0.0024968877 -0.00011242686 -0.0007492417 -0.00075250113 0.002281234 0.0007780981 0.0038967822 -5.149944e-06 0.0031847279 -0.0021199621 0.00025315932 -0.0016680873 -0.00091207697 -0.001105525 0.00089433644 0.0014367827 0.0005434559 0.002496062 0.0005371714 0.002375182 -0.0020329468 0.00012259468 -0.0024868
well -0.0031838005 -0.002698064 -0.001302564 -0.0011228881 -0.0022003318 0.0013146834 0.0016687349 0.0027932988 -0.0002381186 -0.0010493227 -0.0009170201 -0.0021320432 0.000987339 0.0019002189 -0.0004890062 0.0014480688 0.00013292547 -0.0020003775 0.00011987766 -0.0010801337 0.0016601019 0.00049634255 0.0007121844 0.00087059033 0.0011998937 0.00077886286 -0.003586063 -0.0006360237 -9.122622e-05 -0.0024249014 0.0003980002 0.001817998 -0.00050624064 0.0005261925 0.0016786275 0.0008506054 -0.0008924939 0.003598562 -0.00034583363 0.0010196934 -0.00023654746 0.0023388034 0.00025555008 -0.00111314 0.00038630914 0.0008601828 0.00041004477 0.00025274203 0.0027078986 -0.0023517052 0.0003059376 0.003380782 0.0005073791 0.0030866475 -0.0032218336 -0.0012207008 0.0008827122 0.0002620954 -0.0013995607 -0.0016648736 -0.0007113973 0.002722346 -0.0041606636 -0.00022884789 -0.0040814728 -0.0019153547 0.0008698715 -0.0028187395 0.00021795662 -0.0011744465 -0.00035641037 -0.0009890498 -0.0007141912 0.0025263352 -0.00097371096 -0.0030974941 -0.004048491 -0.00070973835 -0.0014426888 -0.0011328122 0.0021625736 -0.0010011275 -0.00081804715 0.002736882 0.002467055 -0.00085157936 -0.0012898673 -0.002855295 -0.0017080016 -0.0006450859 -0.0005125704 0.00035352353 0.002911275 0.002250349 0.003609516 -0.0010511064 -0.0037484954 0.0011661318 0.0018912313 -0.00042269702
can 0.00034047518 0.0017119605 -0.0049000615 -0.0022057923 0.0009937672 -0.0009990435 0.0017651276 0.0022235215 -0.0024114624 -0.0007258461 0.0011524854 0.0018030322 -0.00065941 0.0056219012 -0.0010705728 0.00028551117 0.0014680063 -4.2076786e-05 0.0020529532 -0.0012891941 0.00010658248 -0.0032592663 0.0019856011 -0.0027671792 0.0013283424 -0.0029754585 -0.0007305013 -0.002012426 0.0018588474 -0.0011508258 0.0017076085 -0.0005634961 9.249367e-06 0.0006176688 0.0020689473 -0.0012564899 -0.006459914 0.0035569589 0.0018728835 -0.0005000577 0.0012926236 -0.00080363307 0.00053418626 0.001539124 0.0035220382 0.0009952377 0.0027668474 -0.0018497902 0.0013201133 -0.00092766795 0.0017189622 0.0023254745 0.0015092434 -0.00032348285 0.0012113749 0.0018476782 0.0008399048 0.0028937815 0.0033707141 0.00046155107 0.005868382 -0.00087342394 -0.0027309407 -0.0006875981 -0.0018084672 -0.0012216662 0.0012437443 -0.0005245226 -0.001653388 -0.0011133791 -3.032393e-05 -0.00058199797 0.0008640019 -0.0006644986 0.0014042315 0.0012314738 0.0010455347 0.00085569214 0.00023167601 0.0017832528 -0.00037544034 -0.0029480867 0.002621321 0.0022199734 0.0024781134 -0.0012853686 0.00029395398 0.0011499558 -0.0012233183 -0.0015783615 -0.00072488125 7.364194e-05 -0.00021060822 0.0009713978 -0.00024098184 0.0067814635 -0.003293637 -0.0017641875 0.00014065322 2.427306e-05
big -0.0022208157 0.002572156 2.7747292e-05 0.00053102744 0.0028270509 0.0020378332 -0.0020493097 -0.0014236504 0.0007924713 -0.002236258 -0.0015536305 -0.0016945066 0.0035996917 0.0005377683 0.00084238214 0.00044354532 -0.0013202762 9.082875e-05 0.00096560165 -0.002854793 0.0012870327 0.0022310407 8.746935e-05 0.0002772609 -0.0021014686 -0.0005332154 -0.0022068147 -0.0009714042 -0.0017687585 0.0011600924 -0.0019602196 -0.003442921 -0.0036274588 0.0015465716 -3.8080183e-05 -0.0021779386 -0.0051532187 0.0013355047 0.00079121295 -0.0003688126 0.0030711703 6.644551e-05 -0.0028656344 0.0028272106 -0.0008529653 -0.00029948886 0.0036477358 0.00078267086 -0.0010080511 0.0014954187 0.002336325 0.00091193884 -0.0011673367 0.0001403382 0.0030245532 -0.002591199 -0.0021617424 0.0029318698 0.0014796935 -0.0034547427 0.0013055876 -0.00018401169 0.0002785232 0.00022783976 0.00025444748 0.0009838946 0.0015552168 -0.0026884868 0.0012372079 0.00055110233 -0.0009837663 9.080166e-05 -0.0008501535 0.0010315474 0.0022456998 5.8722017e-05 0.0007422046 0.0014155601 -0.0030471745 0.0013991727 4.518594e-05 0.0017134111 -0.001834744 0.00108346 -0.0026689053 0.005878262 -0.0034433536 0.0040148376 -0.0024016611 0.00089167675 -0.002838889 -0.00011703781 0.002388008 -0.0007316383 0.001079496 -0.0009085519 -0.0016276041 -0.0012710548 -0.0024429846 0.00013117112
good 0.0019920429 -0.00063857273 -0.0014824918 0.0014352183 0.0025104163 -0.0002861404 -0.0002740884 0.00017457087 0.00034190438 -0.00061424647 -0.003273504 0.00060444284 0.00027190844 0.0011383556 -0.0027748977 -0.0024037957 -0.00094584544 0.0014371016 0.0015738092 0.0015995074 -0.0014192333 0.00027126036 0.0019960948 0.00010847757 0.0027271581 -0.0009835456 5.2852767e-05 -0.0023061414 -0.0020488964 0.00035771448 0.0018288615 -5.6197445e-05 0.003993986 -0.0005404724 0.00011566119 -0.00034386103 6.6024e-05 -0.0020342285 -1.8283343e-06 0.0028426594 0.00040035738 -0.0012365329 7.164555e-05 0.0014156626 -0.0010803586 0.0018167689 0.0019447011 -0.001945149 0.0021800662 -0.0004688942 0.00092305656 -9.212981e-05 -0.0019521554 -0.0019809108 -0.00068260444 -0.0012376596 0.0021293098 0.0005456652 0.0010303574 -0.00014752547 0.0013646998 2.4416135e-05 0.0019639349 0.00071007287 0.00072984997 0.00028365033 -0.0029150217 -0.0012928158 -0.002224608 -0.0024694188 0.0017995096 -0.0010651506 0.00023366977 0.0020861235 0.003398207 0.001552219 0.0016559252 -0.00093699363 -0.0005922857 0.0004433711 0.00067678443 -0.00048256142 0.00054894306 -0.0013610605 -0.00094063976 0.0009264383 -0.0025957227 0.004317782 0.00015942524 -0.0039112275 -0.0007056749 -0.002889304 0.0037798383 -0.00031887618 0.0027910785 1.3395255e-05 -0.0005940728 -0.0004896841 -0.001702993 0.004246684
oz 0.00052384986 0.0008527065 -0.003660188 0.0031509423 0.004495908 -0.0010950601 0.0005571152 -0.0036133716 0.0009910299 -0.0016102903 0.0029880782 0.0011645793 0.0036842679 -0.00019806041 0.005416706 -0.00052515254 0.0031374232 -0.00018962388 -0.0024765977 -0.002385743 -0.006816073 0.0009150599 0.0019161054 -0.0025261585 0.0015050482 -0.0013235052 0.005762717 -0.0050865025 0.0030085677 0.004828512 -0.001373504 0.004741152 0.0040020323 0.00031205034 -0.0014696494 -0.003452361 0.003713603 -0.004381825 0.0016172772 0.0016596174 0.007488492 -0.0014148549 -0.0017133406 -0.0031663023 0.0007834566 -0.004939081 -0.0016900612 0.000819552 0.006598365 -0.0039739534 -0.0041226763 0.0030201033 0.0028424123 -0.004575245 0.0022532935 0.0025787987 0.0059598507 -0.002719141 0.000639971 0.0003524169 -9.634707e-05 0.0054432196 -0.0025381718 -0.0005222427 -0.0031506117 0.001123114 0.001762325 0.00034835213 -0.0015417401 -0.00070234074 -0.002258047 -4.0419516e-05 0.002600934 0.0025151304 0.0024697594 0.0013626334 0.003453925 -0.001773084 -0.0013877222 0.0036330875 0.00043294777 -0.0006330461 -0.0014502289 0.000973413 0.0008392673 -0.0012693013 0.004862663 -0.0045206444 0.00052797643 0.0011673295 -0.004058753 -0.0010823676 -0.00025545974 0.003160969 0.0021759176 6.731847e-05 0.0007083612 -0.0010873938 0.003117695 -0.0012009164
give 0.00031695433 -0.0037924782 -0.0009556941 -0.00076743535 -0.0017806572 -0.0009376405 -0.0005849149 0.0022259208 0.00034364732 0.00042792782 0.00032314696 0.0014210123 -0.0032448613 -0.0011522672 0.002061004 -0.00019000903 0.0012221108 0.0011950255 0.0031072767 -0.0010145982 -0.00036162452 0.0014822283 0.00039371746 0.0026649828 0.0024760065 -0.004135136 0.0033237725 0.001956416 -0.00036545467 -0.002306782 0.00050656305 0.0007499013 -0.0001672746 -0.000976193 0.0025414599 -0.0013035898 -0.0008601811 0.0013337423 0.00044464206 -0.0018633251 0.0043153083 -0.0004020752 -0.0041315537 0.0019214831 -0.0015063226 -0.0021766657 0.0020247912 4.155773e-05 0.0015338216 0.001250219 -0.0008844649 0.00070182345 0.0030343756 0.0007306324 0.0016392593 -0.0013308915 3.14511e-05 0.001084631 -0.0024171413 -0.001593342 0.0011991096 -0.0013194625 0.00077440887 0.0023784358 -0.0001884527 7.3851465e-05 -0.00047439942 -0.0004510686 0.002757431 0.00084558484 0.0028165258 7.643669e-05 -0.0004908437 -0.00066495064 0.0011392513 0.00023972563 -0.002632269 -0.00037462218 0.00032270956 -0.0019153184 0.00018439344 -2.6946778e-05 -0.0037578186 0.0022648051 0.0004509247 0.0014958954 0.0006252933 0.0002795267 -0.0024080663 0.00018225782 0.00095537456 0.00097357185 0.0014057377 0.0036610188 -0.0003624699 0.0013740049 -0.0026293416 -0.0003301896 -0.0001353519 3.4204175e-05
never -0.0029912381 -0.0016277756 -0.0020900995 -0.001061 -0.0002858488 -0.0016143256 -0.000296215 0.0015873113 0.0014830584 -0.0030537175 -0.0009397181 0.0023895004 -0.0028660805 1.9991397e-05 -0.0006348269 -0.0020775567 0.00095647946 -0.0011224614 0.0028635776 -0.0005509582 0.0042553246 0.0026880743 0.00047720928 -0.00029474188 -0.0023875525 0.00014633403 0.0009054158 -0.0029346584 0.0012882341 -0.00015411324 -0.0004148461 -0.002119471 0.0013609196 -0.0037964142 0.0018649583 0.00082889 -0.0025752469 0.002137545 0.00048617722 -0.001139416 -0.0017310065 0.001948049 -0.0007421455 0.0018740006 0.00081500935 -0.0022296945 0.00080459076 -0.00116218 0.002832707 0.0014839637 0.003099394 0.001915427 -0.00022120985 0.0041754344 -0.0031012832 -0.0011173662 0.0031020201 0.0020010131 0.001894983 0.0013144553 -0.000117160875 -0.0010518839 -0.0019147295 0.0005510304 -0.0007891215 0.0012701668 -0.0010373857 -0.00046261845 0.0040972773 -0.00223946 0.00027352906 -0.00024309795 -0.00066530803 0.0014941765 -0.0023366336 -0.00083522685 -0.0017484804 -0.0010474618 -0.00016099284 0.000929938 0.0016318407 0.0010683945 0.0014811421 -0.0003586938 -0.0012281963 -0.0006373769 -0.0021409157 0.0015711605 -0.0020175609 0.0040682624 -0.0017887546 0.0016625901 0.00029158252 0.0011998691 0.00080084865 0.00054111535 -0.0038145569 0.00083470414 0.0013434229 0.00025007623
think -0.0009939976 2.1496166e-06 -0.0011152573 -0.0015062102 0.0010781132 -0.0020670695 -1.8899453e-05 0.00054890115 -0.0017452083 -0.001342378 0.0021433157 8.3652885e-05 -0.0024526701 -0.0036728694 0.00060236984 0.00038232846 0.00011198096 -0.0014688574 0.0033377563 -5.6120007e-05 0.0010517411 0.00045677988 0.001695694 -0.00061829266 -0.0034027838 -0.0002799002 0.0008666532 -0.0008155754 9.291018e-05 0.0030970299 -0.0007447465 0.0025558996 -0.0020940232 -0.00030940754 0.0035942728 0.0015276646 -0.0044664484 0.0010374739 0.0006706275 -0.0012171556 -0.0005927343 0.0014959206 0.002142173 -3.8301943e-05 0.00071994413 -6.0336384e-05 -0.0014446712 0.0015773935 0.00211325 0.00065466174 -0.00077619194 0.002484948 0.00022990005 0.00048468763 -0.0006992607 0.0012246486 -0.0016303286 -0.000109607354 0.0022865562 -0.00062782445 -0.0017100272 -7.408595e-05 0.0016703877 0.0043855915 0.00085214066 0.0005196591 -0.0012976554 -0.0037863492 -0.00053842855 -0.0016551428 0.0013565901 -0.0007354997 -0.0033472797 0.00061066897 -0.0011793766 0.0007950768 -0.00014046536 0.0011664287 0.0023538123 0.0022645234 -0.0020932024 -0.0019109927 -0.0010232002 -0.0012476476 -0.0037281285 0.00043358517 -5.390849e-05 -0.0014914259 0.0004699976 0.0010025252 -0.0022357255 -0.00019233525 0.002569481 -0.0007302478 0.0027939475 -0.0022246868 -0.0004537859 -0.0009593615 0.00048406358 0.0034751028
way 0.0029630677 -0.0017868917 0.00057567423 -0.0020117515 -2.6976291e-05 -0.0033478385 -0.0035444146 0.0010702433 -0.00018875778 -0.0006637539 0.0023969035 -0.00019997591 0.0011190625 -0.0010203383 0.0028323394 -0.0008945461 0.0035209248 -0.001487106 7.469819e-05 -0.0009443326 -0.0011433978 0.0030145708 0.00047208834 0.0015684644 -0.0018265424 0.0007131568 -0.0014506708 -0.0018970255 0.001206127 5.2383355e-05 0.0021186061 -0.0016155551 0.00024185741 -0.00021813624 0.0023952003 0.00086694857 -0.0020737175 0.0032138093 0.003435805 0.0034346527 -0.0007936551 -0.00057153776 9.102474e-05 -0.00035513332 -0.0012623196 -0.0008173948 0.003006809 0.003555194 -0.0031949782 -0.002112052 -0.00015057383 -0.0020910013 0.001434982 -0.0004704254 -0.0049162474 6.7689056e-05 -0.0018125019 0.002413692 0.0033923616 0.00062332005 -0.0028255454 0.00094195735 -0.0007995679 0.0004964284 0.0008714662 -0.003149839 -0.006068041 0.0012669166 0.0034721734 0.00047387942 0.0032585391 -0.00033754736 -0.0011235332 0.0024944397 0.0013872042 -0.0017022063 -0.00032870698 7.6498436e-05 -7.587904e-05 0.00037035797 -0.002543677 0.0020609684 -0.0012833932 0.0025818583 -0.0032867598 0.0032109362 -0.0042870906 -0.00018292732 -0.00073091406 -0.0020039645 -0.0030773818 -0.0012166481 0.003843608 -0.0002196487 0.00564858 -0.0018643459 0.0007707579 -0.0020159688 -0.0031477031 -0.001184442
air 0.004433362 0.00093395327 0.0019982306 -0.0032215347 -0.0018491128 0.002145468 0.0027137862 0.0052463645 -0.0037378457 -0.0027133261 -0.0011585717 -0.0018577563 -0.0029300414 -0.003851839 -0.00039749473 -0.0010728085 0.0036862262 0.0017808413 0.00295366 0.003241936 0.0022330007 -0.00075569254 0.0009013706 -0.0005332598 0.0024200962 0.00097027473 0.0039911675 -0.0019329406 -9.722547e-05 -0.003038386 -0.0036520623 -0.0008893311 -0.003449494 0.002850848 -0.0011388751 -0.0003908699 -0.0068892785 -0.00029923042 0.00042829846 0.0014399153 -0.0024275023 -0.00128756 -0.0017008452 0.0019426061 -0.0034188798 0.0014330713 0.0054393527 0.0025634286 -0.002144339 0.0011488596 0.0028873363 0.0037268568 0.0010522668 -0.0053191357 -0.0016684284 -0.0035716307 -0.0012488664 0.0018553539 -0.0011837928 0.0011744176 -0.0020490387 -0.00066673383 -0.001175618 0.0021659622 0.0028100903 0.0024343308 -0.001475704 -0.00023463777 0.00083108887 -0.0015809935 0.0031586434 0.0018279547 -0.0046604075 0.0007525607 0.0007023254 0.0014683565 0.00060908444 -0.00041373208 -0.0002699504 0.0015169621 -0.0030987656 0.0025527745 -0.0012311831 0.0016425754 -0.000570041 0.004637338 -0.0027183457 0.0014853692 -0.00042384997 0.0035412672 0.0022314445 0.0024714146 -2.6348745e-05 0.0023767545 0.0039863125 -0.00013778664 0.0014377683 0.000109526794 0.0033710755 -0.00055241014
even -0.0003684924 -0.004208739 -0.002426082 -0.0017369987 8.615767e-05 -0.0001658117 0.0020247728 0.0006913075 0.0021922933 -0.0015851796 0.002776105 -0.0045316797 -0.0015617207 -0.0007752208 -0.00013966464 -0.00132887 -0.00042013917 -0.00086717546 0.00069299364 -0.0006526229 0.00023762725 0.00035246604 -0.000588756 -0.000618048 0.0014212023 -0.0007031359 0.00071305135 -0.0005327718 -0.0005101143 0.0007789692 0.0017297182 0.0015708897 -0.0019918534 -0.00056958746 0.0009803177 0.0026815953 -0.0022890125 0.00047232825 0.00031456773 -0.001245085 0.00051326206 0.00019115285 -0.00063568284 0.0017425845 -0.00064553355 -0.00035658292 0.00034822334 0.0007741099 0.004898139 0.00095418893 0.0009658484 0.002069142 0.0036569154 0.0012931437 -0.00423032 0.0010937839 0.0016652872 0.0004213921 -0.0008562728 -0.00056817266 0.004351496 -0.0008689664 -0.0013763089 -0.0001417406 -0.002348764 0.0030829033 -0.0010191803 -0.00038012324 -0.00037185094 -0.0022699898 -0.00092476065 -0.002570574 -0.00050998025 0.0027144975 0.0011343075 0.0016133101 -0.00076420844 0.00012339774 0.0004920216 0.0036043634 -0.0007909303 -0.00014520153 -0.0013046011 -0.00031520528 0.002006226 0.0002500263 -0.0007488216 0.0020851942 -0.0027026315 0.00034049805 -0.002670325 0.00096630375 0.0028647333 0.002532594 0.0013325203 -0.0010217741 -0.0026189934 -0.00085734134 0.0004122032 0.0012811822
year -0.002582287 7.382137e-05 -0.0002234628 0.0014254041 0.0022799731 -0.00034995054 -0.0030153587 0.0005187917 0.00023491401 0.0009339986 -0.002451937 0.0015558652 -3.8378344e-05 -0.002674075 0.0007250439 0.0023228356 0.004168373 -0.0048513534 0.000322707 0.00049132865 0.002360006 0.001535831 0.002433777 -0.0014901839 0.002650316 -0.00019207601 -0.002342368 -0.0019331924 -0.0009186295 -0.0011986743 -0.0011517875 -0.0005850787 -0.00010080202 0.0013472986 -0.0032331385 0.0030461596 -0.0030236477 -0.0025490879 -0.0011078338 -0.0005635882 -0.0008213119 -0.002131959 -0.00014689722 0.0025017252 -0.0050720493 -0.001626216 0.000636212 -0.0003367021 0.005943407 0.00010235849 0.00031157408 -0.00299967 -0.0006422991 0.0009405536 -0.0013982673 0.0005725302 0.00050151267 0.0017064224 0.0006858381 0.0010396787 0.000420324 -0.0012585262 0.0006187514 0.00014673905 0.0008650936 -0.0026364925 0.0014541674 -0.0026059516 -0.00017291988 -0.0021560327 -0.00092056766 0.001868737 -0.0006142043 -0.002813478 0.0021401362 0.0021648481 -0.000363616 -0.0008928433 0.0017739282 0.0019345921 -0.0019453409 -0.00070912455 0.00021590869 0.0026706553 -0.0009307405 -0.0012635133 -0.0016015953 -0.00030238126 -0.0019732611 -0.00012369687 0.0014789656 -0.0007456157 0.0019892422 0.00047787416 0.0008549643 -0.0028162212 0.0039130994 -0.0008190049 -0.002827276 0.0009943247
love -0.0025165242 -0.0013840451 0.00038738744 -0.0027084553 -0.0009617619 0.0014774471 -0.0020874469 -0.0007883207 -2.1823555e-05 -0.0011373578 -0.0034701272 -0.001166586 0.0016445029 -0.0007752314 0.00059120083 -0.0006430468 0.0004966025 -0.0019311969 0.003743495 -0.0021692882 0.00020480414 0.0012526771 0.0019225306 0.0014099772 -0.000683952 0.0031926325 -0.0005155915 0.0002173756 -4.7308986e-05 0.0018322613 0.0028886483 0.0010942684 -0.00024609378 -0.001915294 -9.683261e-05 -8.059882e-05 -0.0036327736 0.0024699268 -0.003797467 -0.002826043 0.0015059798 -5.713969e-05 -0.0013890977 0.0021112321 0.0016596465 0.0006980118 0.00215838 -0.0019175728 0.0007054392 -0.00013192653 0.002987608 0.0017969362 0.0030125605 0.00034569486 -0.0012705177 0.0018755533 -0.0023255777 0.0008221924 6.57757e-05 0.00089488924 0.00070406584 0.00030811448 6.9702724e-06 0.0034922196 -0.0017165489 -0.0011873565 -0.0015773452 0.003099435 -0.00069103204 0.0006471393 -0.00066562614 -0.0013590783 0.00065255 -0.00090769376 -0.0017916425 -0.00022746305 -0.00097371486 0.0012195468 0.002186501 0.0030073063 -0.00041162924 -0.00040283336 -0.0015570738 0.0020740738 -0.0039078714 -0.0010251813 0.0014998488 -0.000992046 -0.0028809763 0.00016629118 3.686729e-05 0.002991329 -0.000772734 -0.0014687355 -4.2190775e-05 -0.0030022813 0.0008975191 0.00020060959 -0.0024667396 0.0015573301
mr 0.002633655 -0.0036461214 -0.0008131684 0.00072668004 -0.004446353 -0.0009787013 -0.0036185635 0.003648713 0.005982166 -0.00073779374 -0.0016110839 -0.0025916388 0.0002442848 -0.0020715483 0.0018676568 -0.0032392857 -0.002802969 0.004289647 -0.0008231666 0.0030618627 0.0030312818 0.0014845827 0.0007182178 0.0038284566 0.0012916862 -0.0072077387 -0.00049455033 0.0005426846 0.0037690774 -0.0040529603 0.0023158167 -0.0047316137 0.0035312416 0.00144829 0.004881777 -0.0013788907 0.00027171004 0.004098288 -0.000118362834 -0.0031592348 -0.005060625 0.00307312 -0.0030930745 -0.0007591351 0.000994416 0.001346739 0.0020368928 -0.0032901238 -0.0045969677 -0.00053863996 -0.0001397276 0.0014307409 -0.005477735 -0.00325542 -0.0031986453 0.0018970089 0.0013539367 -0.0013679068 -0.0058308067 0.0007685562 -0.001609416 0.0013489042 -0.004028785 -0.0013677545 -0.002746339 -0.0034015726 -0.0053811367 0.0026458562 0.0027311577 0.0019909434 0.0037521126 0.00737797 -0.0047306456 -0.0055425446 0.000280253 0.0025792003 -0.0011814671 0.0007459412 -0.00022047851 0.002220996 -0.0007437804 -0.00010302011 -0.002469357 -0.003773619 -0.0016607709 -0.002643279 0.0022530535 -0.0034382436 0.0017855088 0.0006514711 -0.0016926429 -0.002041231 -0.005199731 0.0007065621 0.0025343825 0.0038030595 -0.00253694 -0.006281381 0.00204942 -0.0024805681
people -0.0020339808 -0.0016987128 -0.00052442355 -5.9577636e-05 0.0006587972 0.00077010103 -0.0014458079 0.0017967569 -0.0009113983 0.0016415255 -0.0008748926 -0.0012656807 0.00036694366 -0.00026065003 -0.00020347223 0.0017175222 0.0017292021 -0.0034232477 -0.00011408442 -0.00028693923 -0.0012146392 -0.0015281979 -0.0019218074 0.0017245627 0.0011930604 -0.0038343663 0.00020600096 -3.6141395e-05 -0.00037483417 -0.00016767281 0.0016367399 -0.0015227755 0.0016838367 0.0018483005 0.0014468068 -0.0025782713 -0.0022566565 0.002629591 -0.0008800719 -0.0016173363 -0.002438893 0.00010432507 -0.0019940378 0.0011562807 0.0018731043 -0.0007663607 -0.0012796866 0.00058361486 0.0026638792 -0.00072978734 0.002001017 -0.00035698852 -0.0011940262 0.00024060572 -0.00012600186 -0.00029146398 -0.002457097 -0.0015427595 -0.001130078 0.0023431308 0.00019615408 -0.0004612052 -0.0016987004 0.002877584 -0.0049443753 -0.0010524426 -0.00056808704 0.00046204848 0.000897468 -0.00293132 -0.00045130152 -0.0016624779 -0.0010293006 -0.0013122555 -0.0019482535 0.00039483613 -0.0023785313 -0.00032346346 -0.0008748188 0.0015426306 0.001083264 -0.0007964319 0.0006053312 0.0033289462 0.00031483397 -7.66541e-05 0.0009812051 0.0010396393 -0.0015632756 0.0018308602 -0.0002718536 0.0020138675 9.935376e-05 0.00055432465 0.0028786592 -0.0013510783 0.00078002206 0.002156537 -0.0010670833 0.00039334845
another -0.00022309666 -0.0024262087 -0.0019755652 -0.0003297667 -0.00197962 -0.00089269504 -0.0021482916 0.0017843619 -0.0003596575 0.001410532 -0.0009019085 -0.0024471579 -0.00094302825 -0.00027394659 -0.00021856716 -0.0032338807 0.0007656583 -0.00068042224 0.0014805534 -0.00018992409 -0.0004680839 0.00045893618 -0.001828213 0.0021022486 -0.0011095721 0.00054472237 0.0011820259 -0.001798644 -0.0014459037 0.0004062689 0.0006290228 -3.816564e-05 -0.0013217339 -0.00049117825 0.001140378 0.00051235466 -8.1784696e-05 0.0012621551 -0.0015322288 0.00086684234 5.3145963e-05 -0.0011153056 -0.0010463485 0.0014938955 -7.3116964e-05 -0.00040676267 0.00059904944 0.0013015385 0.0017237567 -0.0029725945 0.0012796249 0.0012670772 0.001974941 -5.8505764e-05 -0.0007274403 -0.00037070064 0.0012443137 0.0019235765 -0.0023961149 0.0019281383 0.0009279467 0.0006158693 -0.0017546391 0.00037910766 -0.001000372 0.0016042846 -0.002434469 3.656259e-05 0.003612262 0.0009985102 -0.0009596424 5.2894487e-05 -0.00031845423 -0.00020811809 0.00024225631 0.00016589454 -0.0019854144 -0.0016197828 -0.0016205792 -0.0003888228 -0.0016644223 -0.00016909407 -0.0018510782 0.00027875177 -0.0017268779 -0.0008802227 0.00043305467 -0.0012439514 0.00020752108 0.00044612482 0.00029198406 0.0009086101 0.00040282673 0.0021788883 -0.00037425468 0.00079383067 0.0012054304 -0.002053465 0.0002562115 -0.00020686816
know -0.0008333151 -0.0050379816 -0.0006740453 -0.00089071406 -0.0027468062 -0.0014626096 -0.0031248643 -0.0007683828 -0.0003968437 -0.001079917 -0.0009640098 -0.00035587652 -0.003554005 0.0007145306 0.0004706354 -0.0002155635 0.0023439603 -0.00017490868 0.002029166 -6.642831e-05 0.002000204 -0.00057315355 0.0005701869 -5.1673585e-05 -0.0010424114 0.0018312782 -0.00029319728 -0.0009204482 -0.0019226293 -0.0029953672 -0.0033490583 -0.0027891237 0.0012487415 0.0013148458 -0.0029332994 -0.002392874 -0.0010662857 -0.00031243594 -0.0016694457 -0.0021775772 0.00015472452 0.0015501844 -0.0029825217 0.00017135647 0.00017625546 -0.0030413426 0.001707818 0.0009912249 0.0016755904 -0.0007373932 0.0012349291 0.00090106274 0.0019731952 -0.0018748912 -0.00073329697 0.0013453291 -0.0002466867 0.0012090045 0.00024700369 0.0014121465 -0.0007665291 -3.181965e-05 3.8565857e-05 0.0015911846 0.0011429016 -0.0013315193 0.000121335754 0.0009901817 0.001133214 -0.003667712 0.0016708833 0.00026152015 -0.0005868924 -0.0027153248 -0.000785391 0.0010742479 0.0013939467 -0.0030692033 0.0015893906 -0.0019457181 0.0022636934 0.0027900732 0.0011304243 0.0019154645 0.00025944354 0.0022354887 0.0016860168 -0.0018243258 0.0010670614 -0.0014549762 -0.0004552745 0.005127154 0.00028804888 0.0027098209 -0.001987799 0.0012561633 0.00046762035 -0.00039693763 0.0011525291 0.00034947126
find 0.00038157927 -0.0024083434 -0.004140991 0.001213078 -0.003049621 -0.0016170695 -0.0010661229 0.0032798208 -0.00036191475 -0.0016515609 -0.00064176484 -0.0027317402 -0.0007934112 0.0046506044 4.801984e-05 -0.0020776507 0.0010400577 0.0007660886 -7.846096e-06 0.0012638496 0.0023563607 0.0020518838 -0.0035218692 -0.0002078201 -0.0032711537 -0.0013200556 -0.0045281365 0.0005746309 -0.0013712574 -0.00024511266 -0.0024671466 -0.0016713653 0.0009930098 0.0005817546 0.0018424011 0.00061838 0.00039135662 0.0021505794 0.00052807765 -0.0022083197 -0.0032484212 -0.00036219737 -0.0003777707 -0.0011097536 -0.0035396598 -0.0034074911 2.5082634e-05 -0.00090276165 0.0013994833 -0.0020808012 -0.0011530797 -0.0008301076 0.0018834986 0.0014621589 -0.0020234524 0.00012009675 0.0003497227 0.0016814839 -0.00027903274 -0.0006397734 0.0015751463 0.0037346745 0.0005763106 -0.0026462965 0.00026172583 0.00040457162 -0.0008753736 -0.0006448042 0.00087637524 -0.0025774788 -0.00012547692 -0.001142009 -0.0024133257 0.0019357696 0.00047958083 0.0013273169 -0.0007811537 9.843485e-05 0.0017205718 0.0012238766 -0.0020108921 -0.0005785922 -0.0012319393 -0.0005879602 -0.0009780478 -2.6721042e-05 -0.0013205389 0.0012534376 -0.0015378763 -0.0016986508 -0.00086595764 0.00014229048 0.002517852 0.0004894808 0.0012697567 -0.0005130755 9.039248e-06 0.0016490265 0.0016578615 0.0019366842
cast 0.00045637254 -0.00046771544 -0.0031394688 -0.0007820968 0.000562554 0.0011909076 -0.0019421595 0.00046488375 -0.00027303377 -0.0046569016 -0.0016334564 -5.049038e-07 -0.003426189 0.0003802027 0.0007834252 -0.00021806714 0.0013411182 -0.0014923174 0.0019287613 -0.0034154768 2.3318094e-05 -0.0026036361 -0.0023320923 -0.0008857338 0.0026647842 -0.00019861205 -0.0044973753 -0.00055587717 0.0010061607 0.0019215296 -0.0013190068 0.0005654403 0.0008031957 -0.00091006386 -0.00029048856 0.00022477623 -0.0018952991 0.0020023815 0.0005067398 -0.0019241578 -0.0015364852 -0.000101715836 -0.0029297138 -0.0008891052 -0.0021567945 -0.0011130049 0.0013394378 -0.0016626912 0.002669239 -0.001945185 -0.0016406272 -0.0007699257 0.0021548294 0.0009235174 0.0010063748 0.00017019006 0.0029094138 0.0039065178 0.00047670573 -0.004296655 0.0010856942 0.00030758537 0.0005489879 -0.00079870946 -0.0011356813 -0.0023163983 -0.0007702002 -0.0028786564 0.0017986894 -0.0012893396 0.0033962303 -0.0016449257 -0.0012996687 -0.0026191936 0.0015404884 0.00089632167 -0.00095427106 -0.0008522291 -0.001736283 -0.00037783151 -0.00093282515 -0.0031611973 0.0028189933 0.0018104484 -0.0032336323 -0.00038472013 0.000117513446 -0.00079682184 0.0039515425 -0.0017553878 0.0014833949 -0.000975907 0.00089801964 0.0013464405 -0.0025518974 0.0014747 -0.0024828175 -0.0013156551 -0.00016550948 0.0011699882
old -0.00067031017 -0.0032153355 -0.0010349378 -0.00018868138 0.0019661381 -0.0016765406 -0.00032746192 -0.0025545876 -0.0011262776 0.0022009911 -0.00091947714 0.001574892 0.002887189 -0.0029435954 -0.0039342055 -0.0033659074 0.0031142759 -0.0034405875 0.0005849538 0.0015831302 -4.6737125e-05 -0.000809545 0.0014831584 -0.0031361107 -0.002872152 -0.0006407975 0.002668066 -0.0012366471 0.0038719226 -9.2024784e-05 0.0029618782 -0.00078565936 -0.0014724836 -0.0026027525 -0.0015655559 -0.0021269093 0.0012846381 -0.0017817792 -0.0039732987 0.003441287 -0.0016069493 -0.0019156147 -9.528947e-05 0.0031823781 0.0023722362 0.0025056351 -0.0033094499 0.0017741019 0.006532389 0.000374699 0.0016709907 0.0033475868 0.001118519 0.00074757973 -0.00059439987 0.0024647603 -0.0072313957 0.001728919 -0.00045595266 -0.003368905 0.0020433175 -0.0022598172 -0.0020825227 -8.157421e-05 -0.0014216863 -0.00304034 0.0005871461 0.00342421 0.00032924808 -0.00073534745 -0.00052203645 -0.0022771147 0.001261337 0.0009971936 -0.0015379955 0.0047120163 0.001953868 -0.0024626085 -0.0012502546 0.0015876238 0.0042520477 -0.0004791783 0.00019839546 0.00017041039 -0.0008903096 0.00010983879 0.0033481058 0.0037198006 -0.001375782 0.0011817056 -0.00067219464 -0.0008266393 0.0034443948 -0.00077202724 0.0006264093 0.0037702813 -0.0028261556 0.005226266 -0.0012732955 -0.00040626
boll -0.004391972 -0.0030427345 0.00029445178 0.002331909 0.0021190606 -0.0025957525 -0.004464856 0.00024128654 0.00020105577 0.0047911843 0.0015858155 -0.0009673338 -0.0009781682 0.0039472315 -0.00028073977 -0.003298547 0.00027310412 -0.0003017404 0.0044748466 0.00059108343 0.00069408346 0.00019943918 0.00067774864 -0.0027367866 -0.00071128836 0.0006111292 0.0019322741 -0.002782153 -0.0006940514 0.0002859057 -0.0011863286 -0.0024361825 0.0014188896 4.39315e-05 0.0009652366 0.0020918811 -0.0045509553 0.0003385394 -0.0007318361 0.00081018824 0.0013019164 -0.0014794953 -0.00023315144 -0.0003067974 0.001638776 -0.00060554506 -0.00061496085 0.00061900815 0.0013056902 0.002333125 -0.00024290578 0.0029878495 -0.0038775192 -0.001412483 -0.0001699573 -0.0037241965 -0.0019027631 0.0011821012 0.00075687654 -0.0005992645 0.001048014 0.00061314105 -0.00074906374 4.005068e-05 -0.0024659373 0.00071930286 -0.0014536779 -0.0016533919 0.0014980844 -0.001620571 -0.0016316022 0.0016649646 3.9552106e-05 0.0026622647 0.0004618239 0.0015908158 0.0010006045 -0.00041884693 -0.0035389028 -0.00010763227 -0.0006046302 0.0012528658 -0.0010611535 0.0021955685 -0.0014199063 -0.001346058 0.0007919662 0.0021268548 0.001355797 -0.0012656852 -0.003268917 0.002913905 0.0043377285 -0.00059652695 -5.7506968e-05 0.0015055496 0.0002490272 0.0011545588 -0.0014297598 6.216828e-05
carver -0.00073499215 -9.857202e-05 -0.00036568101 0.00016053591 -0.0011389832 0.00010944731 0.00015876726 -0.0014722819 -0.0006333343 0.0008637461 -0.001726693 -0.0020998577 -0.0017635954 -0.0003144511 0.0015741528 0.0003231758 0.0020642346 -0.00074005214 0.002520986 -0.00047228005 0.004731971 0.001316198 0.0011867406 -0.00029650048 0.00042247996 0.00025032205 0.0010952773 1.1279591e-05 0.0016504796 0.00068978063 0.0021042144 -0.0024750845 0.0020120966 0.0008308968 0.0020942718 0.0024138044 -0.0041018054 0.0014327064 -0.00066496414 -0.0010722346 8.998243e-05 0.0017403957 -0.0012669953 0.002816884 0.0018116795 -0.0021568243 0.00041656266 -0.00046486687 0.0031217225 -0.0033971127 0.0018590512 0.001272599 0.0019226698 0.0010125692 -0.0014499399 -0.00090358267 0.0001600255 -0.0016721032 0.0016347059 -0.0023811474 0.00010741434 0.0021461628 0.00083362614 -0.0018489241 -0.0016441268 0.000914929 -0.00015060879 0.0011985903 0.0010581255 -0.000796221 0.0010770432 -0.0005540084 0.0005656939 0.0007539983 -0.001060274 0.0005218952 -0.0007720548 0.003962101 -0.0005503771 -1.8503124e-05 0.0018982228 0.0011804128 -0.0006222013 0.0028947068 -0.0013423989 -0.00020673391 -0.0014415873 0.00016403904 0.0016783333 0.00084415934 -0.00095734576 0.0012739344 0.0012788649 2.0499978e-05 5.4967124e-05 -0.0006000086 -0.002968832 -0.0010370255 -0.0028102922 0.0004195965
violence -0.0014314452 0.00057651685 0.00019275883 0.0017955058 -0.00042283486 0.00012560218 0.0002438303 0.0005612361 -0.0022643206 0.0015403104 -0.00034721658 -0.0009957001 -0.0017140289 0.00018926986 -0.00064070197 -0.00085474213 0.0016833858 0.00045796487 -0.0005941233 -0.0010017784 0.00049980404 0.002110539 0.00014210845 -0.00073208293 -0.00013690208 0.0005411626 -0.00071370223 -0.0033611243 -0.0012569436 -0.00012677042 0.000886119 -0.0015104814 -0.0006450311 -0.00044558395 -0.00012885606 0.0009431783 -0.0015581159 0.00092163985 -0.0011422073 -0.0012155452 -0.0012432375 -0.0016589052 -0.00016014844 0.0020015966 0.00072786515 -0.0027078663 -4.0727773e-06 0.0011256397 0.0003862256 0.0004128923 0.00094382354 -0.0010970916 0.0011436089 0.00053582847 0.00024667045 0.0016313964 -0.0005774568 0.0008891326 0.0016737862 0.002202055 0.0017652385 0.00027655833 0.00069079135 0.0006514154 -0.0034237509 -0.0009211384 0.00048309713 -0.00054209714 -0.0005788636 -0.00018740658 0.0010308267 0.00023382613 0.00032190327 0.000183264 -0.00010719466 0.00026860097 -0.00043212232 0.00040281113 -0.0006580174 0.00068624615 -0.0009523067 -0.0006766097 0.0010363659 0.0008091472 -0.0017616247 -0.0006584058 -0.0005351794 -0.00031396016 -0.00043259206 -0.00027535262 -0.0012855626 0.0005442928 0.0021121756 0.0021730305 -0.0014995381 -0.00072501326 -0.00071882096 -0.0026199464 -3.3379718e-05 0.0018446067
may -0.0018937476 -0.004203641 -0.0010591352 -0.002546461 -0.0028264613 -0.00070236356 -0.0024752186 0.00145277 -0.0012925904 -0.00037566942 -0.00082187064 -0.0029093663 -0.002296221 -0.000106627485 0.003844637 -0.0030681673 0.0018867118 0.0031347394 2.9224071e-05 -0.004175178 0.0011480775 0.0035640446 -0.0010066353 0.0039035364 0.00063169695 -0.00093680486 0.0019104881 -0.005693522 0.004903228 0.00050311966 -0.002380802 -0.005241823 -0.0011923338 -0.001495794 -0.00017020579 -0.0014074532 -0.0026441454 0.0033948082 0.00045114732 -0.0015271757 0.0008109168 0.004315553 -0.0018142693 0.0024174245 0.0010707624 -0.00036844093 0.00032653153 -0.00041124443 0.0037644687 0.0032446205 0.0005838201 -0.00048393357 -0.0015851228 -0.004627711 -0.003116921 -0.00085958693 0.003451266 0.0027211648 0.0059731803 0.0022578568 0.00094658503 0.0012493922 -7.0904694e-05 0.0019259885 -0.0009526691 0.0020358409 0.00028531597 -0.00037677927 0.0022465778 -0.0008044538 -0.0018239409 0.00053232483 -0.0030887234 0.00021724543 0.00043975687 0.0034971617 -0.00036946233 -0.0020424086 0.0028761146 0.0031188454 -0.0001297625 0.0023167806 -0.0047959746 -0.00020411098 -0.0007662849 0.0053199753 -0.00041264293 6.975872e-06 -0.0034907686 -0.0010399121 0.0023277714 -0.0004932742 0.006024803 -0.0016742675 0.003945441 0.0018240875 -0.0019610566 -0.00041755926 0.0007046549 -0.0024741369
truly -0.0009915489 -0.0029854903 0.00069944223 0.0014740817 0.0008869905 -0.0007662077 -0.0016978704 0.002286739 0.00069889706 -0.0018569462 0.0020636832 0.00039953092 0.00015038464 0.0014856664 -9.598296e-05 -6.889583e-05 0.0028223137 0.0007835916 0.002309574 -0.0023649186 0.00017877581 -0.00035170847 -0.0011730046 -0.0011438807 0.00017324435 0.0031747492 -0.0013194687 5.20361e-06 0.0020025594 -0.0022878652 -0.00047981908 -0.0013488934 -0.0010423013 0.0005823524 0.0008568286 -0.0008007102 -0.00087932934 5.6551085e-05 0.002030638 -9.162168e-05 -0.0013399363 0.0010922541 -0.0013931475 -0.0007587684 0.001451656 0.0015355846 0.0012605502 0.0011476249 0.001072171 -0.0019113721 0.0033563534 -0.00068848854 0.00047979658 -0.0001347764 -0.0015508223 -0.0003441353 -0.00083099067 0.00084036594 0.0007426788 -0.0016745586 -0.0022057395 0.0016184158 0.0013443124 0.0019790197 -0.0024815165 0.0013051736 0.00067510345 0.0008920852 0.0017694407 -0.0030898303 0.002326353 -0.0017701044 -0.0014632861 -0.00082455116 0.00023873113 -0.0009584084 0.0013782982 -0.0018436455 -0.0010420611 0.0015529265 -0.0014249663 -0.0002888607 0.00074980536 -0.0031410882 -0.00029585935 -0.0017208414 0.0006602802 -4.4701e-05 0.000105101215 0.0011472314 0.001809214 -0.00058564154 -0.0009786809 0.0003083771 -0.0008650466 -0.0026678855 0.001892395 6.852733e-05 0.0008873135 0.0014206144
comedy 0.0019453856 -0.000891367 1.6227457e-05 -0.00039332197 0.0008322271 -0.002104173 0.00066349184 0.0011704928 0.001088232 2.3385878e-06 -0.0017964091 -0.0028694572 -0.001541361 -0.0010142317 -0.0014862948 -0.0024856224 0.0023949787 -0.0006148775 0.0028098526 0.00018913862 9.708861e-05 0.0015109716 0.0004623056 0.0006854729 0.00130501 0.00067212974 0.0007503473 -0.001960716 0.0018370014 -6.490201e-05 -0.0009285564 0.00076222746 0.0005799758 -0.00078819407 0.00074672996 0.0010682577 -0.0019971852 0.0031863833 0.0008477669 0.0010522002 -0.001629922 0.0009467898 -0.0029555305 0.00025073803 0.0013026572 -0.0015358871 0.0006428673 -0.0027526622 -0.001370693 -0.0002841738 0.0022626608 -0.0009997898 0.000121533085 0.0010758293 -0.001133009 0.0012325 -0.0007773287 0.0005851006 0.000866371 0.00022622693 0.0011226898 0.0001346684 0.003209044 0.00059909245 -0.0003035554 -0.0009015353 -0.0012685269 -0.00030657364 0.0013229969 -0.0026640028 0.0007692434 -0.0019664988 -0.0014394266 0.0007731589 -0.0010584373 -0.001200223 -0.0012482099 -0.0020998921 0.0005803213 0.000617925 -0.00021601246 -0.00031425268 -0.00012760406 -8.200815e-05 -0.00050684664 0.00012995489 -0.0017125873 0.0006273034 0.000660411 0.00245728 -0.0022314235 0.0020082954 0.0016456653 0.0008894721 -0.0019953602 -0.000919874 2.944658e-05 -0.0002921147 0.0007317966 0.001288205
really -0.002394681 0.00031096255 -0.0015235617 0.00014199717 -9.660987e-05 0.00022073198 -0.001627925 -0.00019066963 0.0021536 0.0013869024 -0.0014327302 0.0014659978 0.000403054 -0.00010544674 0.0025876753 -0.0014797447 0.0011056003 -0.00079606 0.001440932 -0.0011401629 0.00084028783 0.002644225 0.0022854463 -0.0005046835 0.0031559945 -0.00021653238 0.001913105 0.0017556488 0.00043503832 0.0010315883 -0.0006225621 0.000808318 0.0019111043 0.0010010608 0.0021425965 0.00023138474 -0.0028639506 0.0020589968 -0.0009478975 0.00086130906 -0.00042468583 -0.00081828964 -0.0014129893 0.0015928072 -0.0005245451 0.0006950017 -0.00041849702 -0.0012874726 0.0020585037 -0.0004820515 0.00053767057 -0.0009277625 -0.00021878713 -0.000968254 -0.001590428 -0.0012361107 0.0013278363 -0.00034111537 0.0041583353 0.00047752625 0.0016594965 0.0014550027 0.00030995248 0.002213606 -0.0022280437 0.0004972615 -0.0017729078 -0.0016419999 0.003740639 -0.0036780257 0.001941807 -0.000124768 -0.0007203037 -0.0015693889 0.00018109538 -0.0008033712 -0.0010587127 -0.00047692965 0.0024565004 -0.00056938914 0.00028250678 0.0011651261 -0.00095514854 -0.0008548157 -0.0013041374 0.0006821159 0.0009585319 0.0031398623 3.5902067e-05 0.00033166423 -0.0017109184 0.0013360032 0.0024680085 0.00015174423 0.00015926988 0.0012911616 -0.0013303347 0.00064106024 0.00032009836 0.00046200125
come -0.001255053 0.0018337689 -0.0015474209 0.0009438887 -0.0011526701 -0.0011993612 -0.0015213914 0.004706932 0.0019321424 0.0005271975 -0.0009349693 -0.005131175 -0.002905201 -0.0020242506 0.00062370463 -0.0032880604 0.004254153 -0.0023306992 0.0018689551 -0.0020619503 -0.0023400951 -0.00070747687 0.0014684126 0.0012522993 0.0016446565 0.0012674964 0.0033743267 -0.0039193034 0.0024166582 -0.0005389322 0.0010639704 0.0010526311 0.001881933 -0.00021649791 0.0026216537 0.0036554446 -0.001989367 0.0012442754 -0.0006294517 0.0006787866 -0.0021713823 0.0019986185 -0.0030728527 0.00046439123 0.00048614628 -0.0025051676 -0.0021087679 -0.0005077893 -0.00074606796 0.00035274774 0.002274538 0.000873851 0.004397246 0.0025370116 2.2035705e-05 0.0012170485 0.00051772397 0.0010944296 -0.0027944117 -6.344e-05 0.0046641477 -0.0007089407 0.0018199569 0.0014049698 0.0005683117 -0.0019023452 0.0002150542 0.0001994545 0.0032001666 -0.004099601 -0.001215553 -0.000974139 0.0005953755 0.0007694209 0.0001355468 -0.0020779455 0.00055065216 -0.003446334 -0.0003689507 0.0007702546 -0.0019130163 -0.0003918333 -0.00023375837 0.00093597936 -0.0009977992 0.002802547 -0.0019383528 0.00013263972 -0.0014202673 -0.00010460126 -0.0012970032 -0.0026612012 -0.0007969175 0.002943156 -0.0019751575 -0.003463891 -0.00095970905 -0.00010999444 0.0019330241 0.000309029
point -0.0023392094 -0.0031743622 0.00095409347 0.0004071705 -0.0020117618 -0.0028327678 -0.0024198547 -0.0021594695 0.0003016472 -0.0011558881 0.0017917567 -0.00084170524 -0.00019389689 0.0011238866 0.00023225418 -0.0014688828 0.0048965057 -0.0009777349 -0.00084554584 -0.0010730849 0.0018997944 0.0025286234 -0.00014722695 -0.0003949806 -0.0012513858 -0.0018861669 -0.00088329375 -0.002958627 0.00015767921 0.001663813 0.00068090664 -0.0008998381 -0.0014499496 -0.0004157072 0.0024564792 0.0016676977 -0.002397624 0.001283396 0.003025799 -5.1826395e-05 -0.002028072 4.158678e-05 -0.0021839433 0.0006627674 -0.00043816798 -0.0029461673 -0.0007483074 -0.00084236026 0.0025813456 -0.0015314079 0.00086948497 0.0026926 0.0021969997 0.00024487168 -0.002644221 -0.000621156 0.00033465363 0.0005190915 0.0019864803 0.0027485283 0.00083550403 0.00232701 -0.0007844224 -0.0006682707 -0.0022934116 -0.0016156476 -0.0022924156 -0.0030195941 0.0021908332 -0.003509168 -0.0004863447 -0.0001607173 -0.0010643982 -0.00048041466 -0.00058382226 0.001154695 0.00014699323 -0.0023090667 0.0031388958 -0.0007102919 0.00013042407 0.00033780813 -0.000221418 0.00048062683 -0.0014278603 0.0021028386 -0.0009836565 -0.0017033515 -0.0012285308 0.00025561883 6.300366e-05 0.003688817 0.0021806369 0.0015419658 -0.001561404 -0.001741649 0.0022225291 -0.0009733615 0.0012461133 0.0017049076
still 0.0004837845 -0.0009780977 -0.0013839765 -0.0006858242 9.4855175e-05 -0.006036888 0.0015025113 0.0038106951 -0.00046279156 -0.0029879133 -0.0022135477 -0.0025938086 -0.002651787 -0.00227419 -0.0010536521 -0.0048573185 0.0055827973 -0.002076898 0.002285499 -0.002225825 0.00029851586 -0.00012047905 -0.001536598 -0.00015796658 -0.001289396 -0.0026134339 0.0015309937 -0.003385003 -0.0011019645 0.0011199329 -0.0009713449 0.00013303853 0.0025493023 0.00020198338 0.0017816063 0.00025617576 -0.003914693 -0.00071335945 -0.0009748012 0.001386784 -0.0017373704 0.0019328685 0.0005369751 0.0033617425 -1.8235518e-05 -0.0016486434 0.00076078327 -0.00037505061 0.002409144 -0.0023495418 0.00101571 0.001103761 0.0012091429 -0.001083147 0.0007854756 -0.0024480112 -0.0035623892 -0.001543077 0.00018068735 0.00063300604 0.0025707267 -0.0017218947 0.0018839373 0.00024530684 -0.0031893887 0.0005838417 -0.0040783337 -0.003206712 -0.0007772425 -0.002515492 0.0007464451 0.0013099065 -0.0025476029 -8.181394e-05 0.004963085 0.0015454483 -0.0015192141 0.0016893551 -0.0011458474 -0.0002724111 -0.00017139486 -0.0003010109 -0.00043875756 0.00083352666 0.0011519119 8.870798e-05 -0.0031555668 -0.0022091765 0.0011960468 0.0009357789 0.0015995621 0.00039394412 0.00058834243 -0.00018725017 0.000433823 0.0009492041 -0.0020066532 4.6969235e-05 0.00016248508 0.0006724508
many -0.0030723547 -0.0029549112 -0.00057044544 0.00070492044 -0.0018952024 -0.0021614365 -0.00015052073 0.00013327641 0.0006774996 -0.0025733323 -0.0016961339 -0.0030451133 -0.000482104 -0.0021268039 0.0027833849 -0.00220815 0.0016084943 -0.0014070388 0.0022014217 -0.0022744848 0.00088535494 -0.0008642953 0.002683774 0.0024552764 -0.0031617642 -0.00018562855 0.0005398245 -0.0021404878 -0.00065510004 0.001848225 -0.0005221486 -7.332677e-05 0.00095436873 -0.00088542886 0.0022993088 0.0020158272 -0.0016516066 0.004156943 0.00206326 0.001468518 -0.0031024464 0.0005994132 -0.0011506042 0.0011305377 0.00036804378 -0.00058497913 0.00065415824 9.619948e-05 0.0019388322 -0.0015087427 -0.0005624185 -0.00041478517 -0.00041567124 0.00041490106 -0.0061069163 0.0023379938 0.0003079116 0.0018689174 0.00033736991 0.0043433406 0.0037681332 0.0007285932 -2.7335122e-05 0.00033338368 -0.00097492395 -0.004689222 -0.001683769 0.0019800642 -1.9360026e-05 0.0014249907 0.0058458266 -0.0001623777 2.97395e-05 -0.0010028678 -0.0016839379 0.0017865829 -0.00071725535 -0.006694627 0.0021292442 0.00088875036 0.0022886784 0.0009288829 -0.004219519 -0.0010480507 0.0010112011 -0.0014539044 0.0009069392 0.00014653095 -0.0011809008 0.0015663322 0.003276701 0.00092237204 0.0039442554 0.00060512923 0.0019364633 -0.00036436875 -0.00026781426 0.0015528825 -0.0006310318 -0.0036806786
jake -0.003238869 -0.0024229803 -0.0011814412 0.0025425327 8.606098e-05 -0.0013644252 -0.00097217405 9.557728e-05 -0.0011289528 -0.0017415631 -0.0015762347 -0.00507023 -0.0024458645 -0.0017188254 -9.595509e-05 -0.0030524596 0.0033913567 -0.0017442214 0.0013407936 -0.0006498282 0.0024086146 -0.0014234935 0.0010873434 0.0009055825 0.0025708803 -0.00048940786 0.0006122534 -0.00022471705 0.000119659824 -1.3931104e-05 0.000350323 -0.00165591 0.0012957327 0.00310454 0.00250121 -0.00062772766 -0.0013218186 0.0025897892 -0.0017900682 0.0008155498 -0.0027371857 -0.002121535 0.0014485031 0.0027119652 0.0013557811 -0.0020993429 -8.922362e-05 0.00036771595 0.0024721224 -0.0034653165 0.0023783492 -0.000265532 -0.0023329346 -0.0011043571 -0.0018864733 -0.0036063024 -0.00068464014 6.7318164e-05 0.0026289502 0.0022088254 0.0015388738 -0.0006436975 -0.0011813064 0.0022721735 -0.00010761572 0.00013664646 0.00045384315 2.5966966e-07 0.0015555107 0.0005065519 0.00075970794 -0.0012319018 0.0012875014 0.0024840573 0.004592151 -0.0013117726 -0.0013603442 0.0020194366 0.001614574 0.0014974605 -0.0019681377 0.0011961845 -0.0014057192 -0.0013978197 0.0005371021 0.00011154459 -0.00021923125 0.0025907203 0.0012720089 -0.0009075493 -0.00090887124 -0.0006794436 -0.0012423602 -0.00034373105 0.003810448 -0.0016840205 0.00199984 0.00032120585 -0.0021598309 0.00058407336
fight 0.0004760447 -0.0010112537 -0.0013615061 -0.0003490142 -2.1798129e-05 -0.0019039778 0.0007414122 0.00040800145 -0.0010443387 -0.0014031726 -0.004179733 0.0005922552 -0.0029889857 -0.0035046635 0.0007058218 -0.0018643012 0.0038267614 0.0014349992 0.0022608996 8.42136e-05 0.0008401245 0.0021202078 -0.0006946695 -0.0003223558 -0.0043707257 -0.0013210375 0.0007016869 0.0008148924 -0.000895104 0.0006782647 0.001764139 -0.0014794325 0.003573724 -0.0012443478 -0.00035296957 -0.002077741 -0.0004912865 6.414045e-05 -0.002249631 -0.0013568404 -0.0014526916 -0.00065961457 -0.0018694518 0.0034222838 0.0021384682 -0.0008189429 0.0007136072 -0.002361168 0.0018669355 0.0024924225 0.0020044115 -0.0020824862 0.00028663463 0.0007293251 0.00025948658 -0.0025531421 0.00030021177 -0.00029663325 0.0023982467 9.239278e-06 -0.001597147 0.00028503354 0.0007040754 -0.0003113861 -0.0013777824 0.0028924195 0.00094784587 0.00221237 -0.0018200718 -0.0028657906 0.002365357 -0.00025477618 1.6057678e-05 0.0023292718 0.0020764777 -0.0022278985 -0.0035502326 0.0023232582 0.0029923671 0.0041147335 -0.0019729682 -0.001244215 0.0021969534 -0.0005876061 -0.0038705424 0.00033582357 -0.000492917 0.0012548304 -0.00055437593 0.003210084 -0.0009904341 -0.0037874037 0.000342107 -0.0016852916 -0.00028651246 0.00056625315 0.0013734007 -0.001134452 -0.00092854456 -0.0009061318
money 0.001210946 -0.0007183022 -0.0006139788 -0.0021414228 0.00087120995 -0.0014194561 -0.0016467371 0.0013699919 -0.00031031953 0.0012135954 0.00082171935 -0.0013050733 -0.0021656412 0.00061246357 8.4485255e-05 -0.0013893436 0.00052468816 0.00021347142 -0.001171918 -0.0001559901 -0.00026860557 -1.5381103e-05 0.0006084263 -0.0013811098 -0.00066911115 0.001135204 -0.002703263 -0.0004454372 0.00011480475 0.00050157716 -0.0008232876 -0.0011203553 0.0023169555 -0.0013488814 -0.0007797291 0.002010827 1.5599451e-05 0.0009906312 0.00023099991 -0.0014775061 -0.0006172503 0.000347789 0.0016011838 0.0025540565 0.0009851317 0.002086582 -0.00016299348 -0.0003721221 0.0005545564 -0.0028835183 -2.9525387e-05 0.0018055787 -0.0023293837 -0.0016764407 -0.0026893592 0.0018546894 0.0014982417 0.000811716 -8.315312e-05 0.00079417136 0.0028055266 -0.00058563374 -0.00100661 0.0034350886 -0.0015278853 -0.0022746602 0.0028670714 -0.0029556507 -0.00091706525 -0.0009949395 -0.00038167305 0.00057655375 0.0020505816 -0.0006718665 0.0007112292 0.0027601847 0.004578547 0.0003873809 0.00019511268 -0.0010866012 -0.00039945848 0.0011988629 0.00044393688 0.00014391002 -0.0017346612 0.0036195142 -0.002405093 -0.0013649459 -0.0015869163 0.0024784452 0.0009828339 -0.00080179697 0.00057632686 0.0020611018 -0.00014163004 0.0016980417 -0.001285964 -0.0009919245 0.0022976457 0.001027499
look -0.00014098518 -0.00040777892 0.0029210194 -0.00051008764 -0.0002778049 -0.0019250485 -0.0012040257 -0.001849579 0.0015882499 -0.0016047093 0.00273187 -0.0028511314 0.0005749458 -0.002240524 -0.00028725734 0.003371382 0.004028383 0.0033097742 0.0025129353 -0.0029173933 -0.00022137292 -0.0018975515 -0.0018436521 -0.0031415448 0.0021515281 -0.00057685946 -0.0013975204 0.0022763207 0.0012527358 -0.0028234252 0.004173416 -2.8482622e-05 0.0013471413 0.00034037663 0.0022300545 0.0015137601 -0.0037566146 -0.003218764 0.0022249317 -0.0018067494 -0.00071173476 0.0010162785 0.00026420777 -0.0014763161 -0.0021810103 -0.00048753957 -0.00093365 -0.002615748 0.00027028375 0.0016216976 0.00012211748 -0.0011227527 -0.0013732434 0.0033081407 -0.0007734993 0.0026194565 -0.0026933388 0.0028436976 0.000100500794 0.001998601 0.0016074014 -0.0015535213 -0.0018285114 0.002457852 0.0015943508 0.0010600585 -0.0029353804 -0.0024211663 0.00036474393 -0.0023018687 0.0015083543 -0.002148056 0.0030377896 -0.0023364492 0.00073006283 0.0016876798 -0.0022365237 -0.004635965 0.0003797754 -0.0018799546 -0.00073550554 0.00010558713 -0.0050154063 -0.0001213918 5.64754e-06 0.0027497692 0.0020069731 0.00011188562 0.004139806 0.0026025886 -0.00107481 -6.763925e-05 -0.0005970636 0.0024095597 0.0013145056 -0.0016991057 0.0023595658 -0.0003930337 0.0005328899 0.0015877343
take -0.0024000555 -0.0015304092 -0.0010523639 0.0009132506 -0.0012154336 0.0025392359 0.0006197386 -0.0031995347 -0.0018540308 0.0004965952 -0.0034521243 -0.0026409258 0.0016672648 -0.001284931 0.0020201595 -0.0027386046 0.004717815 0.0032494576 0.0024907861 -0.0011012404 -0.0013798346 0.002923301 0.00069434405 0.0025392713 -0.0010416849 -0.0022135791 -0.0012079118 -0.0013755574 -0.0025057702 -0.00070819224 -0.0019466857 -0.0026620608 0.001182538 0.0011785558 0.0040860754 -0.001654934 -0.0034376057 0.001023992 0.00065054017 -0.0022157005 -0.0035786913 -0.002169306 0.001242369 0.0047235643 0.0017223285 -0.002663972 -0.001117308 -0.0009703955 0.0018219944 -0.0026976315 -0.0016763725 0.0033759854 -0.0012690889 -0.0007208718 -0.00080015714 -0.004929957 0.00025446454 -0.0028606264 -0.0015165504 0.00017049629 0.00068858085 0.002403036 -0.00093699526 -0.0012853522 -0.001028872 -0.003532073 -8.0569436e-05 0.0013435045 -0.0019987943 -0.0006138694 0.0013992048 -0.0016241343 -0.00036220482 0.00022827914 0.0021208758 -0.0012947826 -0.00274346 0.0008998513 0.001208628 0.00041837263 -0.003434982 -0.0024552466 -0.0010322136 -0.00047541087 -0.0021205575 0.0030299476 0.00077738764 0.0034801103 0.0030576766 0.00072991604 7.3368574e-05 -0.001953741 0.0018927042 0.00081335264 -0.0012137098 -0.0011115904 6.1171006e-05 -2.5754138e-05 -9.5378484e-05 -0.00085951795
work -0.0007281147 -0.0024961557 -0.0047737737 -0.0026039889 0.002428968 -0.002230837 -0.0005868543 0.0009106479 0.0005132986 0.00022233372 -0.0007627443 -0.0010423595 0.00038576545 -0.00054192427 0.002300696 -0.0010987241 0.0026112401 0.0009768843 -0.00041866972 -0.0034055787 0.0025185652 0.0018507126 0.0025195954 -0.0009062182 -0.0006980114 0.0012297687 -0.0006060919 0.0012000919 0.0015807304 0.00036540983 0.0010827475 -0.0022712303 -0.00040731038 -0.00058219495 0.0013517558 -0.00060907344 0.0011333207 0.0022479272 -0.0017641145 -0.002014172 -0.0022155158 0.003959072 -0.0007937587 0.0020028586 -0.0017976192 -0.0005109766 -0.0030735866 -0.0021120517 0.0019673517 -0.0026748928 0.001980845 0.004439817 -0.00044799826 0.0005032474 -0.0011025519 0.0020433227 -0.00071456324 0.0015243705 0.0018391766 -0.003696861 0.004532293 -0.00028441913 0.001312429 0.0002801229 -0.00072957296 0.00018343447 0.0011465778 -0.002248737 -0.00033180756 -0.00084757345 -0.0010753757 -0.0009187117 0.00084193144 0.0015943605 0.00083148206 0.0015484646 0.0027198633 0.00024862532 0.0004315028 0.00356132 -0.0015611656 0.002159773 -0.0031791767 0.0024238185 -0.00043106277 -0.00042649033 0.0024302183 -0.0031181744 -0.0018392385 -0.0014461544 -0.0012991527 0.003564384 0.0033599695 0.002033229 -0.00048328235 0.0012631929 -0.0015586225 -0.0023570245 0.0022114806 0.00047760474
story -0.0016265494 -0.0033959264 -0.0014444047 0.0012117403 -0.0016098325 -0.0027238545 0.00026373751 0.0006155801 -0.0012038664 0.00073220674 -0.0012759175 0.0007556693 -0.0014239994 -0.0027566827 -0.00021517386 0.00019998485 0.0021351217 -0.002250428 0.00026944478 -0.0007722586 0.0011577997 0.0020730363 -0.0022925783 1.3053114e-05 -0.0017814189 -0.00080455205 -0.00025242113 -8.861488e-05 -0.0018781631 -0.0010794024 0.0027349724 -0.00027237594 0.0020339529 -0.0019521791 0.0013434462 0.0006565191 -0.0029126194 -0.0023259516 0.0012276917 0.00019689935 -0.0005297872 0.0019308438 0.0007409291 0.0012032421 -0.0010422011 -0.0013445509 -0.00022606412 0.000978761 0.0038738013 0.0015700699 -0.0017826274 -0.00057711254 0.0004164792 -0.00093517394 -0.0015274124 -0.0008921635 -0.00017204043 0.0014182818 0.00014038724 0.00082364416 -0.0005225417 0.0017803464 0.0019532715 0.0017371725 -0.005990637 -0.00080886047 -0.0006889085 -0.0013691094 -0.00040234058 -0.00023765875 -0.0003417724 0.00057859963 0.0022619774 -0.002288704 0.002547597 -0.0020116244 -0.0019573958 -0.0006213679 0.0035575265 0.0017663444 -0.00085326604 -0.0027908965 -0.0032982705 -0.00013585013 0.00025723726 -0.0023441634 -0.00067123317 0.0015654777 -0.0028980302 0.00094086834 -0.0005427495 0.0008367623 0.0013779236 -0.000898788 0.00069997855 0.0031549237 -0.0032000015 0.0008809149 -0.0021453504 7.547901e-05
bring -0.0016973511 -0.002892322 -0.0039069643 0.00019980011 0.00038167243 0.00028725955 -0.0014300348 0.0029706976 0.001038211 4.630027e-05 -0.0023238908 -0.0022805117 -0.0020927622 -0.0035578683 -0.00042503446 -0.0013644581 -0.0006107976 0.00035298167 0.00046701368 -0.0037466984 0.0044750506 0.00041910028 -0.0006420575 -0.0011612023 0.0004888123 0.0014363586 -0.00060480833 -0.0035783618 0.0013563313 0.00060619385 -0.0021394454 0.001658387 0.00028671368 -0.000112765374 0.0005801598 0.0013084696 -0.00093236193 0.0019439284 0.001950997 -0.0008440334 -0.0028426473 -0.00105975 -0.0028326262 0.00066412066 -0.002053353 -0.001084233 0.0015715725 0.00038709622 0.0025335387 -0.001119523 0.0014830937 0.0038529346 0.003290088 -0.0031955903 -0.0015908501 0.0012054129 -0.00048608618 -0.00030190375 -0.0033063525 0.0012468698 -0.00030372883 0.0007278323 -0.0024323848 -0.0003936581 -0.003424125 0.0010772535 -0.0006722076 -0.0016276396 0.004432081 -0.0013364461 0.00030910893 -0.0009517882 -0.0011775398 1.7309127e-05 0.0010679574 0.0006046783 -0.0008341666 0.00079067826 -0.0024894932 0.0006522041 -0.0022300577 0.00052158214 -0.0014195093 0.0016178774 0.0004641914 0.00034681027 0.00018719291 0.0009467961 -0.0008338736 0.002812088 0.0011210389 0.0027296902 0.001310257 0.00019885665 -0.0013492523 -0.0010636332 -0.00042058626 8.04825e-05 -0.0014002018 -0.0011300974
wan 0.00070031727 -0.001556128 -0.0018289305 -0.00076646253 0.0003624246 -0.0014693455 0.0031528794 0.0018523111 0.003463233 0.00086381094 -0.0010032582 0.0016812469 -0.0056382804 -0.0018316181 0.0010023119 -0.007179961 0.0037506407 -0.0015899495 0.000116248266 -0.0017161507 0.0013595213 -0.00094058586 -0.0010761701 0.002422171 -0.0015582716 -0.0013659503 0.0027796153 -0.00764113 -0.003140103 0.004011583 4.9292245e-05 -0.0040736953 2.9299421e-05 0.0014609557 0.0013477495 0.00029044267 0.0013763123 0.0029501345 0.003714306 0.001428655 -0.0015961648 -0.00077564834 -0.0019524897 -0.0005191406 0.0006249334 0.0013406128 0.0018243146 -0.0041582785 0.0013412617 -0.0019890054 0.0030003898 -0.0015451465 0.0022531243 -0.0019020336 -0.0007089431 -0.004941178 -0.0008671856 2.729427e-05 0.0022539853 0.00060398254 -0.0008157293 -0.0012171846 7.5339674e-05 0.0012828475 0.0027101594 0.0010720158 -0.0034884387 -0.001129832 0.0021007273 -0.0036184543 -0.0004150785 -0.00018695489 0.001284604 -0.003478767 -0.0014523723 -0.0014305277 -0.0014473152 -0.0004450238 0.0015842298 -5.1804243e-05 0.00018260947 -0.00490598 0.0024661324 -0.0025742648 -0.0038610757 -0.0024423462 0.0006733219 -0.0005984298 -0.0031825074 0.002013135 -0.0011602936 -0.002373617 0.0013604137 -0.0016994094 0.0043490604 0.0006507644 0.000172019 -0.00032555682 0.0051692766 -0.0006838005
na -0.0001981341 0.0027017184 0.00022220332 -0.00026805134 -0.00016434607 3.1929307e-05 -0.00058736105 0.00430163 0.0015052848 0.006091729 -0.0036677704 0.0022896335 -0.0003469662 0.00021812506 0.0015096159 -0.0029184057 -0.0019573024 0.0020183015 0.005304056 -0.0062103774 0.004213728 0.0026863236 0.0022090944 -0.00013649056 -0.0050847456 -0.0011938012 0.0033519617 -0.00015463267 -0.0027423787 0.0059579643 0.0015308507 0.004275378 -0.0004653728 -0.0013170224 -0.0013077097 0.00029570796 0.002499112 0.0025492744 -0.0017301782 0.00025648775 -0.0003046255 0.002622029 -0.0011742067 -0.0009827936 0.003351062 0.00029139174 -0.0006231792 -0.0016783022 0.0034440132 -0.005894703 -0.0014758843 -0.0013309827 -0.0011300688 0.0017030684 -0.0023974087 -0.0006719079 0.0016286781 -0.0026728676 0.0028271584 0.0022704778 0.0029465212 0.00014671269 -0.004380637 0.00077614817 -0.00059023907 0.002754108 0.00023345585 -0.0006919971 0.0005569351 -0.0045095864 -0.002643398 -0.0007015738 -0.0014872631 -0.0016134888 0.0045599835 0.003644815 -0.0009016444 -0.001994052 -0.002934779 -0.0043809293 -0.0021408366 0.0026001008 0.0004560875 0.0020855132 0.0046853432 0.0010801875 -0.0006484884 0.006084971 0.00013689324 -0.0027538072 -0.005827779 -0.000565757 0.0039033832 -0.0044529866 -0.0015763226 -0.0039039059 -0.00086030195 -0.0016750367 -0.0024426058 0.0066723186
star -0.0055872533 -0.0012153081 -0.003006946 0.0027105405 0.0027059922 -0.001468483 -0.00043034952 0.00029300686 -0.0026280493 0.0016748753 -0.0037432844 -0.0021139064 -0.0014249597 0.002446747 0.0023572952 0.0002505677 0.0054668486 -0.003428478 -0.00150049 0.0011499401 0.002824452 0.0023202156 0.00312427 0.003958037 -0.0012220015 -0.002292217 7.5922006e-05 -0.0032728536 6.18424e-05 0.0013629432 -0.0010077948 0.00023892113 0.000705364 0.00029759528 -0.0016027726 -3.4006312e-05 -0.0005614729 0.0021705518 0.0034173774 -0.0018374185 -0.00070882676 -0.0005275672 0.00037807802 0.00288169 -0.0021023771 0.0016730115 -0.0001289668 -0.00054572127 0.0033893317 -0.0031253682 -0.0006657627 0.002477372 0.00205084 -8.418055e-05 -0.0015374216 -0.0032703197 0.0010060408 -0.0024357743 0.0021259435 -0.0005443465 0.0010118055 0.0040038116 -0.0003775989 0.0027889165 -0.0009330235 -0.002066845 -0.0021962838 -0.0016325108 0.0017540609 0.00071894325 -0.0013268905 0.0007496044 -0.0023131853 0.00033669182 -0.0010303388 0.0027794053 -0.0011508177 -0.0022883404 0.0018233493 -0.0012248983 6.773128e-05 -0.00031058292 0.0018507689 0.0007508254 -0.0020062684 0.0004958737 -0.0018404969 0.0008750368 0.00013717687 0.00082989613 0.0002373462 0.0023205813 0.0029407076 0.0011622176 -0.00019827251 0.0009931526 -0.0005144534 0.0026980052 -0.0010996968 0.0012005694
awful -7.1940136e-05 0.00013054913 -0.0009544993 -0.0014281119 -0.002849959 0.00048267792 2.0432379e-05 -0.0009741954 -0.0013377782 -0.0016049776 -0.002369981 0.0008283966 0.00059659913 -0.0002271086 -9.175887e-06 -0.0039171027 -0.0004156289 -0.00087014184 0.00097569847 -0.0007364819 0.00018055836 0.0038044879 -0.0013831761 0.0017012493 -0.000609912 0.0012631614 -0.0010215819 0.0031541998 0.00013591057 0.0004894208 -0.0010025227 -0.0003381148 0.0008432748 -8.093997e-05 0.0014549758 0.0009757984 -0.0020401084 -0.001074718 -0.0014863666 -0.003084236 -0.00049738423 0.00091319723 -0.0011647672 0.0018077046 -0.0023053023 -4.9876016e-05 -5.440501e-05 0.0006453761 0.001735873 -0.0018760214 -0.00059313816 0.00080563314 0.0011553575 -0.0014074312 -0.00039234248 -0.001682107 -0.0007715156 0.0005062144 -0.004553064 0.00061718957 0.00023645272 7.7194054e-05 0.0004180025 5.131258e-05 -0.0005718902 0.0010410905 0.000500442 0.00014299182 0.0013834262 -0.0009666735 0.0021458904 0.002204228 -0.0006777669 -0.001751368 -0.0005272332 0.00040025395 0.0015015829 -0.0018060799 0.0008718034 0.0018521884 -0.001960404 0.00023246487 -0.00012416598 0.0015677805 -0.0007064637 -0.0007812552 0.0020857607 0.001407683 0.0007098311 -0.0002708098 0.0007131568 0.001419389 0.0022161081 -0.001843332 -0.00032935818 -0.0014681353 -0.0018175582 -0.0011182377 3.225872e-05 0.0008518519
something 0.0004246906 -0.002936505 -0.0028512136 -0.00093910145 -0.0022715353 0.00033792487 -0.0007718154 0.00034465163 -0.0008472511 8.106202e-06 0.0013341983 -6.930866e-05 -0.0006161531 -0.00020851126 0.00069347105 0.00023363813 0.0022153896 -0.00045617856 0.0027058166 -0.0018479691 0.00021008657 0.0010111602 0.00095993176 -0.0002154853 0.00019829745 0.0013115583 -0.0012234311 -0.000731725 0.00060850143 3.2407937e-05 -0.0006388639 -0.00013419274 0.00050352036 -0.001191159 0.0015458202 -0.0007650415 -0.0023311249 0.0013101205 -0.0006791013 -0.0015480473 -0.00034387695 0.0015196002 -0.00032850445 0.0014199344 -0.002812603 -0.0028627107 -0.0016076709 0.0003510124 0.0006104875 -0.00082009746 0.00014298028 0.0004087726 0.0016212985 0.000680695 -0.0016921893 -0.0010880774 0.0009646085 0.00053195335 0.00058855646 -0.0008965068 0.0010411023 -0.00054998085 -0.0020179607 0.0019254652 -0.0015939102 -0.00092558376 -0.0010028571 -0.0014970186 0.0026333907 -0.00011415459 0.0011959068 -0.0003364308 -0.000983603 -0.00035755528 -0.0020321305 -0.00052111386 0.00031244944 -0.0011088708 0.00059663306 0.0014645573 -0.00088088214 0.0014585878 -0.0005116702 0.0018783589 -0.00082455616 0.000799356 0.00083845004 -0.0011332005 -0.0014977822 0.0013703055 -0.002173864 0.0011406955 0.0014539275 -0.0018304116 0.002520382 0.0019020153 -0.0019174424 0.0004977986 0.0016391012 -2.4225517e-05
cry -0.0018873081 -0.0020111164 -0.001811077 -0.0026456271 0.002715002 -0.00081211294 0.0012953307 0.0019363052 -0.00140665 -0.0006607845 0.001515329 -0.0010313679 -0.0007606653 1.145886e-05 -6.9292228e-06 -0.0022324864 0.0028526348 -0.0017835101 0.004799683 -0.0034348494 0.0014324534 -0.0003607631 0.00066945323 -0.002858089 -0.0014996735 0.0018946981 0.0036531591 0.0011878945 -0.0027631898 -0.00051633036 -5.4611068e-05 -0.004104282 -0.001146407 0.0007290387 -7.2335024e-05 0.0009404297 -0.001430528 -0.0005548555 -0.00021539269 -0.001899703 -0.00064761314 0.0009944349 -0.0007849752 0.0024089112 -0.0027659272 -0.001412133 0.0005894361 0.005129166 -0.00033145776 0.0038364264 0.0025325685 -0.0026937535 0.005130605 0.0053383997 0.0008220662 -0.0003704418 0.0032958707 0.0036770958 -0.0034620273 -0.002013303 0.0006490595 0.0043137907 -0.0025206734 -0.0003370793 -0.00017513082 -0.002399938 -0.0019228144 -0.0021081239 0.0003324137 -0.0026003115 0.0019458197 0.0030717126 0.001070693 0.0004775926 0.0023790994 0.0040575042 0.000107660475 0.0007398223 -0.0003165529 0.00022354024 0.0035383052 0.001562585 -0.00038186336 -0.0010131445 0.0015477967 0.00024507538 0.0005143266 0.00065744633 0.0023956697 0.0007030253 0.004011596 0.0036091425 0.004064131 0.002931734 0.003959085 0.0010712486 -0.003058692 0.0030264854 -0.0016457177 0.00034025917
cinema -0.0013854526 7.1675626e-05 -0.0025651685 -0.0008982483 -0.0013098803 -9.491017e-05 2.1445663e-05 -0.0025278414 -0.0018056327 0.00072589 0.00024207986 -0.00048926246 -0.0011050749 -0.0010077558 -0.00016549784 -0.0022686175 -0.0005340205 -0.001165361 0.0005648712 -0.0019606457 0.00047211986 0.0012545648 -0.0002915594 0.0016301066 -0.0019462828 -0.0021481216 0.0012519899 -0.0013259196 0.0019574487 -0.0014537026 0.0003501765 -0.0005765539 -0.0014130564 0.0013772316 0.0006309232 -0.0005785886 -0.00029582452 -0.0022480437 -0.00073227927 0.00037509095 0.0002967254 0.00021881815 -0.0005406851 0.00021592528 -0.001270622 -0.0009600934 0.00048907043 -0.0010420572 0.00040975562 -0.0015449781 0.0007097734 0.00222729 0.0015095295 -0.00020793492 -0.00064337923 0.00089468836 -0.0009775899 0.00015312021 -0.0013867917 -0.00016921171 -0.0027725906 0.00014281232 0.00054834754 0.0043613375 -6.843616e-05 0.0007003957 0.002088541 0.0007529716 0.0008215799 0.0022120103 0.00052348495 0.0021820015 -0.00089396554 -0.00067439565 -0.0008573984 0.0010511354 0.00062348304 0.0005447985 0.0006383389 0.0025743323 -0.00184195 -0.0008504073 -4.8542737e-05 0.0029539843 0.00015851186 -0.0006877225 -0.00025040426 0.00072976795 -0.000782365 -7.075515e-05 0.001622946 0.00068336935 0.0027652842 -0.0001858238 3.3038737e-05 0.0010114029 0.0019783557 0.00089654 0.0021052614 -0.00038900893
exactly -0.00078233064 -0.00068006007 -0.00088886684 0.0008810493 -0.0009420059 -0.00096947415 -0.00046478366 0.001197817 0.00037964125 -0.001506887 -0.0011389247 -0.0018609262 -0.0017426454 -0.0003567394 0.0013345141 -0.0012528264 0.0005752241 0.0006924151 0.0019415761 -7.374161e-05 0.0015242343 0.0028509432 0.00023613463 0.00062692055 0.00024787578 0.0024541677 -0.00069984916 -0.00031505158 -0.00097343535 -0.00038604095 0.00019104508 0.00013916798 0.0016596586 0.0026847324 0.00046208836 -0.0007233732 -0.002825617 0.0012869111 0.0004434093 -0.0004620591 -0.0006873248 0.0022237422 -0.00046677704 -0.00066131615 0.00046043002 -0.00025120628 0.0012023245 -0.00039224676 0.001795002 0.0010316599 0.00037696608 0.002109574 -0.00033139685 0.00050749996 -0.00032373494 -0.0027636695 0.001083589 0.0026098508 0.00063461316 0.00033092234 0.00035717452 0.0013474475 -0.001919073 0.00028583157 0.0003824513 -0.0009335328 0.0007243427 -0.0028015631 -0.0001852418 -0.0019556435 -0.00015383838 -0.0025845396 0.0016641107 -0.0012554161 0.00036688265 -0.0003576708 0.0019352804 -5.4343745e-05 -0.0004141083 0.0012100886 0.002035366 -0.0022137116 0.0011357263 -0.0015894152 -0.0023455105 0.0006508028 -0.0011635507 -0.0011398405 -0.002766135 0.0015950629 -0.00075321004 0.00046157587 0.0016861769 0.00207484 0.0010342093 0.0016416544 -0.0005229142 -0.0007131226 0.0018416576 0.0009836614
