914 100
not -0.0023063116 -0.0007442584 -0.004182408 0.00021736114 -0.0016024691 0.005398951 0.00424493 0.0003755078 -0.0023088122 -0.0042619905 -0.0044025225 -0.004057894 0.0030895227 0.0011701091 0.0048428145 0.0049801334 0.00079752743 -0.004259156 -0.0023578773 0.0007830535 0.0037337344 0.0020494084 -0.001802896 0.00063539046 0.0049968893 -0.00391119 0.0010276276 0.00014179216 0.0012204442 -0.00044018254 0.0025459763 -0.0042628315 -0.0037134537 0.0030853818 -0.0044797845 0.00090973004 -0.0002993387 0.0030386185 0.00070292683 -0.0038232305 -0.0040931795 0.005415157 -0.0043004886 0.0025526157 -0.00014934484 0.0019413831 -0.002202196 0.0036161025 0.003487032 0.0014125204 0.0031721967 0.0008472268 -0.0019965563 -0.0019501728 -0.004492892 -0.00026835955 -0.001978162 -0.0044029397 0.0041711363 0.0018643703 -0.005024554 -0.0030642822 0.0053941277 0.0056010378 -0.0020383706 0.0015965586 0.0019123037 0.0043945666 -0.003472715 0.004044323 0.0011572331 -0.004291092 0.004203425 0.00029804453 -0.0035195267 -0.0045153773 -0.0037281336 0.004489935 0.0040078154 0.0036995865 0.0005013956 0.0055960133 -0.0009079573 -0.0021918316 0.00048551543 9.009719e-05 0.00066344184 -0.0006354293 0.00080197764 -0.000275347 -0.0010234016 -0.0024557936 -0.0016351567 -0.0036071695 0.0023724872 0.0013051648 -0.0029050573 -0.0022278852 0.0022405495 -0.00090407697
film -0.0029053465 0.0025882323 0.0016100032 -0.004565534 0.0023870035 -0.002975485 -0.0026781207 -0.0006701104 -0.0048517473 -0.0006744399 -0.0038470172 0.0007338589 -0.0015447751 0.004740988 -0.0017275405 0.003006539 -0.0011950389 0.0018075656 -0.0009886861 -0.00075120945 -0.0005798904 0.0056063915 -0.0019069194 -0.0019420694 -0.0028640148 0.0037211543 0.0035522918 -0.0049352 -0.0037365498 -0.001963553 -0.0026659349 -0.0007347171 0.002767011 0.004269304 -0.0014698533 -0.0010555295 -0.0043107797 0.004434945 0.004005391 0.004202857 0.0038821334 -0.0018836153 -0.0016012611 -0.0021046104 0.0012230116 0.0036072903 0.0019475976 0.0043063792 -0.00023455374 0.004721848 -0.005072838 -0.0019088032 0.0023176873 -0.00090054923 -0.0052922545 -0.0018221801 0.0023302133 -0.0032631785 -0.0038788423 0.004743231 -0.0006757196 -0.000816285 0.004631845 0.0031035852 -0.0036431719 0.0032033538 0.0034135063 -0.004842394 -0.0007339579 -0.003936743 0.0026064313 -0.0025728664 -0.0005967859 -0.0033786593 -0.0010144559 0.002728945 0.0026481464 0.0013251082 -0.0033572526 -0.0046169204 -0.003628873 -0.003641538 -7.9220416e-05 -0.0031234259 0.0019472515 -0.0053730905 0.003333583 -0.0003385723 -0.005213745 0.0024365843 -0.0048326533 0.0020603717 -0.001072512 0.00059948926 0.004866928 -0.004752362 -0.001794051 0.0022855736 -0.0007737838 0.0037759
movie -0.00299018 -0.0047283685 -0.00070155517 0.0018008623 -0.0037269914 -0.0045650858 -0.0011149091 0.0020277095 -0.001468663 -0.004745095 -0.0035546634 0.004168756 0.0008668735 0.0037807468 -0.0034159238 -0.004327438 0.0037651488 0.003616309 -0.0029458858 0.0034147182 -0.0010970895 3.034283e-05 0.00091714715 0.00051048916 -0.0037288074 -0.00047762148 0.00091823534 -0.0009803517 0.0019080976 0.0019857462 -0.0022208104 -0.0045661377 0.0018636049 -0.002435353 -0.00488737 -0.004496898 0.0009249444 0.0027279141 0.0006502649 -0.0010559667 -0.0027907311 0.0038994877 -0.0013684779 0.0045003076 0.0011831595 0.0032593245 -0.002422098 -0.0043779644 0.0012823457 0.005263031 0.0046410686 -0.0012725731 0.003430056 0.004356588 -0.00044881925 -0.0014178734 0.004115684 -0.0026027628 0.0047632563 0.0019205317 -0.0041623153 -0.0021025585 0.00019815055 0.004538394 -0.0010368087 0.0032661692 -0.0011335007 0.0018928273 -0.0014168269 0.00414502 -0.0029556958 -0.0035875968 0.0005325692 -0.0038186533 -0.00075307407 -0.0031615072 0.0006209549 -0.003770067 -0.002397877 -0.0052602817 -0.0032219603 0.00016113569 0.002383143 0.0017716816 -0.0005735025 -0.001696838 0.0018737728 -0.004550158 -0.0042006117 -0.000889685 0.00226426 -0.004910573 -0.003989898 -0.005143069 0.0044610393 -0.0030298296 0.005139417 0.0027344907 -0.0011730635 0.0028375546
one 2.7203749e-05 -0.0031390067 0.0025854132 -0.005051776 -0.0017000366 0.0030589167 -0.0047402503 0.004732248 -0.0027922133 0.0040047877 -0.0022369423 -0.002017497 0.002286283 -0.003990345 -0.00015479223 0.0020761953 0.0015680566 0.0012884359 0.0036798671 0.0013571449 -0.004473509 0.0029928938 0.0023814826 0.004626935 0.0037999733 -8.4977146e-05 0.003729386 -0.00075496436 -0.0029701968 0.0025296332 0.0040588896 0.0038103375 -0.0029600791 -0.00455481 0.0024260625 0.0011341127 0.00072663615 -0.0033390936 0.0012567786 0.005179122 0.0013017936 0.0035838333 -0.004155483 0.0026775673 0.0031503066 -0.0006630375 0.0042883484 -0.001053319 0.0020464459 -0.0031055699 0.0036834695 -0.0030441904 -0.001389145 0.0013317544 0.00222689 -0.0011242133 0.0026798774 -0.002808468 0.0026416038 0.0015016827 0.0002729647 -0.0022847122 0.005039784 -0.00055548816 0.0013171573 0.0036817088 -0.0054573854 -0.0032102237 -0.00023214346 -0.0037677374 -0.0011061697 -0.00508416 0.0025712445 -0.000671542 0.00015757325 0.004535939 0.002387909 0.0033555538 -0.0004965184 9.9359604e-05 -0.0060716625 0.00377158 -0.0039894767 -0.003951069 -0.0041638454 -0.0022391342 0.00021573005 0.0027537548 -0.0004339695 -0.004286556 0.0008708881 0.0019268851 -0.0011009084 -0.000606214 0.0022944792 0.0029126115 0.0036947099 0.0024554252 -0.0020563805 -0.0005542443
see -0.0028466207 -0.0016772976 -0.0048611984 0.0034556456 -0.0047935382 0.0030592992 -0.0042036385 -0.0013611304 -0.0027542512 0.0037249143 -0.0008529099 -0.003917846 0.0032265885 -0.0041160267 0.0035000232 0.004624454 -0.0031778703 0.00022333454 0.0004683991 0.004633666 0.004787159 0.005085372 -0.0005923274 0.0028343673 -0.00019976089 -0.0039048207 -0.0044384804 0.0016215531 0.0040870663 -0.0042698723 -0.00028268792 0.00057721656 0.0011682368 -0.00028644106 -0.005255761 0.0042192303 0.0026910703 0.0024260604 -0.000938832 0.0025839305 -0.003769232 -0.0025479402 0.0023095245 -0.0014677495 0.0032236085 -0.001366263 0.0029651555 0.0016734705 0.0030569257 0.0021378398 -0.0011280415 -0.0013752523 -0.0023557611 -0.0032559494 -0.00013560626 -0.0037164232 0.0014424431 -0.0012580334 -0.0047969264 0.004538676 0.004588695 -0.00039814477 0.0020332611 -0.0013806473 0.00046307762 0.0036624335 -0.0040241326 -0.0037764458 -0.0040101567 0.004237321 0.003400732 -0.0015671117 0.0007431933 -0.0041782795 0.0025700238 -0.002828604 -0.001250745 -0.00027227227 0.00265261 -0.004792506 -0.005176988 0.004994792 0.0011128451 -0.0039850334 0.003975525 -0.0035360388 -0.00044117402 -0.0036085784 -0.005114832 -0.00230119 -0.0035760498 0.0030574712 -0.00042052218 -0.00046675376 0.0009244355 -0.0003663417 0.0026646284 0.00045479377 0.004218348 -0.003978572
go 0.0028748442 -0.0021518888 -0.004013767 -0.0044403006 -0.0043191216 -0.002483469 -0.000755705 0.0024931908 -0.00064922223 0.0029987847 0.002205319 0.003502527 0.00035521065 -0.0030021227 0.0043846183 0.00016477068 -0.002669619 -0.0017213265 -0.0022751084 0.0010557715 -0.0037061751 0.0009494225 -0.0011586255 -0.0012625308 0.000108199485 0.0014701805 0.004413167 0.0026296 0.0054133697 0.0034457943 0.0013809999 -0.0010709983 0.00061759434 -0.002949891 0.0028782005 0.004652587 0.0031864357 0.00095540954 -0.00032794752 -0.0040698485 -0.0043438366 -0.0026275392 -0.003404743 0.004471311 0.001721185 0.0023954695 0.0027451133 0.0012616683 8.2810395e-05 0.0039537563 -0.001443584 -0.0031433261 -0.0032507698 -0.0034309956 -0.004735065 -9.980383e-05 4.1236475e-05 0.004484017 -0.0028880872 -0.0034279793 -0.0026565003 -0.0038358371 0.004007375 -0.0041826046 0.0027450088 -0.00290662 0.00014708196 0.0035794012 0.0015670169 -0.0045133997 0.003501286 -0.0035792573 0.00030555765 0.0023820864 -0.003334104 0.0025130122 0.0012346245 -0.0026947192 -0.0035299482 0.0020193877 0.002489003 -0.0030255264 -0.0029884917 -0.0008204604 -0.004213853 0.0036397679 0.002351248 -0.0031236832 0.0008411635 -0.0043863826 -0.0008428816 0.0006126303 0.0025071537 -0.0017340705 -0.0018259492 -0.0014840453 0.0023958369 -0.0028459774 0.0011014797 0.0028576283
would 0.003966767 0.0029400168 0.00257791 -0.0029332933 0.0024662933 0.0050415252 -0.0010428341 -0.0015589983 -0.00212649 0.004019668 -0.004376806 -0.00061350496 7.530945e-06 0.0021793246 -0.0002323609 -0.0028072433 -0.0036588206 0.0022252232 -0.0022328324 -0.0006516968 -0.001783356 -0.0032629364 -0.0056087575 0.0017074551 -0.003891533 0.0038791827 -0.0004977491 -0.0033831147 0.0034931868 0.0047554136 -0.0041687205 0.004175066 0.0047624866 0.0048851077 -0.0043872977 0.0014633562 -0.0024270325 -0.0018731072 0.0020539986 0.0024845735 0.00194388 -0.0017872554 0.0019094868 0.0038767783 -0.0032158035 6.7201516e-05 -0.0031685675 -0.00046159272 -0.004014869 0.0036618933 0.001621038 0.0034073365 0.0021103257 0.0031662094 0.00047706766 8.1083665e-05 -0.0013618701 0.004008245 0.0015682238 0.0031346905 -0.00039755093 -0.004472691 -0.0025006605 -0.0033711724 0.0009424813 -0.0004810711 -0.0030372625 0.0007125797 0.0039461153 0.0040907543 0.00394266 0.0021184352 -0.0013038581 -0.00035029693 0.003740157 -0.001386886 0.0025777195 -0.00022202414 -0.0013412103 -0.00032183732 0.00021171816 0.0027698295 -0.0017855172 0.003678304 0.004362457 0.0042647645 -0.004294241 0.0008413974 0.0009165928 0.004175581 -0.0038884734 0.00096039247 0.001709358 0.0021210427 -0.0047048326 0.0021146866 0.0030454814 -0.0049820403 0.0009842358 -0.00068659964
like -0.0032364326 -0.0012554489 0.00088245946 -0.0015138085 0.0035036642 0.0052492297 0.004984399 -0.0017619354 0.00200713 0.002423532 0.00063401804 -0.0035526431 -0.0039010562 0.0013239684 -0.00089726376 0.004443338 0.0003376836 0.0035219034 -0.0039377334 -0.0028255032 0.0033034615 -0.0018934573 0.0039707646 0.004392157 0.0033853245 -0.0040086294 -0.0032140345 0.0017167401 0.004183775 -0.0046069087 -0.0040865852 -0.0011910744 -0.001907064 0.003504904 0.0006022743 -0.0023075903 -0.00446802 0.0037627325 -0.0016426726 0.0034435499 0.0031601116 0.0043923697 -0.0011404668 0.0033740278 -0.0015408093 -0.00053503225 -0.0029589522 0.0029782404 0.0032216469 0.00483522 -0.004941689 0.0023652664 -0.0011251102 -0.0017008465 0.0021020821 0.0016769787 -0.0037479764 0.0033337954 0.002054571 -0.003092139 -0.0037949642 0.0028052682 0.0022010193 -0.0027061277 -0.0026882316 0.00418338 -0.0028402472 0.00018755824 -0.0028649927 -0.004557908 0.003134555 0.0023975396 0.0002089101 0.0026940037 -0.003231441 -0.0011281606 -1.1603615e-05 0.0038622816 0.004848072 -0.00060016033 -0.0021279764 -0.00024615388 0.0048287744 0.0039465823 0.0042002145 0.0024275973 0.0008501963 0.0050188857 -0.0052219657 -0.0050883843 -0.005126637 0.0039320947 -0.0045881164 -0.0010767683 0.003800145 -0.00053472474 -0.0006741424 0.0034844663 -0.001063971 -0.00056557317
make -0.0027212487 -0.0019719084 -0.0013198745 0.0029694487 0.0028315906 -0.0019152558 0.00017826808 -0.004114341 -0.004379139 0.004970916 -0.0036470827 0.0018538054 0.0027870103 -0.0017301433 -0.0037905723 0.0047930316 0.00031467303 -0.0002842555 0.0023860699 -0.004290403 -0.0049014725 0.0033782988 -0.0019045135 -0.003607473 0.0024449145 -0.003774302 -0.0041722544 -0.0028651948 -0.0034248705 0.0010014959 -0.00095736556 0.0039594974 0.003984999 0.0032574667 -0.0052532665 0.0013604689 -0.0032585869 -0.0010527865 -0.0037835508 -0.0032543838 -0.0014655961 -0.0010412671 0.001956995 -0.003342803 0.004499771 0.0011290526 -0.002177993 0.004764168 -0.001819912 0.0031158137 0.0017224079 -0.001650028 0.00083627005 -0.004493709 -0.004308044 0.005509714 -0.0024901864 0.002737136 0.0033125896 0.0022729044 -0.00038529836 0.0011126307 0.0037164101 0.0009735486 0.004757147 -0.0012982645 0.0011061643 -0.004170443 0.00018684193 0.0028960097 -0.0036669741 -0.0015269554 0.0020312516 0.0038282196 0.0017357152 -0.0008992883 0.00032571095 0.004680015 0.00039705448 -0.003514936 -0.0009283431 0.003234378 0.0036471244 -0.001841663 -0.0005921799 -0.00049086823 0.0035347985 -0.002123876 0.0032746675 0.0023551974 -0.0012140893 -0.00047716862 -0.0012858824 -0.0015914857 -0.0039913584 -0.0046275733 -0.004434239 -0.0044814707 -0.0009653332 -0.0004014255
get -0.00247461 0.0018224698 -0.0012153999 0.0019321806 0.0047957525 -0.0039284606 0.0012980152 0.005345268 0.0035746703 -0.0029225617 0.0015711727 0.0019763142 -0.0003385914 -0.004142945 0.0015130605 0.00073400186 0.0011451591 -0.0009554981 -0.001096282 -0.0025451158 0.004920399 -0.002517272 -0.0031225844 -0.0023508808 0.0038923768 -9.8439996e-05 0.0044150897 0.0037678233 0.00024768128 0.0006976751 0.00020517164 0.004900327 0.0014689289 0.0049372674 0.000116020674 -0.0018731344 -0.0033504115 0.0038323184 -0.003964703 0.0028972323 0.00015870911 -0.0029812173 -0.0059719575 0.00027561834 -0.0025677534 0.0027754386 0.0040786597 -0.00077740126 -0.0038642169 -0.0002685346 0.0037922824 -0.00034482958 0.003694818 -0.004864996 -0.001266432 0.0037124602 0.003324465 -0.004248572 0.0025183405 0.0044225403 -0.002620209 0.0017084787 0.005518613 0.0010263714 -0.0027116206 -0.0021803621 -0.0016049211 0.004629781 0.0028475323 0.003427507 -0.0015881199 -0.0018732254 0.0012715731 -0.0020428817 0.0008054467 -0.004140293 0.0030801238 0.0025435865 -0.0007922148 -0.0043374486 -0.0013856555 -0.004072036 -0.0015224713 -0.0003108241 -0.0033765996 -0.0040066415 0.00035330566 -0.00077478494 -0.0025755481 -0.0049099433 -0.0013747856 -5.940615e-05 0.0025228409 0.00036588171 -0.0039324975 0.00064343156 0.00029351708 -0.0050132293 -0.0022420632 0.00472253
show -0.00039892845 0.0021359199 0.0032591939 0.0028186014 0.0043449444 -0.0027424938 0.0015321977 0.0019383155 -0.0015178529 -0.00086938904 0.0014237632 -0.0051562698 0.0052157645 -0.0009016663 0.0027264294 0.0043255305 0.004321638 0.0033035765 -0.00058759697 -0.0017378567 0.0003038963 -0.0026740541 0.0040790816 -0.0009253859 -0.0033254053 0.0049516107 -0.0028627804 0.0019164947 0.0031214154 0.0017776006 0.0027776517 -0.0019209704 0.00021434142 -0.00062491983 0.0024889298 -0.003902367 -0.0003015493 0.0030752188 0.003354641 -3.9357976e-05 0.004310458 -0.0013845132 0.0032162964 4.5444234e-05 -0.0036972256 -0.00027207306 -0.0005119148 -0.003475136 -0.00039688757 0.0043035103 -0.00016738017 -0.0013324368 -0.0027489653 0.0033858349 -0.005228047 -0.000612798 0.00050486537 0.004275357 -0.0013043783 -0.004142475 -0.003984776 -0.005120556 -0.00096193893 0.004352166 0.0039144824 0.0017894035 -0.0015390567 -0.0010427539 0.0012618958 -0.0049198656 0.0041461876 0.000990171 0.0028432438 0.0034910496 0.00411145 -0.004378654 -0.0038366842 -0.0004920421 -0.0029875443 0.0028659657 -0.00031868072 0.0034670471 -0.00061380345 0.004976123 -0.002933225 -0.0007704829 -0.002298306 -0.0027798493 0.00016893253 0.0037227578 -0.0034233565 -0.0038546403 -0.0021765116 -0.0050987503 0.002209562 0.00039727715 0.0035516936 -0.0026404443 0.0022789473 0.004257303
no -0.0039547547 0.0001941164 -0.0046139704 -0.0009727202 0.0035610506 0.00049289 0.0010131213 0.0022291024 -0.002677552 0.004940016 -0.0017949466 -0.004110866 -0.0007601529 2.961783e-05 0.0031993631 -0.0032473318 0.0008758606 0.0014170867 -0.0026996299 -0.0034883404 -0.002210774 -0.0024117585 -0.0042884583 0.002514256 0.0020950292 0.0029725207 -0.0044202465 -0.0013211176 0.0037238735 -0.0025560155 0.0032275289 -0.0021293142 -0.0011108126 0.0017704393 -0.003754318 -0.0022015523 -0.00010817307 0.0046976204 -0.004058658 -0.0018546601 -0.004786194 -0.0015359316 -0.0042202864 -0.0043515875 0.0039666253 -0.0022979665 -0.0027574752 -0.0034902385 -0.00437888 -0.0032409686 -0.0038678802 0.001594189 -0.0035431983 -0.0014262581 0.0017526906 0.0010617207 -0.0030647814 0.0039439765 -0.002293233 -0.0014109124 0.0022348983 0.0023174426 -0.003084891 0.0045497967 -8.057183e-05 0.0026472001 -0.0001390481 0.004502644 0.0039397907 -0.002139226 -0.00033608722 -0.004912513 0.0010392657 -0.0040131956 0.0015491595 -0.0030802933 0.0024914718 -0.0036371606 -0.002244892 -0.0014516494 -0.0007744524 -0.0014662291 0.0011852233 0.0037067756 0.0024728626 -0.002786126 -0.0017792041 0.0005932955 -0.0037046457 2.461516e-06 0.0046611596 0.003853464 -0.0034885332 0.0043570264 0.0037981737 -0.004349649 0.0024126684 0.0042500785 0.0015635985 0.0042495388
watch 0.0021090794 -0.0043275184 -0.00081943197 -0.0010284185 -0.0018767231 0.004926346 0.0024531053 0.0004687957 0.0033614023 -0.00080830447 -0.004335482 -0.0038491182 0.0043401173 -0.0019205322 0.0039311433 -0.0008708547 -0.0038511138 0.0029552805 -0.0035128915 0.0011406378 -0.003518282 -0.00017761945 0.0032908896 0.0017621542 0.004706801 -0.0046984144 0.00043936388 6.535971e-05 -0.0041436497 0.0050313007 0.00028827996 0.0026128842 0.0040905853 -0.0013181956 0.0007841338 0.0035066553 -0.0005712367 -0.0020190203 -0.002630777 0.004228209 0.0037414746 0.0053555067 -0.0014981339 -0.002686649 -0.0047156704 -0.002756135 -0.0049819895 -0.0045000776 -0.004964103 0.0042396486 -0.0008087825 0.0011113306 -0.002503958 -0.0007130697 0.002766987 0.0007786942 -0.0004486093 0.00031517545 0.00054605404 -0.004600036 0.0014791869 -0.0042984574 -0.0005063835 0.0016990604 0.0050141104 0.00045966197 0.002214616 0.0023562282 -0.002692123 -0.0039334497 -0.0046721203 -0.0044272505 0.0036527447 0.0033286018 -0.0038139555 -0.00092242274 -0.0008462514 -0.0036220485 -6.776267e-05 -0.0038413566 0.0025584938 0.0012442949 -0.0035654714 0.0019593989 -0.0011285841 0.0018881523 -0.0026103682 0.0035181385 -0.0017407052 0.004296016 -0.0008795085 -0.0023914918 0.0042111855 -0.0027386614 -0.00034129687 0.0024468694 -0.003630388 0.0008161522 0.004390871 -0.0016963871
first -0.0042730304 0.00047136465 -0.004758432 0.0040287175 -0.004655093 0.004760946 0.004585882 0.00018955575 0.003635029 0.0045002205 0.00023098213 0.0020605074 0.0003336356 0.002448198 -0.0018273517 0.004904093 -0.0014433297 -3.7141246e-05 0.004459309 0.0013322254 0.003863198 -0.0018933396 0.004412434 -0.0015524607 -0.0047634956 -0.0020894988 0.0048530684 0.0040729665 0.0020582736 -0.005016367 0.002907241 0.002183742 0.0049972115 -0.00081756007 -0.0004688154 -0.0019050083 0.0026095673 0.0029967972 -0.001879665 0.004683026 0.0036954908 0.0016630612 -0.0010187967 0.00043676002 -0.001188955 0.0026722297 -0.0027626248 0.0012874372 -0.0019525425 0.0010976926 -0.0013223761 -0.004353644 0.0036935643 0.0017544408 0.0028619224 0.0027021593 0.0034798381 0.0010003017 0.0017584801 -0.00089636334 0.002209399 -0.003850872 0.0036097271 -0.0030351907 0.0041951216 -0.00091777457 0.0001191112 0.004356739 -8.84027e-05 0.0039377245 0.0008982454 0.0024544382 -0.0032733474 -0.00047133406 8.412982e-05 0.0015838755 -0.0036683222 -0.0013261297 -0.0003058159 0.0034380916 -0.0017999364 -0.0004749916 -0.0005353845 -0.0025056747 -0.005147417 -0.0033159272 0.0049851635 -0.0005708227 0.0031273863 0.0023067463 -0.0035342963 -0.0007361195 0.0028229854 -0.0013665811 0.004994653 0.0028010607 0.0029547953 -0.00028024058 -0.0031756938 0.0034019274
far -0.00048773366 0.00022085775 -0.0032884448 -0.0030853297 0.0026398872 -0.0033150006 -0.0013307686 0.00062445883 -0.0048825126 -0.004688156 -0.0049128416 -0.00025323333 -0.00087065436 -0.002033433 -0.004276461 0.0035488773 0.002299287 -0.0016411536 0.00091222505 0.0045889085 0.002546455 -0.00016586627 0.0035530159 -0.004191157 0.00028493165 -0.0012779528 -0.0041278494 0.0017950706 0.004890493 -0.0039014707 -0.0043721832 -0.0046440675 0.0015590488 -0.0012829956 -0.0005724541 -0.0037034815 -0.0036514702 -0.00097061176 0.0033521762 -0.0016660552 -0.004848609 0.0014843126 -0.005158555 0.002349158 -0.003967457 0.00062035746 -0.0011194549 -0.00149987 -0.002761988 0.005543042 0.0028154505 0.0019474108 -0.0014073099 -0.0024587389 -0.0036539962 -0.0021150634 -0.001491315 -0.003000779 0.0025333436 -0.00017157203 0.00023205025 -0.003166659 0.0039492454 0.0029840171 0.00071232184 0.0012162906 -0.0022481983 0.0034214533 0.0030204908 -0.005193416 -0.0011873174 -0.004603327 0.0042779455 -0.0046164594 -0.0011257106 -4.2423377e-05 -0.0012070306 -0.0022760278 -0.0019331505 -0.0036648943 0.0026790604 0.0017336454 0.0013214612 -0.0006967726 0.0013385504 -0.00482861 0.0029287117 -0.004368365 -0.0020397033 0.00014974229 -0.0048650866 0.0045441324 -0.0026765554 -0.0036698936 0.00048350514 -0.0033242959 0.0036715653 -0.00093919813 0.0014059274 0.004429371
out -0.0039475537 0.00030255326 -0.0022332955 0.00052989105 0.00027730066 0.0039481646 -0.0032133802 0.0042065997 -0.0049998094 0.0006290209 -0.0028907647 -0.0016010613 0.004423015 0.0030953307 0.004622244 -0.003085172 0.0036665292 -0.004772257 0.0038349985 0.004267786 -0.0022191245 0.004757655 0.0022849361 0.00024271467 0.002620719 0.0034131964 -0.0033824493 -0.00087485294 0.003492507 -0.0003675108 9.572562e-05 -0.0040699686 -0.0035746698 -0.004548509 -0.0002619136 -0.0023570526 0.0029273033 0.004085989 -0.0013842912 1.9679626e-05 -0.004198346 -0.0033069504 0.00043605463 -0.00018813493 -0.0018484903 -0.0013115013 -0.0005829822 0.0048380042 0.0029593266 0.0014567754 0.0045792046 -0.0043901224 -0.0006209318 3.991141e-05 0.0033091626 0.0027298948 -0.0004457416 -0.004061379 -0.0038363014 0.00055973185 0.003933976 -0.005067597 0.0039030365 0.0020134752 0.0007676124 0.0049410537 -0.0014152249 0.0022529855 -0.0030440947 0.003329057 0.0036414345 -0.0028108538 0.0050029294 0.0023668117 -0.0013817039 -0.0027868971 0.0026043104 0.0036294525 0.004473465 0.00036467353 0.0012519448 -0.0012938424 -0.0019531553 0.0012239139 0.0032062628 0.0008884253 -0.0024538753 -0.000574051 -0.0038072264 -0.0012614689 0.0041593728 -6.790437e-05 0.0016977884 -0.004014053 0.00083244673 -0.004522796 -0.0028755476 0.00014807525 -0.00039027308 -0.0015797107
play 0.0015881148 0.003537133 -0.0011791443 -0.00075044297 -0.0035128447 0.0013537526 -0.0015489135 -0.0016456521 0.0022819634 0.000741423 -0.0036659772 0.004367545 0.0025668717 0.0018710961 0.0018674359 -0.002438531 -0.0045608454 -0.00054254074 0.0027597595 0.001854067 0.0029625364 0.0025300004 -0.0010131376 -0.00067102304 -0.00032274978 0.0037640408 -6.0377646e-05 0.0012993324 -0.004541929 0.0025030982 0.004182991 -0.000103798964 0.002819343 -0.0025737067 -0.000116352036 -0.0039049985 -0.003448312 0.004086347 -0.0011942007 0.0033644899 -0.0018001184 0.0018351042 0.0032742247 0.003864271 0.0012050411 0.004048691 -0.0011341978 -0.0046289302 0.0008096333 0.0035699264 -0.0037296591 -0.0048931856 -0.0009768698 -0.0029283094 0.003468941 -0.0037089258 0.002604372 0.0007020253 -0.0043441122 -0.0018344158 0.0038936248 -0.001976747 -0.0014757816 -0.0028511113 -0.0009662698 -0.0045579304 0.00017458452 -0.0022067528 -0.0019608957 0.00065061747 -0.0030711142 -0.0019246219 0.00040585233 0.00092215615 -0.0020114058 -0.0041563776 -0.0010647759 -0.004748692 -0.00015930086 0.00037338882 -0.0054777334 -0.00014967022 -0.0012731827 0.004773402 0.004089179 0.0023935866 -0.0011598904 0.0035485965 -0.00251804 -0.0020243542 0.0018003909 0.0023773103 -0.00048490643 0.00213126 -0.0036117607 0.0044371486 -0.001504237 -0.0024101855 0.0023717934 -0.0018750838
bad 0.0023336653 -0.002483708 0.001642467 0.0016413706 0.0023133657 0.0029204756 0.0026476968 -0.0040678773 0.00013671379 -0.002435937 -0.00041509996 0.0036855675 0.0017151447 -0.0016254985 0.0027766635 -0.0001337053 -0.001081705 0.0014876453 0.0013041131 0.004097101 -0.001039489 -0.002907804 -0.0006502422 0.002746066 -0.0019837809 0.0008711786 -0.0036043732 0.0034146055 0.002819254 0.00362789 0.0027751543 0.0018101168 -0.0010953945 -0.0007314447 0.0030434146 0.00021539374 -0.0013721776 -0.0043551074 0.002654645 -0.001797692 0.00050457113 0.0034588787 0.0018592025 -0.0002197415 0.0037550975 -0.0039182664 0.0012388396 0.0013916972 -0.0039821044 0.0033228993 -0.0016767986 0.0003444181 0.001041917 0.0003390226 0.001321272 0.0054149106 -0.0006751796 -0.00298874 0.004730304 -0.0036562444 0.002277454 0.001591563 -0.0014439619 0.0007560029 0.0016290759 0.002851218 0.00022355227 0.00065982464 0.00464504 0.0013886997 -0.003495695 0.0035123588 -0.0042987885 -5.752865e-05 0.0047711963 -0.0051120147 -0.0013353836 -0.00012727384 0.0018638023 -0.00057852064 -0.0049941866 0.0048898533 -0.0036619122 0.0034600042 0.0039734873 -0.00021978826 -0.0011755562 0.004895091 0.00079490873 -0.00047891942 0.004047562 -0.0023533385 -0.0004791964 -5.552911e-05 0.0006271085 -0.002196389 0.0038949961 -0.0022272056 0.0030900189 -0.0009100245
scene 0.001466724 -0.0029293776 -0.00086322136 -0.0005819736 0.0020454822 0.0012109382 -8.14616e-05 0.0028943894 0.0011586112 -0.002848525 -0.001822705 -0.0044322936 0.0019884456 0.0016999433 -0.0018851721 -0.0011237453 -0.0035615936 -0.0023574752 -0.0013556427 -0.0006176901 0.0020532147 -0.00037581517 0.0021992698 -0.0014319392 -0.0034355544 -0.0023509944 0.0022171289 -0.0018451588 0.001395816 0.0011986812 0.0040515293 -0.0050332947 0.00011412171 -0.0021232623 -0.0033149547 0.00094691536 -0.0035053357 0.0038955086 -0.0008207335 -0.00045252923 0.0024488096 0.004322252 0.0010173493 0.004323443 0.0009505689 0.00041948707 -0.0014513155 0.003720347 -0.00064768037 -0.0009764296 0.002129243 0.0019482741 -0.0015976558 0.0016078177 -0.00038155183 0.0035844252 -0.0020955834 0.00039896913 -0.004513121 -0.0047852993 0.0034824314 0.0019789634 -0.00050451164 0.004558294 -0.00016141398 0.00082957133 -0.0014029525 0.0005741113 0.0010517327 -0.0020305004 0.0029662303 -0.0027676104 -0.003908544 0.0045334203 -0.004565831 -0.0036651704 -0.0032448592 -0.0016421032 -0.0028449132 -0.0013613772 -0.0046737464 0.0023963586 -0.0035206692 0.0011946601 -0.00321648 0.0043751746 0.0045510745 0.0025021648 -0.0016650456 -0.0025471498 0.0006108696 -0.004397207 -0.004875512 -0.0003330683 -0.0037840877 0.004657831 -0.0005668123 0.0005707341 -0.0027815797 -0.0016386338
right 0.0029078424 -0.0041140327 0.00076730544 -0.0013529916 -0.0018885385 0.0008224325 0.00011565486 -0.0001412605 -0.00010493159 0.001322369 0.0005260611 -0.003355128 0.0012175606 -0.0034032252 0.004094706 -0.004618527 0.0022807275 0.004693384 0.003722575 0.0028110335 -0.0024571512 -9.8632736e-05 -0.0038314029 -0.002710051 0.0029086436 0.00505213 0.0033648903 -0.0036993313 0.004760233 -0.0036097753 -0.0039787 -0.001942567 -0.00092258654 -0.0040902477 0.004440135 -0.0032717572 0.004903351 -0.0011200219 0.0041890894 0.0028552965 0.004754049 -0.0008838552 -0.003057154 -0.0041116215 -0.005075895 -0.0035602234 -0.003433617 -0.004824602 0.00013634887 0.0021439134 -0.0030409002 0.0044615665 -0.0030769135 -0.00042640697 0.0025970766 0.0025739814 0.0016196679 -0.0020368348 -0.0040476476 -0.0028586609 0.0022342163 -0.00023449755 -0.0006644831 0.0024645375 0.004938601 -0.0029158762 0.00016249336 -0.002120361 -0.00491964 0.0023027835 -0.004352372 0.001769193 -0.0037141705 0.0020320015 -0.0024376858 -0.0029452974 0.0011287263 -0.003364596 0.00052808307 0.0038711508 -0.00051409117 -0.003749819 0.0013904128 0.0021581482 0.003791817 0.0031355093 0.0009598399 -0.0016925335 0.0021672253 -6.065637e-06 -0.0006314448 -0.0019372198 -0.003820817 -0.0007614242 0.0035696751 0.0042564897 0.0008245346 -0.0028331461 -0.002132162 -0.0047920127
thing -0.0039692717 0.003630057 -0.0024807276 -0.0036767602 0.004862036 0.0022064194 -0.00049676857 -0.0023529923 0.0038556936 0.0035576648 -0.0020750333 0.0045153294 0.0010809071 -0.000956005 -0.004702134 0.0015657188 -0.004475662 -0.0038195292 -0.00068527303 -0.0036343762 -0.0034528659 0.0017939832 -0.004215126 0.0020214592 -0.0043415492 -0.0017252652 -0.002388552 0.0009610682 -0.004641782 0.0014747808 -0.003485947 -0.003913335 0.0013440569 0.004999543 -0.0023140432 0.0038867202 0.0009922425 0.004138445 -0.0011246055 0.00011302367 0.0012817571 0.0028498506 0.0026678292 -0.0019241384 -0.0045746095 -0.0016666328 -0.0005865004 0.0026478893 -0.0006022094 0.0017340996 -0.00092405966 -0.0039315163 -0.000348029 -0.0011454717 0.0027491136 0.0025764636 0.0021795982 -0.0047033634 -0.0035288585 -0.0016946227 0.00202071 -0.0022075467 -0.0012135184 0.0045321607 0.0033684839 -0.0040499414 0.003498324 -0.0026812085 -0.0028556495 -0.004396759 0.0038421731 0.0034084674 -0.0034299048 -0.0034724714 0.003996316 0.0036193314 0.00031120342 0.0011843203 0.002735166 -0.0019634017 -0.004423435 -0.0015844363 -0.0014132658 -0.0020061866 -0.0050843884 -0.0049368474 0.0031330949 -0.0016582649 0.0030014056 0.0026122557 0.00087561883 0.00047475687 0.004417704 -0.004610645 0.0013372422 -0.00016139034 0.0030630324 -0.0034939903 -0.0006367806 0.00070621003
say -0.0010793946 -0.0010290232 -0.0026803855 0.0033560044 -0.0018235294 0.0033557902 0.0030300284 -0.0032873384 -0.0018738837 -0.0026874393 -0.00096906215 -0.0020051533 0.0010426982 0.0049777846 -0.002801756 -0.0017896364 -0.0043040966 -0.0009731307 -0.0011239843 0.00032341003 0.0027378397 9.572408e-05 0.0041356115 -0.003277168 0.0032535645 0.0048481636 0.0042452747 -0.0039577065 0.0005544435 -0.0025838325 0.0007237919 -0.0021155265 -0.0045243967 0.0019078797 0.00068296393 0.00053944736 -0.0008783661 0.0004502119 -0.0027132484 0.0029947872 0.00061110844 -0.002363322 -0.0028720973 0.0021349096 -0.0007851556 -0.0015448125 0.0031798955 0.0035925496 0.0022616086 0.005166557 0.0010773654 -0.0016972783 -0.0023249057 0.0022460371 0.00014962487 -0.0021288455 -0.004793191 -0.0027060783 0.002288168 0.005013498 -0.0040500676 0.0042868974 -0.0038159501 0.004997871 0.004178671 0.003747403 0.0033785712 0.0014141294 -0.00050755293 0.0019121425 -0.0022402352 0.0018777471 -6.8878653e-06 -0.0007217702 -0.0030994962 -0.0031442826 -0.0044017173 -0.0011873401 0.0029669236 -0.00020486266 -0.0038476973 0.0005936567 -0.0018423725 -0.0013863303 -0.0018483268 -0.004775427 -0.0026071738 0.00035365354 0.0016504799 -0.0044041863 -0.0014124402 -0.0031068136 0.0049499506 0.0039111334 -0.00076188555 0.0013318545 -0.0019702178 0.003333412 -0.0011030299 -0.00060679537
than 0.00040156208 0.004521892 -0.0016365268 -0.00375687 0.00044006825 0.0044525797 -0.004347981 -0.0007094584 -0.0002170049 -0.0044859634 -0.0045737787 0.0046457606 0.0051321634 0.0034455268 0.004865043 -0.0013974422 0.0041229567 0.00069968303 -0.0003244128 -0.0030926508 -0.002460205 -0.0013462644 -0.0040659094 0.0015014925 0.003131434 -0.004510432 -0.0049352907 -0.0003776979 -0.0028904434 -0.0015483194 5.7624206e-05 0.00063700735 0.0043131933 -0.0014379645 0.0022814914 0.0040596714 0.0033605525 -0.0014537014 0.0025506138 -0.0016737913 0.0030669342 -0.0006915949 -0.0025166553 -0.0016732966 -0.0043887426 0.0044247373 0.0016179722 -0.0019863334 0.0031605186 -0.00013454605 0.0024777064 0.0009921909 -0.0027215846 0.0047198776 -0.0035949335 0.0018298548 -0.0022657323 0.0019648364 -0.0033635176 0.0045195483 0.0028078798 -0.002437324 0.00039464002 -0.003715142 0.0049300804 -0.0009808335 0.0014885117 0.002458791 -0.0034181732 0.0028683017 -0.00239658 -0.0039357687 -0.00052562053 0.0039513856 0.0029273417 0.0045634084 0.001967957 -0.003353787 -0.0005226723 0.00014830993 0.0017227313 0.0027830796 0.0043290015 0.0040868707 -0.0019757284 -0.0044568223 0.0012109949 0.0038782326 -0.0026874444 0.0025193638 0.002800155 -0.0005423529 0.0041161887 -0.0043073115 0.000986488 0.0028981057 -0.00090212043 -0.003546867 0.0045788446 -0.0007975863
time -0.0002704805 0.00020643882 -0.0026175887 -0.002009349 -0.002311263 0.0028362551 0.005152658 9.465726e-05 -0.0012994689 -0.0028248443 0.0032746498 0.004309928 -0.0022239343 0.0037051376 -0.0013130615 0.0029297227 -0.001429253 0.0041371877 -0.002486281 -0.00064221036 -0.0026106758 -0.0007403943 0.0029281655 0.0020090928 0.0006484438 0.0041378825 0.00045980496 -0.0034907444 0.0028190534 0.00038313514 0.0016408635 0.0043815062 -0.0012133367 0.001592234 0.0011243091 0.0021180806 -0.00013201375 0.0010385213 0.0049057864 -0.004551139 -0.0048058606 -0.0011163518 -0.0037808036 0.0047761174 -0.0042415466 -0.0005812498 -0.00467971 -0.0026112946 -0.0027991352 0.005423591 0.0011500772 0.0036234497 -0.0016767978 0.0017019432 -0.0039139213 -0.0039615715 0.00076169625 -0.004310907 -0.0003866981 -0.000877759 -0.001189702 -0.0013318845 0.004083676 -0.0009896073 -0.001116266 0.0038638026 -0.0011043202 -0.0033305725 0.0045534223 -0.0045399736 0.0040885615 0.004229319 0.00040637658 0.0012456847 0.0044067367 0.0015176377 0.0015912637 0.0031531644 -0.002496399 -0.0022609818 -0.0037219147 0.0050574047 0.0017509585 -0.0024009156 0.00093860546 0.0019054781 0.0019053698 -0.0027271758 0.0024382065 0.0017055997 -5.3492106e-05 -0.0018006724 0.000143055 0.0022047614 0.0024579202 -0.0034820046 -0.0041618906 0.0042206426 -0.0012307817 -0.0021191658
character -0.003988565 0.002318578 0.0032302914 0.0011070407 -0.003981175 -0.0008681632 0.0050104964 -0.003666897 0.0023926513 0.0046380963 0.0045505646 -0.0015836884 -0.0020488692 0.0027172402 0.0036788175 0.0025824725 -0.0034080355 0.0017716851 0.0034507825 0.0050924006 0.0012863614 0.005070745 -0.0027717242 0.002469182 -0.004317623 -0.0037684545 0.0030541169 -0.00138567 0.0042298427 0.0037105787 -0.0036907857 0.0041746646 0.00052443024 -0.00029550554 -0.004078275 -0.0033511657 -0.001849026 0.003656954 0.00030886853 -0.004410516 -0.004416263 0.0017809685 -0.00073342666 0.004950943 0.00010253698 0.0039502955 0.0036625292 -0.0014740147 -0.003804368 -0.00013291741 0.004062772 -4.221281e-05 0.004786326 0.003439003 0.0035107075 0.003682797 -0.0021870513 -0.0013369244 0.0005124064 0.00092192227 0.0020445976 -0.0028483565 0.0048248344 0.0033433335 -0.0005286094 -0.0023363705 0.0018688379 0.000769581 -0.004402505 -0.0016269742 -0.003217616 -0.0051309895 0.00053252507 -0.0044024577 -0.0013841485 -0.0019603355 -0.00456354 -0.0043334533 3.891836e-05 0.00477043 -0.0036173407 -0.0036121178 -0.0029033693 0.005286418 -0.0016328548 -0.0038346797 -0.003838549 0.0021602006 0.0029817198 0.0021461206 0.00081103324 -0.0013891828 0.004326907 -0.00078855123 -0.0036283943 0.0029331672 -0.00082579145 -0.0018944852 -0.00024182413 -0.0018943361
pretty 0.0013784692 0.0013903159 -0.0007675716 0.00031003778 0.0023866638 -0.0007401867 2.7260077e-05 0.0038578222 -0.002862021 0.001157162 -0.00066109124 0.0010372344 -0.0022465584 -0.004523844 0.002779824 0.0020197085 -0.003077148 0.0015177919 -0.0042071636 -0.0032932304 -0.0026055416 -0.0024913226 -0.0005975768 0.00053932134 -0.0014160397 0.003463949 -0.003388422 0.0013346906 1.6388733e-05 0.0040173205 0.0002690027 0.0037148609 -0.00045822692 0.0036620921 0.0026455438 -0.0038916387 -1.0588696e-05 0.0028000423 0.0038027265 -0.004242379 0.00037480483 -0.0033181168 -0.0051231952 0.001752483 0.003257567 -0.003461674 -0.0042932876 0.0020631473 0.0023862992 0.004913908 0.0047447337 2.2953598e-05 0.0007939672 0.0043336456 -0.0047432967 -0.0003040898 0.0009225032 0.0026823855 0.0020180624 -0.0003129264 -0.00049127947 -0.004701963 0.0008553011 -0.0041411193 0.0025658272 0.005269543 0.0031749024 -0.0042803064 0.0012903379 0.0024772063 0.0039005822 -1.776698e-05 0.003469237 0.0031283644 0.00079703674 -0.004801847 0.0028772978 0.004909649 0.0029363427 0.0046688267 -0.00471514 0.0018540107 -0.0030143138 0.004661654 -0.0009631103 0.0037838137 -0.002613687 0.003963164 -0.0017045574 0.0011717147 -0.00509984 -0.0034214214 0.00089627394 0.0011179368 0.0014322136 0.00064051023 -0.0046528094 -0.004073388 -0.0025557093 -0.0013341843
well -0.0038369321 0.0018539281 -0.004102211 0.002690653 -0.0016823959 0.00095716986 -0.001975746 0.005302619 -0.0050868765 5.9353693e-05 -0.00047057812 -0.0042987643 -0.001430207 0.0020766705 0.0033956515 -0.0031742158 0.0043921806 -0.00040360817 -0.004030349 -0.0009568396 -0.001859775 -0.00241773 0.004181562 0.0006312211 0.0026772474 -0.0024603815 -0.003556956 -0.003751672 0.0034350771 -0.0040000463 0.0006289288 0.004690126 0.0010823726 0.003031889 0.0037919802 -0.0026302338 -0.0016393329 0.0006204407 0.003795717 0.0002849034 -0.0031052032 0.0010792306 -7.8399324e-05 -0.0028885426 0.0024237158 0.0034784477 0.0030812328 -0.002826986 0.0038552012 -0.0027535069 -0.0044075856 0.0040313816 0.0042553404 3.2779265e-06 0.003169616 0.0037334752 0.0013610104 0.002287403 0.0032601114 0.0005727465 -0.0038176535 -0.0028365694 -0.0041723074 -0.0016311815 -0.0027764803 0.0030545925 0.00465337 -0.0021588297 -0.0029407414 -0.0020747122 -0.00494446 0.0019955027 0.0045057433 0.0028537617 -0.0039664325 -0.0023572892 0.0011817834 -0.00039090257 0.0042138733 0.0002625177 -0.003564826 0.0037744017 -0.0036808 -0.0042751133 0.003868335 -0.0027612878 -0.0032116596 0.003166392 -0.0008699133 0.0014231567 -0.0010625947 -0.0047324332 -0.00078202155 -0.0018306616 0.0032763067 0.00069093646 -0.0025568972 -0.0033058277 0.0024770917 -0.004536603
can -0.0032570271 -0.0038353193 -0.0053672423 0.0013611547 0.004147442 0.0027402104 0.000118996984 0.0032375904 -0.0004631441 -0.0017697327 0.0018063413 0.002392511 0.002507898 0.0014862901 -0.001408048 -0.0022143414 -0.003572057 -0.0016343072 -0.0043237098 -0.0017202977 0.0016881068 -0.002083935 -0.004350522 -0.0035552038 -0.0016821037 -0.00325533 0.0012769618 -0.0031056576 0.0018407577 0.0015558761 0.0011668364 -0.00043994826 -0.004945162 0.0026013514 0.0046248413 0.0012423407 0.0034230077 0.00078827527 -0.0049364455 -0.003260144 0.0023714574 0.0014114998 0.0004691145 -0.0019879432 0.0031146135 0.0051310286 -0.0010031586 -0.0031197248 -0.00430347 -0.0021119197 0.0037882784 -0.0038377228 -0.0007025704 -0.0030092883 -0.0030575916 0.0052140364 -0.004902306 0.0014912151 -0.0017066202 -0.0008589959 -0.0016655375 -0.0051666377 0.002508344 0.0002942977 0.0038727687 -0.0030475974 0.004392176 0.00031484055 -0.0027803099 0.0028459537 0.0047098882 -0.0026584421 0.0013460949 -0.0025575408 -0.0043957806 -0.00018639922 -0.004719053 0.003729434 -0.002598975 0.0025561005 -0.0007128264 0.00068269105 -0.00019320942 1.41710825e-05 -0.003256095 -0.002106341 0.0023958222 0.0034349137 -0.0035339012 0.0022788835 0.00040693162 0.00040205778 -0.004140243 -0.004400013 0.0019099086 0.0009125512 0.0039351285 -0.002552233 0.0013136169 -0.0032568523
big -0.00044635579 -0.004463215 -0.005272463 0.0002558923 0.003808338 0.0010276032 0.0017605745 -0.0036909827 0.0021142205 -0.0010647833 -0.0020011838 0.0025005222 -0.0024358945 0.0042194966 -0.0034539488 -0.004420909 -0.0031421944 0.0037526214 -0.0044701 0.0027229353 -0.0044540386 0.0014141768 0.0006561124 -0.0037931232 0.0039010525 -0.002081112 -0.0021008253 -0.0010084417 -0.0013147924 0.0043506743 -0.004283891 0.0047987886 -0.00082559744 0.0009896616 -0.0041592484 -0.0034757056 0.0049656997 0.0049828393 0.003286307 0.0026124308 0.0006026521 0.0004543579 0.0034164954 0.004886337 -0.0011025106 -0.0036387315 -0.0004656542 0.0016940131 -0.0015895896 -0.00021294995 0.0038827516 0.0022972203 -0.00094128394 0.003237707 -0.001317584 0.00033239924 -0.0011750265 -0.0006763494 -0.0015901142 0.00064994604 -0.0040773135 -0.001701061 6.768836e-05 -0.0021520609 0.000150931 0.005391624 0.0043632337 -0.0035981976 -0.001970928 -0.00029371708 -0.0019490094 0.00061920873 0.0011568409 -0.0038433564 -0.0005893661 -0.00212278 0.0020519244 0.003019692 0.003570863 0.0024241547 -0.0026298945 0.0028405068 -0.0050310637 0.0011983698 -0.0034114276 -0.0047779684 0.0024764384 -0.0028106628 0.00097147265 0.0013783983 0.0044536605 0.0037868351 -0.002396367 -0.0005284181 -0.0046998016 0.0008320031 -0.002288571 -0.003977525 0.0013074295 -0.0028035815
good 0.00225692 9.659935e-05 -0.0039014642 -0.0049772784 0.00023551582 0.0016644809 0.0021819375 0.003475788 -0.0046425876 0.0047597606 0.004170092 -0.0011456707 -0.00075345504 0.0038535711 0.004480273 0.00063335005 0.0009471124 0.003725281 -0.0038549455 -0.0043506767 -0.004204256 0.003131718 -0.0024898958 -9.050935e-05 -0.004150909 0.0019017633 0.0020664597 -0.003257647 -0.003089724 -0.0033744317 -0.0011705665 0.0019371687 0.0011237108 -0.004633134 0.003219645 -0.0043318965 -0.003948476 -0.0026363195 0.0007608601 0.004307424 -0.0034044336 0.0042811655 -0.003570882 -0.0022361607 -0.004463799 -0.0034084313 -0.0014905541 -0.0044258493 0.000619299 0.004947266 -0.0029468425 0.0019445858 -0.0037261671 -0.004227687 0.003471298 0.0008603404 -0.003967265 0.0032350828 0.0033849631 0.0016332035 0.0007820313 -0.00012960476 0.0021038502 0.002197143 0.0045702956 0.0031043645 0.0044363253 0.0027951584 0.0038235425 -0.00028823104 0.004753241 0.0035430228 -0.00034196582 0.0017471181 -0.004629618 0.0026923143 -0.0024701944 -0.003747456 0.0030517248 0.0010182582 -0.0050013945 -0.0042262147 0.0014398939 0.0024704395 0.001551345 0.0007038824 0.0003332982 -0.004031519 -0.0033452944 -0.0002533682 -0.0046206745 -0.00092524564 0.0028758547 -0.0014433734 0.0021258562 -0.0032306572 0.0025236434 -0.0032662759 0.00023413853 -0.0028434766
oz 0.0016365506 0.002714299 0.0032081425 0.004142292 0.002963657 -0.0046457895 0.0009394701 0.002516885 0.0039038816 0.0007034376 0.003916453 0.00018491561 0.0024949678 -0.00096093543 4.2859192e-05 0.0010158177 -0.0034446914 -0.0023039624 0.0002346523 0.0013592478 -0.0017230731 -0.0032573096 0.0042379196 0.00044360728 2.9396722e-05 0.004306047 0.00060829433 0.0031306383 -0.0020696854 -0.0012783475 -0.0031548734 0.0011311123 0.0009481558 0.001115137 -0.002538313 -0.0043088924 -0.0034486745 0.0025682955 0.003542874 0.0051118685 -0.0024639294 0.00082546234 -0.0052436003 -0.00038059143 0.0022936205 0.0028559158 -0.004420648 0.0042352667 0.0005075708 0.0053023784 0.0018963689 0.001952564 0.0016858445 -0.00047264004 -0.0049028494 -8.8379886e-05 -0.0016460352 -0.0021634628 -2.7690332e-05 -0.00026156023 -3.1833726e-05 0.002911599 0.0023278613 -0.0027501013 -0.0017056888 0.0045104194 -0.0023446404 -0.001784377 -0.0027772891 -0.003349614 0.0006976444 0.0037452714 0.0024747683 0.00031312287 -0.0041288272 0.0028500909 0.00048175958 -0.003575174 0.0036406978 -0.001250622 -0.004195611 0.0032419767 -0.0037306983 0.00066182174 0.0015096592 0.0012149606 -0.0013014876 0.0046118246 -0.0004939054 -0.0026337507 0.0005189888 -0.005346577 0.0014519094 0.0041438574 0.0030857837 -0.0028367385 0.00054406637 -0.00083964196 0.0012195406 1.143329e-05
give 0.004592533 0.0010250515 -0.00149166 0.0029512532 0.002328315 0.0014060236 0.0038694271 -0.0032182583 -0.0010979463 -0.0007479441 -0.0015747017 0.00027192108 -0.0036162382 -0.0018919451 -0.00085143204 -0.0005010166 -0.003108528 0.0017320713 -0.0003667142 -0.003119505 -0.0019838538 -0.0031362793 0.00010887922 0.004090211 0.001820592 0.00035729905 -0.0012871441 -0.0042626206 0.00038311048 0.0011406821 -0.0034512382 0.0015655783 -0.0042119436 -0.0027801655 0.0013913256 0.0048349556 -0.0006092723 -0.004530474 0.0009300427 -0.0027146954 -0.0048389435 0.0041532894 0.0015522051 0.0028156561 -0.0010149624 -0.0007819859 -0.0022020768 -0.0032291037 0.0014472839 -0.004536948 0.0031777592 -0.00462507 0.004975068 -0.00095979345 -0.0050404035 0.00015156787 0.0012902634 0.0026515345 -0.00029603683 0.0012677414 0.00095360604 0.0046008923 -0.00013646267 0.0055555142 -0.0006562495 -0.004170515 -3.6172292e-05 0.0016554607 0.0004443637 0.00025097042 0.001548425 0.00065698405 -0.0013349225 0.0031039421 -0.004649025 -0.0010984583 -0.002593148 0.004206744 -0.0018804194 -0.003701869 0.0041930163 0.002288947 0.0036576588 0.0029622514 -0.004031928 -0.0044500474 0.0023293053 -0.0019939314 0.0018000256 -0.0025280202 2.5704265e-05 0.001807734 0.00010084159 -0.0024044542 -0.0009609909 0.004227628 0.001957886 0.004118166 0.003961826 -0.0032189486
never -0.0017157373 0.0006911298 -0.003916446 0.0040343576 -0.0023226694 0.0021340633 0.00035460576 -0.0021215589 -0.0020717487 0.0012429341 -0.004714178 0.004159704 0.0029982373 -0.0044292747 0.0031962362 0.005212347 0.0038688586 0.0042365505 0.0015933113 -0.0009335609 7.5055714e-06 0.0020065557 0.0036142762 -0.0049819667 -0.0035425127 -0.0010222101 0.002685538 0.0042810817 -0.002017245 0.0006829029 0.004503744 -0.0011962461 0.0030014392 0.002116456 -0.0043830774 0.0013750981 0.0036482709 -0.0033643816 0.0028768217 0.0045347516 0.00034750553 0.001567273 -0.0033165812 0.004652638 -0.0020154149 -0.0019682695 0.0015655134 -0.0029635124 -0.00343595 -0.0034256054 0.004228545 0.0020411168 0.0028273913 -0.00084335124 -0.0039539053 -0.0008037577 -0.0021013608 0.0043475577 -0.0049434183 0.0018083104 0.0030500258 -0.0033390769 0.005287146 0.0052777072 -0.000956433 0.004448902 -0.0016354357 0.0038899991 -8.7607645e-05 0.0013429767 -0.0043000784 0.0049835574 -0.0037322373 -0.0005237428 -0.0040553883 0.0012734942 -0.002131834 -0.003980046 -0.0030617411 0.0045737755 0.0013440254 0.0016178974 -0.0025865945 0.0011101535 0.004124498 0.0047233733 -0.00015264036 -0.0036100384 -0.003838401 0.0012806228 0.001299955 0.002910657 -0.0045849252 0.0011936444 0.0018546742 -0.0032975238 -0.0028330048 -0.0005057954 -0.0017684486 -0.0002838337
think -0.0030851867 -0.0018448512 -0.0032698393 -0.004626229 -0.002384253 0.004952938 -0.0003361625 0.0041132 0.0013732339 -0.0018858294 0.0017723498 -0.0007309337 -0.0011401251 -0.0015171939 0.0033109381 0.0051700715 0.0012525059 -0.0026731815 0.00091515615 0.001792025 -0.0002989619 0.0033343711 -0.005351676 -0.0033555573 0.0032146424 0.002551971 -0.004119361 -0.0013973479 0.0021769654 0.0008411291 -0.0009803285 0.003491533 -0.0013666218 0.003719424 -0.004897847 0.0017225929 -0.003268654 0.0030245476 -0.0008189576 0.002589457 0.0014032415 0.004276373 -0.0043593296 0.0040816623 -0.0029267417 -0.0032000719 -0.0034406725 0.00078481605 -0.0003307446 0.0018762755 -0.0049167955 0.002221276 0.0029094259 -0.0006832596 0.0008583354 0.0038493038 -0.00088447885 0.0031266138 0.0014143919 0.0020460498 -0.0024152307 0.0011916817 -0.003034231 -0.0032016197 -0.0017404669 -0.0036916905 -0.002476088 -0.0015673379 0.0033474518 -0.0032539978 -0.000105604166 0.002549313 0.00409279 -0.00063092046 0.0012364971 -0.0034246414 -0.0020732358 -0.0045912666 0.0008860432 0.0003087338 0.002664724 0.00038973335 -0.0022257296 0.0045241658 -0.0033657225 -0.0018056468 0.0036641406 -0.00013857901 -0.0032451274 -0.0035281267 -0.00061576144 -0.0025297792 0.0026350608 0.0030568389 -0.004357521 0.0033647253 0.00045266858 -0.002832617 0.00017436736 -0.0017163049
way -1.0293809e-05 -0.0037228698 -0.0015606058 0.0018953126 -0.00037885635 -0.004678446 0.001021744 0.0022085402 -0.00024807602 -0.003472808 0.0030670182 -0.0017660125 0.00026886238 0.0036178536 -0.00011661059 -0.0026659337 0.0020562406 0.0011773328 -0.0015807701 0.0022130876 -0.0008880461 0.0026590088 -0.0047829235 -0.00022524614 0.0016590382 0.0045906 0.0029989772 0.003858789 0.0049351547 -0.00031985363 -0.0008039583 0.0008964407 -0.0013823926 -3.287439e-05 -0.005206572 0.001245843 -0.0015626409 0.004296854 -0.0005354182 -0.00022292035 -4.4866603e-05 -0.0027756155 -0.0043455013 0.0030650268 -0.0041999947 0.00053493545 -0.004970282 -0.004307281 -0.0023711906 0.00062029844 -0.0038363005 0.0027931803 0.0020475802 -0.004509321 0.0035807288 0.005077125 -0.0048250775 0.00089020573 -0.0009084903 -0.001160892 -0.0038185064 -0.00039521581 0.0015442886 -0.0030189124 -0.002454203 -0.0019301566 -0.00056987023 -0.0031381182 -0.00011804022 -0.0025919508 0.0047795707 -0.0014344368 -0.004493218 0.0041545 0.0019698455 0.0016490321 0.0044814213 -0.0044032987 0.002435125 -0.002064766 -0.0017767259 -0.00041966356 0.004037647 -0.0005388702 0.002979628 -0.005094037 0.0011481605 -0.0046507297 -0.0025752713 -0.0022406615 0.0024689178 -0.0018160112 0.004003981 -0.00091443287 0.0016029567 0.003360374 0.0006134181 0.0037472828 0.004538607 0.000101800135
air -0.0029555177 0.0047796736 -0.00013060718 -0.0017488794 0.0040955264 0.005101016 -0.0012556755 0.0006399147 0.0024590106 0.0017078617 -0.004833168 0.0046249493 0.0050679483 0.0005631503 0.0019362224 -0.002590957 0.004259463 -0.00045691052 0.00017046744 -0.0012385349 0.0046085776 -0.0032450564 -0.0036159293 -0.0026164323 0.0044190534 0.0041085277 0.004139027 0.0032361443 -0.00080360327 0.004011298 3.7359194e-05 -0.003594438 0.0041115214 0.0010819542 -0.0051348177 -0.0026010526 -0.0042555663 -0.0020234655 -0.00036472984 0.0046035433 0.0041496498 0.0026449806 -0.0040174127 -0.0044882013 0.0036674335 0.004088523 -0.0026128914 -0.00046563282 0.0019410661 -0.0030005465 0.0027922767 -0.003805919 0.0036535554 0.0047919103 0.004384451 0.005013647 0.00011537615 -0.0040999674 -0.0035784943 -0.0008635763 0.0019890848 0.0006316719 0.0023779958 -0.00042143784 5.408974e-05 -0.0034435792 0.0046166107 0.00096889434 0.0048435563 -0.004954715 0.004115606 -0.0028416642 0.004004317 0.0035920949 0.0009024228 0.0021565931 0.0003248385 -0.004181986 -0.0041305223 -0.0044967784 0.00053472276 -0.0042806654 0.0036999006 0.0022095935 0.0019695833 -0.0042019617 0.0010008841 -0.003617112 -0.0019469622 -0.0029895746 0.0024065643 -0.0044192136 0.0005465653 0.0018393061 0.00034138488 0.0043106796 -0.001887322 0.0010487372 0.003251446 -0.00030969374
even -0.00047445612 -0.0034769855 0.0030637553 0.0028340276 -0.004552879 -0.0043793083 0.0043856837 -0.0032052759 -0.0014242667 0.00043258004 0.0038185723 -0.005059618 -0.0012771824 0.00233531 0.00025043535 0.0019185009 0.004204244 0.0042492435 0.0025103902 0.0012678087 -0.004701896 -0.00029443915 0.001739354 0.00046687122 -0.0049060113 -0.0014673757 -0.002723695 0.002580326 -0.0020504429 0.0017258421 -0.003827408 0.003754184 -0.0032381683 -0.0018666037 0.0024831814 0.00023274276 -0.0034812016 -0.0038054355 -0.0016104899 -0.0004897997 0.0045303423 -0.0042415955 0.004004989 0.0010907303 0.002093419 -0.0026952827 -0.00097021816 7.980196e-05 0.0020150763 -0.0030567772 -0.0022909218 -0.0030635064 -0.0011916822 -0.0018106041 -0.00038689232 -0.0022853687 0.0025503086 0.0027803392 0.0043826033 0.0010312638 0.0019157422 -0.004725419 0.0023072585 0.00090608414 0.00037713326 -0.0006331882 0.0033663034 -0.003496392 -0.0019811506 0.0032037036 -0.002913729 -0.0034439254 -0.0021974584 0.0012151555 -0.0011686661 0.002087593 -0.0014236805 0.0012845601 -0.0017636039 -0.0005574067 0.0024459301 0.0011215045 0.0019038635 -0.00417323 0.0037463473 -0.0028221323 -0.0005635082 0.0021392202 -0.00022503315 -0.001175517 -0.0002529082 0.0029614647 -0.0014848864 -0.0053734677 0.0010164592 -0.00039693326 0.003190112 -0.0029363877 0.0035344963 -0.0041617556
year 0.0038274836 -0.002648047 -0.0017979405 0.0020961722 0.0036455332 -0.0032424745 -0.003742646 0.004202029 0.003919445 0.00068952603 0.0035972067 -2.552988e-05 -0.004640586 -0.0035057906 -0.0003739776 0.00089652254 0.00020091538 0.004822138 -6.417144e-05 -0.0041906876 -0.004864766 -0.0038853385 -0.0038663088 -0.0027197162 0.0005897016 -0.0035171073 -0.0030376255 0.00059487566 -0.001024951 -0.0038300448 -0.0033764488 -0.0036490904 -0.0043657273 -0.0044222525 -0.004865911 0.0019287847 -0.004806159 0.002065099 0.0029856672 0.002986948 -0.0035669734 0.00396249 -0.0006898092 -0.0043096384 0.0014533203 0.0006614072 -0.0006804401 -0.0039029191 -0.000954239 0.005233384 0.004975693 -0.0017867365 -0.002136423 -0.0010899268 -0.001908212 0.005046217 -0.0021444736 -0.004425253 -0.004446564 -0.0017086046 0.0026673416 0.0015510017 -0.00025968344 0.00081726356 -0.0008571437 0.0036538183 0.0013967598 7.181018e-05 0.0018851003 -0.0006368017 0.00279136 0.0013935652 0.002603651 0.0046951436 -1.102225e-05 -0.0006427779 -0.004191288 0.00384179 -0.0011079103 0.0042324667 -0.0013514257 0.005471604 0.003087421 0.005390445 -0.00010406791 0.0044742106 -0.0011044897 0.0032449006 0.0017426874 -0.0046759136 -0.00092258863 -0.0004660372 0.003282113 -0.0045211962 -0.0002144796 0.0007426511 0.00030434303 0.00082894496 -0.0036116715 -0.0017440082
love 0.0021802492 0.0032576066 -0.005105436 -0.0030956087 0.0009858015 -0.0040182644 0.0032811111 0.0040023117 -0.0029472318 0.0037538803 0.0028158762 -0.005137274 0.0050767604 0.0030258505 -0.0038829441 -0.0014508383 0.004418554 0.002619758 0.0019985822 0.0028420412 0.004672825 -0.002802692 -0.0048401146 0.003306209 0.0029041031 -0.00021345104 -0.0050673555 -0.0020468242 -0.0010041054 0.004992749 -0.0032542248 0.0017384524 -0.0045827613 -0.0041099875 -0.00018011278 -0.00059085956 0.0019237122 0.0042321505 0.00027130646 -0.0017870559 -0.0023996998 0.0028718614 -0.0055578738 -0.002113847 0.0034730965 0.00095821783 0.0018307517 0.0019237464 0.0023806752 0.0009131646 0.0021368759 0.003549089 -0.0018334017 0.0021392838 -5.8504e-06 0.0011353213 0.0019579271 0.00081545947 -0.0042626783 0.0021809128 0.000688087 -0.0024732614 0.004392471 -0.0036884756 0.0022327006 0.00399981 0.0034232852 -0.0022491994 0.003270607 -0.0029347907 0.004217205 0.00032767566 0.0032498369 0.0017092604 0.0048527876 -0.0029553995 0.0049559767 -0.0029968042 -0.0048575224 -0.0023267805 -0.003785442 0.0008714946 -0.00030404856 -0.002862262 6.0356604e-05 0.004239326 0.0006263959 0.0042691734 0.002505219 0.0010665649 0.0016794944 -0.00030377007 -0.002675345 0.004240617 0.0007415918 0.0017377208 -0.0017418577 -0.0025473556 0.001354784 0.0025082717
mr -0.0017673495 0.0050623864 -0.0022883976 0.00035301546 -0.003488146 -0.0040962454 -0.0016143412 0.00455422 -0.004682174 0.001902189 0.003202837 -0.0014582347 -0.0036069269 -0.0047514816 -0.0044553415 0.00035514057 -0.0007676805 0.0005340716 -0.0032970766 -0.002272629 -0.0024253328 0.003193519 0.00047503572 0.0033547152 -0.0021292854 -0.00019096765 -0.0048008976 -0.0041340413 0.0001555394 0.00038750234 -0.0017205594 -0.0006293596 0.00037928828 -0.00386007 0.000678205 -0.00201743 -0.0028807963 0.0038749736 0.0011270451 0.00016376455 -0.00011571218 -0.0014241982 -0.00580236 0.004490247 0.0024286855 -0.0011128788 -0.002228206 -0.004037777 0.0022509163 -0.0031109855 0.0027209835 7.071628e-05 0.003093909 0.0024176994 -0.00058050116 0.00043801792 -0.0008723891 -0.0017247673 -0.0022140925 0.0040510464 0.0029490825 0.00012319828 -0.0044317995 0.0032023906 -0.0017644758 -0.0027228617 0.0024828503 -0.0025998505 -0.003747947 0.0016642031 -0.0044700718 -0.000655318 -0.002485467 -0.0018099658 -0.0013569434 0.00040352994 0.002960986 -0.0035666965 -0.0008382818 0.003978286 -0.004434415 0.004506331 0.0004135344 -0.0022331788 0.0036890053 -0.00027793882 0.002895841 0.0020426256 0.0022025954 -0.0024963033 -0.0016741726 0.00038382495 0.0049640583 -6.49279e-06 0.0023242703 -0.0045708586 -0.002240539 0.0034697256 -0.0040886058 0.0049494556
people 0.0025360372 0.0034855388 -0.003962349 0.0042959377 0.003033438 0.0008270584 -0.00019562058 0.0016598075 -0.0024118596 -0.0029011255 0.003117746 -0.00050331024 -0.0028945017 -0.0009079614 0.0048006033 0.0019596263 -0.0047930656 0.0037427966 -0.0029264775 0.0020027119 0.002770006 -0.002384722 -0.000504357 -0.0025642642 -0.004387359 0.004159142 0.0010628608 0.003455776 0.003513054 0.0025786068 -0.0011818272 -0.00011964445 0.003066109 0.0015783904 -0.0016723535 -0.0018310279 7.59302e-06 -0.0045284163 0.0022630224 0.0042478754 -0.0028582232 0.0024626907 0.003354395 -0.0028180091 -0.0049084513 0.003933745 -0.005195745 -0.0044802977 0.00023674809 0.0024416177 -0.0050611594 0.0011175306 -0.0021022607 -0.0037601218 -0.004956613 -0.004487296 0.00040447107 0.0010573918 0.004043441 0.0028787183 0.00309589 -0.00040207824 0.0034779855 0.0031253751 -0.0002453005 -0.0008331898 -0.0018586019 0.0037106131 0.0040612128 0.0008594838 -0.00035143603 -0.0015530398 0.0043181772 0.0036007443 0.0035661655 0.003207743 -0.0039779567 -0.0018353813 0.0006256132 -0.0021359895 -0.0047051045 -0.0006827596 -0.0035954576 -0.002760385 0.004264561 0.0019294918 -0.0032825244 -0.0012855732 -0.0009916392 -0.004709758 -0.0032062852 0.002097766 0.0025991262 -0.004554871 0.0034570212 0.0026243436 -0.0010382802 0.00010272357 -0.0043136603 0.00035744673
another 0.0013865583 -0.0025062973 -0.0020942967 -0.00050581794 -0.0043653618 0.0017414761 -0.0005405627 -0.0019296192 -0.003624564 0.0028888453 0.0029525852 0.0022469466 0.0042558764 -0.0005492417 0.0013948581 0.0038184293 -0.0033416213 -0.004372628 0.0031648132 0.0050757094 0.0012740399 0.0012936491 -0.00068500487 -0.0021108203 0.0006147821 0.00022070625 -0.00036212063 -0.004840225 -0.0003920471 -0.0028141853 0.0044385954 0.0030408667 0.000620193 -0.00393427 0.0029174897 -0.0023187264 0.001994242 0.0031796906 -0.0027667573 0.0042362087 -0.0012836767 0.001692071 -0.0006589464 -0.003373113 0.0037454162 -8.8269415e-05 -0.001058875 -0.0031916576 -0.0021138287 0.0023508014 0.0017274014 -0.0037411207 0.000703571 0.00046831722 0.0026294605 0.003353749 -0.004549955 0.0025666007 0.0011042397 1.9505916e-05 -0.0046506636 0.0033498926 -0.0016379909 -0.0024223179 -0.0026013963 0.0026374771 -0.0013496317 -0.0013132149 -0.0015187819 -0.0044161924 0.00242176 -0.004065657 -0.0024553605 -0.00076726277 0.0014314859 6.901254e-05 -0.00037231075 0.0006212051 -0.0017332771 0.000716474 -0.0019789066 0.0030020038 -0.0046010814 0.0006071553 0.0024766189 -0.0029893096 0.0036664922 -0.0023927216 -0.000827799 1.4186081e-05 0.0005009169 -0.000821477 -0.0012245923 -0.0017099029 0.0011101462 -0.003495104 0.002384589 0.001063766 0.0025813354 0.0048664147
know 0.0029013634 0.00493847 -0.0010054215 0.001186741 -0.0022493736 -0.0023157722 -0.0012483166 -0.0009981464 0.0009068351 0.002046151 -0.0034449273 -0.0033080645 0.0044539017 -0.0015754504 -0.0013392497 0.004691012 -0.0048140087 -0.00058141 -0.0010787412 -3.1924494e-05 -0.0008865081 0.0016647049 0.0017439799 -0.00042002753 0.003014144 -0.0038235923 -0.0031056467 0.002048579 0.003971701 0.003117278 -0.00094917807 -0.0033014773 -0.00078973186 -0.0002921347 -0.00033960148 -0.001310043 -0.0037104518 0.0032540574 -0.001584047 0.005236072 -0.004962002 -0.002742799 -0.0027931198 -0.0027778682 -0.0006582877 -0.0010561942 0.0012003486 0.0025978656 -0.0023683386 -0.004154801 -0.0007292416 0.004837408 0.002729435 -0.0046009705 0.002670176 0.0045912815 -0.00019848725 0.004535849 -0.0043772906 -0.00040177666 0.0026150304 0.003972338 -0.0009943589 0.0045892694 -0.001405887 0.0049470915 -0.0020284392 -0.00022619813 0.0040528052 0.0024885274 0.0039732917 0.0031488729 -0.0040738825 -0.00157361 -0.0033359611 -0.0028224736 -0.0008929232 -0.0006712302 0.004930767 0.004272317 0.0026201971 -0.0035673305 0.0020427164 0.0021724035 -0.0024366644 0.0019494944 0.0049224356 0.0023526077 -0.0010645157 0.001386363 -0.004233786 0.0036097532 -0.00034847387 -0.0037489554 0.0006319163 -0.00023438598 0.0016966139 0.004709322 -0.0025122133 0.0022568202
find 0.0033057244 0.0038836303 -0.000120987104 0.0026459198 0.00010496079 0.0017898808 -0.003487706 -0.003479991 -1.7193295e-05 -0.0023303514 0.0027344024 -0.0018309307 0.0026961872 0.00048671386 -0.00095632614 0.0033201824 0.003002659 0.002427935 0.0023607858 0.002399975 -0.00042713134 0.0051547037 0.0031757555 -0.0001342929 0.001377947 -0.0008427543 -0.0034613672 -0.004798359 -0.0026830512 -0.0034204118 -0.0029962873 -0.004077776 -0.0024407094 0.0013677477 3.0860287e-05 0.0034750546 -0.002094239 -0.0020718279 -0.00058144896 0.00015387266 -0.0014951094 -0.00307913 -0.00332086 -0.0027671985 0.0006373929 0.004736489 -0.0026456274 0.0026342296 -0.0017671481 0.005517806 -0.0015224072 0.0023072553 -0.0035660674 0.0037229152 -0.0008991721 0.0052317837 0.0029576865 -0.0026268058 0.003046217 -0.002630184 0.0021890374 -0.0015090299 0.0023989412 0.0045148334 0.0052331034 0.0023387007 0.0024018453 -0.00013833134 0.0039987513 -0.00094988156 -0.002428847 0.0006755578 -0.003136456 -0.0034851735 0.004642031 0.0004954412 0.0006602009 0.0047936076 0.0036837321 0.001314792 -0.0035177213 -0.00045097573 0.00011990772 0.0036765025 -0.0017649282 -0.0009943777 -0.0011401466 -0.0032624241 -0.0035712668 0.0010587568 -0.004622111 -0.0022395425 0.0024709285 -0.0025915464 0.004868568 0.0035601102 -0.0014130182 0.001497498 -7.748034e-05 0.004255422
cast -0.004188113 -0.0044239457 -1.0256731e-05 0.0048358534 0.00445723 0.00061703636 3.89815e-05 -0.0005443255 -0.00460201 0.0033873494 0.0005519492 -0.0019910925 -0.0032711355 -0.004979394 0.0018144207 0.0004209675 -0.0017298498 0.004168299 0.0030616107 0.0005619589 0.0035422882 0.00032765052 0.0015232303 0.0020845057 0.0017188388 0.0004958398 -0.002012745 -0.00019302424 0.0034627027 0.003819899 -0.003145091 -0.0016641847 -0.0049522524 -0.0016578693 -0.00036273667 -0.0020290501 0.0025435158 0.0016893552 0.00081958406 0.0028119762 -0.001632632 -0.002731572 4.487547e-06 0.0011127334 -0.001987375 -0.004481674 0.0006437704 0.004230734 0.0032719627 0.0015498223 0.00059194426 -0.0032838485 -0.0035751539 0.0042014304 -0.0027583009 0.0044784145 -0.0011255908 -0.0033346114 -0.0043939557 -0.0006632587 -0.004457419 -0.0009958026 0.0033582111 0.0020192277 -0.001541732 0.00045106985 -0.0045087216 -0.0034726206 -0.0051240874 0.0021666475 0.0014597693 0.0012447879 0.0028645121 0.0020193593 -0.0021390675 0.0006443833 0.0047544087 -0.0017656 0.0016387161 0.0001957357 0.0035824836 -0.0017198196 0.0021863608 0.00066246797 0.0015746835 -0.0002557733 0.0006670361 -0.0046859034 -0.0025289282 0.003705286 -0.0029289166 0.0031009826 -0.004185936 -0.0027820405 0.0034333742 -0.0025965017 0.0021711427 -0.0024357801 0.00012501626 -0.0028465427
old 0.0029091784 3.6108067e-06 -0.0041956943 0.0018438731 -0.002920384 0.0007106284 0.0007762655 -0.004014305 -0.0042972565 0.0003889966 -0.0050579524 0.0045562163 -0.004481658 0.0028873577 0.00064399454 0.0020608618 0.0023958967 -0.0008357553 0.0024291046 0.0039016046 0.0012733642 0.00030329163 0.0011979537 0.003435265 -0.00023456757 0.0003284247 0.0023588126 -0.0013351843 0.0037398974 0.0019542885 0.0006524217 0.0022820833 0.0038355421 -0.0019401886 -0.0052128932 -0.0033386764 0.0036308093 0.0018517366 -0.004158348 -0.0019684536 0.0046814163 0.0009586807 -0.0028235768 0.0026010456 -0.0037352568 -0.0048556156 -0.0008550136 -0.0049089743 0.0023716863 0.004220222 0.0007098326 0.002943392 0.0010959178 0.0031506405 -0.003877148 0.00529257 -0.004096371 -0.000589536 -0.005119636 -0.002560058 0.002931245 -0.005185955 0.0034879155 -0.0015271876 0.0011414249 0.00093508034 -0.0046568415 -0.0035319154 0.0016421225 -0.0027380006 -0.0028639995 -0.0010295052 -0.0025463584 0.003056088 0.0045446903 -0.003097291 0.0027944015 -0.001392783 0.00092619535 -0.0023335544 0.002978895 -0.0042048935 0.0030689074 0.0021728864 0.0003563221 0.002293375 0.00036075784 0.0020277002 0.0028270097 -0.001098949 0.0017929008 -0.0041279057 -0.0004116798 0.0025922346 -0.0034706772 -0.0043100608 -0.0027211271 -0.0034642587 -0.0018188494 0.0036482855
boll 0.002372879 0.0005720058 -0.0007240662 -0.00095305796 0.0012262817 0.00041769372 -0.0010567197 0.00047539244 0.0041573546 0.0011154904 -0.0033329623 0.0041016066 -0.00013368903 0.003745992 -0.0005328591 -0.002439735 0.0012202901 -0.002365328 0.0005613702 0.004017289 -0.0027712581 0.0005653354 0.0005020025 -0.00051530113 0.0026216574 -0.0019526422 0.0028590949 0.0047514886 -0.0040430976 -0.00014057285 -0.002955963 -0.00023413653 0.0006467056 0.003622262 -0.0007692733 0.0008313449 0.0029706166 -0.0035395059 0.0039996672 -0.002218891 0.0037529112 0.0029453328 -0.0031325726 -0.0031652278 -0.004142761 -0.0031352586 -0.0032750734 0.0017992235 -0.0026991158 0.0012211521 -0.0044927704 0.0006860575 -0.0014318851 -0.00048198245 -0.0012103172 -0.0034150935 -0.00092626474 0.0024811947 0.0040179063 0.0019311617 -0.0036596975 0.0003781057 4.8900645e-05 -0.0013627302 0.00490292 -0.0015293241 -0.0048926077 -0.0018084324 -0.004515616 0.00332817 -0.0023145785 0.0026647449 -0.0033716634 -0.0007034066 0.0005748658 -0.0027216834 -0.002213141 0.0001194867 -0.0033204544 -0.0044520395 -0.0032482692 0.0032863293 0.0019075653 -0.0041082124 -0.0021426163 -0.0047557736 -0.0010568938 0.003350086 -0.0048851883 -0.0034697077 -0.0001316672 -0.005278595 0.0049078297 -0.004162003 -2.3615892e-05 0.0047741225 -0.0044915513 -0.0024269181 -0.004472439 0.0017590389
carver -0.0034385335 -0.0018393404 -0.0024343096 0.0040613497 -0.003292887 -0.0028990267 -0.0043273196 -0.0017914604 -0.0013755438 0.00057925074 -0.0018912877 0.0044881506 0.0010312682 -0.00079851615 4.098669e-05 -0.0043349005 -0.0036072573 0.001839766 -0.003040625 -0.00352079 0.003039956 -0.0022816258 -0.003950966 -0.0015292004 0.0007448079 0.00048704125 0.003966031 -0.001011392 0.0033483927 -0.0040260507 0.0029542388 0.003670556 -0.004352273 0.0042285034 -0.0054250783 0.00043430843 0.0030350792 0.0041640713 0.0045890524 0.0033218977 0.00050233403 -0.0024427366 -0.004389437 0.00038152366 0.0035061603 0.0043012085 -0.0051936894 -0.004914238 0.0029513282 -0.0035787693 -0.0029608656 0.0019639859 -0.004363585 -0.0018853985 0.0019648732 0.004958308 -0.002426641 -0.0012955047 -0.0031752246 0.00043535838 0.004492419 0.0013984871 0.0028718146 0.0053166235 -0.0028421318 -0.004547588 -0.0009700464 0.0024980677 2.6804919e-05 0.0003618144 -0.0051094345 -0.002096436 0.0027871535 0.0018799754 0.0032332994 0.00026403615 0.0023179108 -0.0008293685 0.0013642098 -0.003865793 -0.005447212 -0.002506815 0.00193748 0.0011283291 0.00033769076 0.0016182759 0.0038091294 -0.0007618584 0.0024078432 -0.0045944196 0.0020307973 -0.004044147 0.0015477629 0.0020968693 0.003693064 0.0026285944 -0.004403711 0.0032433132 -0.0006924076 -0.0038510703
violence 0.0020824308 -0.0038496903 -0.0041902843 -0.0019665272 0.0002398709 -0.0014789073 0.00030169624 0.0020690868 0.00135854 0.004256659 -0.00013730071 -0.0038496193 -0.00030674465 0.004530618 0.00022945914 0.0051481226 -0.002037202 0.0045519653 -0.0016013901 0.0046297368 -0.0029023744 0.0052869227 -0.0015549986 -0.004626426 -7.4737174e-05 -0.0020376148 0.0005551313 -0.0028697334 0.004116504 -0.0046848 -0.00073238666 -0.0030063915 0.0013158579 -0.0019251222 -0.0004201122 -0.0027775785 -0.0007408133 -0.0022082787 -0.0012504599 0.001696296 0.0041009723 -0.00036376578 -0.003761565 -0.0016710175 0.0047230762 -0.004071474 0.002399898 0.0020312276 0.0018482347 0.0050886334 -0.0009408987 0.0015476589 0.0049989764 0.0011192345 0.0008992902 0.00043580355 0.0015728602 0.0028673627 0.0002293035 -0.0007423125 0.0006850791 -0.0022332515 -0.0045769867 -0.0025396128 -0.0015885192 -0.00310949 -0.00501518 0.0013835029 -0.0015210904 0.0042841253 0.004017056 -0.0037070753 0.0009670673 -0.0015166336 -0.004709455 0.003127693 -0.0046607014 -0.0011330165 -0.000624635 -0.0040826392 -0.004677204 0.005231885 -0.004041018 -0.0010836656 0.004649365 -0.0036156236 -0.0013697802 0.0011943015 -0.00050625607 -0.0012108628 -0.0037157335 -0.00459547 0.0032502967 0.0035850194 0.00075576035 0.0044917576 0.00042210927 -0.00423945 -0.0049027284 -0.00091935764
may 0.0029875112 -0.0042886967 -0.00024566156 -0.004430014 -0.0036073537 -0.002156009 -0.003786051 0.00494983 -0.0044191275 0.0032675143 -0.0013215654 -0.0040087677 -0.0010641443 -0.0033827627 -0.0011785438 0.00037815457 -0.000363782 0.0012309902 -0.0033593194 0.003083067 0.00053287426 0.005155944 -0.000288 -0.004519412 -0.003557645 -0.0028654225 -0.0031257055 -0.0007982288 -0.00068618025 -0.003203601 0.0050088847 0.003666688 -6.8380985e-05 0.0038632008 -0.0027513378 -0.0049236813 0.00016578462 0.001775274 0.0030250354 -0.00032373235 0.0019055449 0.0044432436 0.00094722654 0.0013229328 -0.0010255115 0.0016440686 0.0027907407 -0.003681973 0.00063715037 0.001972578 -0.0032763614 0.0017506711 0.0017371458 0.0017202548 0.0013543209 -0.00152536 -0.0014217953 0.005063904 -2.4875639e-05 -0.0019320702 -0.004177083 -0.0009583497 0.0043305317 0.0006030294 0.0040843016 -0.000404041 -0.0014645136 0.0047240504 0.0033912081 0.0039034898 -0.0045116646 -0.004324099 -0.002940529 0.0005343125 -0.0026182788 0.0028943839 -0.0049300226 -0.0006452554 0.002731758 0.0012162956 -0.0014107943 -0.0031533204 0.0027616282 -0.0024275405 -0.004557575 0.0037550407 -0.0017084916 0.0024166421 0.0030712436 0.00056074717 -0.0036240893 -0.0019800623 0.0024460766 -0.002145025 -0.003274654 0.0045622736 0.00017425044 -0.0021616947 0.003881671 -0.004828499
truly -0.0011992522 -0.002246266 -0.002185947 -0.001827951 -0.0015600761 -0.0027226051 -8.604924e-05 0.004341791 0.002866485 0.0045393594 0.0002651099 0.00012803874 0.0010336037 -0.00010396705 -0.0024931254 -4.9664886e-05 -0.0047599613 -0.00081533176 0.0036010887 0.0037667395 -0.0023873833 0.004432958 -0.0049076634 0.0020592539 0.0038221779 0.0010719164 0.0026111724 -0.0019263749 -0.00077274523 0.002307851 -0.0038010324 -0.0015707655 -0.0011206797 -0.00256046 -0.0014481118 -0.0049085836 0.0041738963 0.0026669852 0.004988331 0.0028904022 -0.0005132701 0.0025972435 -0.0010673031 -0.004415965 -0.004189878 -0.0022359542 0.0016930529 0.0037464953 0.00045868574 0.0014011782 -0.004229048 0.0012548213 0.0038192146 0.002542312 0.0030137282 -0.004043361 0.0017216741 0.0011615211 0.0030566482 0.0030750078 -0.0037461903 -0.001781536 0.0016974554 0.005447836 -0.0032769733 0.0023218263 -0.003847986 -0.0025983427 -0.003949898 0.0038830687 0.0017804832 -0.0008714444 0.00029612266 0.0011589777 -0.0023661167 0.0039951825 0.0036802487 0.0049473634 -0.0045835557 0.0035116025 -0.0017555774 0.004691972 0.000877132 0.00026990968 0.0049755624 -0.00041973725 0.0020137508 -0.0045102346 0.004111797 0.0011896836 -0.0051887725 0.0015437601 -0.0020406744 -0.0016608557 -0.004869951 -0.0014906651 -0.0018999091 -0.00417957 -0.00095711753 -0.0039300965
comedy 0.0010766155 0.0028238494 0.0013858808 0.002964363 -0.00316795 -0.00035966 0.00078161067 -0.0009861436 0.0012508945 -0.0027686919 0.002589936 0.0035823106 -0.0026231825 -0.0044562183 0.0047757397 0.0008163081 -0.0015413956 -0.0018327758 0.0036294912 0.00036846497 0.00012895015 0.0009477479 0.0017399512 0.0038342222 0.0022816295 0.0027083207 -0.0043357997 0.0023086944 -0.0014879294 -0.0024924055 0.001284486 -0.001344799 -0.0010953646 -0.0015040697 -0.0012971017 -0.0048796134 -0.0009748225 0.0035622295 0.00045858868 -0.0007323732 0.0025840339 0.0013442353 0.0026091102 0.0050906655 0.0011573457 0.0038560694 -0.00365061 -0.0048899543 -0.0010889769 -0.0020467448 -0.0022622598 0.0024816403 -0.0015354756 -0.003959313 0.0026761796 -0.0018373736 0.0030368187 -0.0045894226 -0.0030736304 -0.003951927 -0.0017570602 -0.004089003 0.0005515881 -5.503028e-05 -0.00025900808 0.0020366458 -0.00054663024 2.6376527e-05 -0.0047719977 0.0027152344 0.0022959746 -0.0008182976 -0.0035303333 -0.0025566074 -0.002776545 -0.004926652 8.162449e-05 0.0043346323 -0.0012881911 0.0037832106 0.0010540213 -0.0031993273 0.0011238488 0.0016863097 0.003007119 0.0023901577 0.004151937 -0.0045311647 0.00023755955 -0.00027254818 -0.0041765366 0.0027177925 -0.0036433088 0.0032650924 -0.0012846862 0.0012410645 -0.001382448 0.0012051204 0.0039166557 0.0025224502
really 0.0019167323 -0.00278781 -0.001225223 -0.00026992892 0.0020643084 0.00036958154 -0.0034569164 -0.0047164564 -0.0027489045 -0.0009859289 -0.0026573006 -0.004734814 -0.0017858276 9.6038326e-05 -0.0046029002 0.0046715927 0.0035440656 0.00091661373 0.0047076107 0.0006957933 0.0025044624 0.00134974 0.004270276 -0.00047636783 0.00076970435 0.0008876894 -0.0007322647 0.004036614 0.004458258 0.0011516074 -0.003962193 0.0036635746 0.00026135292 0.00016605193 -0.004614747 -0.0047163265 0.0007031152 0.0032275775 -0.0049379356 -0.00228122 0.004522888 -0.0034613588 -0.003582981 0.0009315691 -0.0018074836 -0.0019274342 0.0022855394 0.0017032885 0.0006740708 -0.0033500174 -0.0010920432 0.0030947854 0.0036733625 0.0036566828 -0.0017463939 -0.003733364 0.0020857265 0.0046694865 0.00056255714 0.003085151 0.0046260394 0.0029128834 -0.00015813157 -0.00046042 -0.00062488415 0.0030354622 -0.0037995568 -0.0003096662 0.004216735 -0.0024016267 0.002952725 0.0013247672 -0.0047374903 0.004331666 0.0024363676 -0.002081597 -0.00072854303 -0.00324431 0.0016853253 -0.0041079056 -0.0005922502 0.004472685 0.0019423628 0.005182007 -0.0046465867 -0.0028523353 0.0033988175 -0.0011532622 -0.0005295998 -0.0017327414 0.001541841 0.002673921 -0.0012608722 -0.0016172179 0.00022380683 0.0036535661 0.0046097236 -0.003226652 -0.004187827 0.0022393856
come 0.0011730872 0.0048162783 -0.0050121807 -0.003710964 0.0049864766 0.0018328312 0.0026857771 -0.0033429102 0.00035190186 0.0046577645 -0.00013030808 0.002169352 -0.00235383 -0.00054103864 -0.0025381646 0.0035849519 0.0018221409 0.0040954077 0.0014102388 -0.0013239302 0.0042131892 0.00019734948 0.0017680962 0.0005436626 -0.00467699 -0.001025565 0.0035247253 0.004170817 0.0028756235 -0.0041022007 -0.003947359 0.0036310742 -0.00049315806 -0.0033467428 0.0016732201 0.003686707 0.0009312938 0.0008823305 0.002324185 -0.0044859895 0.0018878703 -5.8883008e-05 -0.00044335346 -0.002146777 -0.0032230674 0.003030429 -0.0026561532 -0.00105536 -0.0007755944 0.004300938 0.0026045076 -0.00025191926 -0.001875353 0.004261466 0.0035100474 -0.0018333595 0.004807355 -0.004669791 -7.945915e-05 -0.0037216255 -0.0012411438 0.000815261 -0.0012083435 0.0013160851 -0.0036197389 0.0032725395 -0.0022763477 -0.0029441665 -0.0005160083 -0.0044774693 -0.0015312242 0.004097272 -0.00445857 -0.0012126277 -0.0025672887 -0.002991926 -0.0031052479 0.0008373612 -0.0025781468 0.00024655045 -0.0045763906 0.0017987903 -0.004938945 -0.0025180513 -0.0011275625 0.00065034226 0.003745894 0.0023306422 -0.0042769616 -0.0009314086 -0.0030519716 -7.025403e-05 0.0029511806 0.0028166482 0.0046895896 0.0038752279 -0.0031089764 0.00017772033 0.002147761 0.0004365077
point -0.0026281134 -0.0024511125 -0.0004862197 -0.00016719896 0.0013381222 0.004931923 -0.0030403861 0.003485038 -0.0006498011 0.0034884084 0.00349122 0.0042212573 0.0038673142 0.00087040203 -0.00071749033 -0.0039721685 0.0016689942 0.0022453275 -0.0040666633 9.385513e-06 -0.005006202 0.0048556454 -0.004893956 0.0023258675 0.004129567 -0.003237375 0.003470709 -0.0023185185 -0.0046850275 0.002409841 -0.0043440755 0.0016789204 0.0042222603 -0.0019976092 0.0021644393 0.004999415 0.0025499489 0.003915062 0.0007635586 0.0031064718 0.0021338451 0.003360721 -0.0042003095 0.0014673537 -0.0031034509 0.00029282965 0.0019579977 0.0013693555 0.0042365203 0.0030106236 -0.004765416 0.0028122582 0.0033699984 -9.710179e-05 0.0010606552 -0.0010724227 0.0049135266 0.001634891 0.0037688785 0.004462273 0.0023227953 -0.00424515 -0.00018522344 0.0014270765 0.0037862817 0.0050900634 -0.0020429275 -0.0012097892 -0.004679177 -0.001618012 0.0012957087 0.004740675 0.0016440523 0.0041235187 -0.000630719 0.003602881 0.00047351915 0.00024683896 -0.001252247 -0.0032382733 -0.0032404326 0.0046365405 -0.0022041579 -0.0002455806 -0.0030880324 0.0011259916 -0.0035012586 0.0009115839 0.001756576 -0.0012365587 -0.0018830077 0.0012378723 0.0034866026 -0.0009992659 0.0037795452 -0.0020274206 -0.0024893463 0.004262656 0.0037849136 -0.0005372102
still -0.0027694802 -0.004643605 -0.004333111 0.00074511685 0.0045053144 -0.0033348312 0.0017879173 0.002731782 -0.004811322 0.0040709362 0.002332135 0.003305482 0.0047743907 0.00063287985 0.0015729599 0.0006833718 -0.00070055877 -0.0033671628 -0.004152179 0.0043548755 -0.0024380016 0.004490605 -0.0013121628 -0.0006019202 -0.002934147 -0.0026197946 -0.0006411244 0.0045374106 0.0028542196 -0.00031546925 0.0023598112 0.0007554393 0.00066813815 -0.0011613936 -0.0011192587 0.0012609668 -0.004473289 0.0009072052 0.002011945 -0.0028635894 -0.0038073696 0.0023857192 0.0040512807 0.00402423 -0.0050046565 8.42833e-05 -0.0005784359 -0.0003875292 0.0002697972 -0.0011140514 -0.0042998753 -0.0019127694 -0.0024172645 -0.0021336672 0.0008401954 -0.0028846387 -0.0038245572 0.0047410848 0.0026114993 0.0043340414 -0.00085657265 -0.0009174622 -0.0011288751 0.0014730985 0.0053055347 0.0011677033 0.002857892 -0.0026991286 -0.003206357 -0.0038703727 0.0040303497 0.002647494 -0.00495607 0.0010963593 -0.003755815 0.0046065804 0.004294843 0.002961762 0.00080465066 0.0013577332 0.00020349486 0.0023759352 -0.0045374813 0.0038565237 -0.005164704 -0.00094265 0.0026708357 0.0029597464 -0.0017011764 0.0015913484 0.0026833757 -0.00032494083 -0.0020794917 -0.0050514727 2.6037482e-05 0.0015265741 0.004975109 -0.0010460612 0.0043192464 0.001268153
many 0.0035072367 0.0010844591 -0.0036758687 0.0028946402 0.0013160111 0.004849478 0.002969734 -0.0017826812 -0.002583476 0.003490082 -0.004441241 -0.0009953512 -0.0035881742 0.0024675676 -0.004577445 -0.004351522 0.00025951944 0.00032993185 -0.0035133038 0.0028847523 0.0037610943 0.0021761104 -0.0018773455 0.0025223875 -0.003974888 0.002263431 -0.0023139373 -0.0023863253 -0.00041086704 -0.0017128966 0.0025899305 0.003184134 -0.0019119675 -0.002074202 -0.0027829716 -0.0047321776 -0.0016741462 0.00031035574 -0.00021678074 0.0008893996 -0.002775163 0.0030495008 0.004216997 -0.0038383345 0.00475119 -0.004074929 -0.003141695 0.0030168544 0.004834438 0.001287265 -0.0011297993 -0.0040449104 -0.003141139 -0.0016812673 -0.0046689864 0.0003846942 -0.003635008 0.0013046104 0.00362669 0.0014286115 0.001996337 0.00016215025 0.0020294313 0.00056065654 -0.00048543018 0.00042101895 0.0012627387 -0.00018024567 0.0045602997 -0.0038986767 -0.0037660177 0.002384744 -0.0025312079 -0.0007532333 0.004232375 0.0026723745 -0.0040330356 0.004981996 0.0005393491 -0.0034346369 -0.0040221335 0.0046408838 -0.0017288036 -0.002348974 -0.004193647 0.0011859677 0.0034883088 -0.0026258703 -0.00049021165 -0.0021614262 -0.0049840696 -0.0051822937 0.0044807186 -0.0031787136 -0.0011378888 -0.0021328658 0.0048110005 -0.0011320009 0.0034001274 -0.0021702042
jake -0.0040518716 0.0017606091 -0.0052777664 -0.0006346607 -0.0031293042 -0.00086571684 -0.00042779656 0.0018867955 -0.003491182 9.67945e-05 0.0035244166 -0.00028618073 0.004617421 -0.00040173432 0.0003908276 0.0034665682 -0.0018917972 0.002428924 -0.001276398 0.0045623644 -0.0029426597 -0.0009831546 -0.0032329606 0.0007949908 -6.958857e-05 0.0022975663 -0.005087854 0.0023167608 -0.0015758628 0.0043510166 0.003280318 -0.0044239764 0.004470426 0.0026611881 0.0016050127 0.002078442 -0.0007343081 0.0049379943 -0.0013023806 0.0002152609 -0.0037694746 0.00096148095 0.00072228524 -0.0012441889 0.0040371185 0.0018422694 -0.0026676562 0.0050866245 -0.0011365651 -0.0031407045 0.0040753246 -0.003735545 -0.00067135977 -0.0045213867 0.00012647806 0.00030537142 -0.0027647903 -0.001115427 -0.004637883 0.0017686719 -0.0026092723 -0.0027864536 0.0014374132 -0.003146628 0.0024637762 0.0031450656 0.0011408594 0.0035763963 -0.0051316093 -0.0003627612 0.0008255812 -0.0017389131 0.0038235846 0.0026569802 0.0038088863 0.0022512693 -0.0010765287 0.0027876364 -0.0044761132 0.000564653 0.0039617913 0.0015070844 0.0016319983 -0.0033145447 0.0042026187 -0.005280594 -0.000724778 0.0010795316 -0.0048082834 0.0024533607 -0.0048179408 -0.0038769224 6.47484e-05 0.002173922 -0.0037202407 -0.0049233167 0.0036821512 0.004705895 0.0042302907 0.0018057512
fight -0.0010522543 0.00032584512 -0.003668567 0.00040223202 -4.596163e-05 0.0036095753 0.0016065404 -0.0028006935 -0.0013518021 0.0017590633 0.0042647 0.0029947213 0.004047238 0.0002331926 0.0041094124 -0.00066196144 -0.0011532403 -0.0032781563 -0.0041273115 0.002219401 -0.0044368855 0.0039619766 -0.003661772 -0.0042824754 -0.00069092517 0.00024739632 -0.0048850896 0.004757462 0.0046744687 -0.004343978 0.0026288738 -0.0041023064 0.0037150604 0.0035683652 0.0018914713 0.0019374859 -0.0009337994 0.0032052519 0.0020787485 -0.00241372 -0.004299561 -0.002773593 0.0007514999 4.949316e-05 -0.0018567486 -0.0023333505 -0.0030279073 -0.003576582 -0.00294727 0.00042184684 -0.0024457285 -0.0019270554 -0.00071323005 0.002088477 -0.004535196 0.00052795105 0.0012599402 -0.0034906957 0.003923476 -0.0005408972 0.0010150555 -0.0013321923 -0.00018106155 0.00074537715 -0.003776127 0.0043950384 0.0032263596 0.004929388 0.0032396284 -0.0020543914 0.0034057149 0.001523932 -0.0034169045 0.003777967 -0.0023853043 0.00498098 -0.001529421 0.0038144614 -0.0031028306 0.0021765362 0.0022420879 0.0023985014 0.0019458679 -0.0012894766 0.0020894173 -0.004021502 -0.0011321416 0.0034760481 -0.005355858 0.00084583624 -0.00044022946 0.0022719377 -0.00059871783 0.00208624 0.0011653277 -0.0001899936 -0.004284761 -0.00028358036 0.0028462945 0.00033416622
money 0.0035217137 -0.004118444 -0.005611637 -0.0013223242 -0.0036257794 0.0002191789 0.0009384289 0.0035073983 -0.0040828544 0.0034981396 0.00084982393 -0.0027939146 -0.002915577 0.0014259934 0.002973417 -0.002306266 0.0019634592 0.0015770845 0.00073308573 0.004286589 -0.00051696395 -0.0023251863 0.0007812215 0.00016051492 0.00420514 -0.004335805 -0.0021698438 0.0035029056 0.00048167488 0.001734288 -0.0026587143 0.00043460602 -0.0044149505 -0.0032048745 0.0014503034 -0.0013599154 0.002385576 0.000575195 -0.0022480842 2.774144e-06 -0.00018265795 -0.0013356787 -0.0041167703 -0.0016326583 -0.0018055304 -0.0036323743 0.00047021845 -0.0023075182 0.00048079577 -0.0039680256 0.002976517 -0.0044087465 0.0014782662 -0.00015953815 0.00020363426 0.0002657771 -0.0019017298 -0.003253692 -0.0021529396 -0.0047203624 -0.0027139902 -0.0044971406 0.0039272183 0.0023380623 -0.0019571525 -0.0016448474 -0.0052393493 -0.0041957423 0.003975692 -0.0037398927 -0.0049584033 -0.0027871341 2.5212315e-05 0.0030889693 -0.004307003 -0.0032953448 0.00030036736 -0.0033512213 0.0018386303 -0.00094239955 -0.0018085468 -0.0042974884 -0.0020850422 0.00031194574 0.0025788508 -0.002525563 0.004891364 0.0027890983 0.0004494318 0.0036217098 -0.0041489843 0.0043801405 -0.004612026 -0.004884122 0.0011438502 -0.0019083334 0.0011927938 -0.003950065 0.00258667 -0.0044898554
look 0.0009374337 0.0040316326 -0.005222742 -0.0012364861 -0.0037056294 -0.004162142 0.004528222 0.0035129555 -0.004684541 -0.001690962 -0.0031738877 -0.0046181283 0.005108205 -0.002663282 -0.0038028834 0.0015740372 0.0015704506 -0.003225711 -0.0052069714 -0.0034515234 0.004632053 -0.0015259421 -0.0041825483 -0.0035156622 0.001942389 -0.001875303 -0.0013858919 -0.004165809 0.004252989 -0.0019902198 0.0038995729 -0.003631478 0.004789073 0.0007123245 0.0030754043 -0.002812546 -0.0023070155 -0.0023018115 0.00027240845 -0.004344688 0.0029702906 0.004352983 -0.0029442937 0.0030792602 -0.00044385888 0.0009626946 0.0012354595 0.001252444 0.0007874167 -0.00027286322 -0.0044173263 0.0018150214 -0.0035658446 -0.0047638286 -0.0034946455 0.0035266946 0.003674077 0.0005552112 -0.0049592936 0.000563265 -0.0044544227 0.0021549142 -0.00045887358 0.0036111476 -0.0006574451 -0.0003275185 -0.0017312902 -0.00030381302 0.002458172 0.0017313977 -0.0027472526 0.0023520177 0.00040580347 0.0025973723 0.00058057444 -0.0015054151 -0.0007129645 -0.002798862 -0.0014602775 -0.004619173 0.00077858346 -0.0033749044 -0.0012207193 0.005231717 -0.004682519 0.0020711736 -0.004418716 0.0024912327 -0.0036866209 -0.004631689 -0.003464766 0.0021593985 -0.0005948105 -0.0028553302 -0.00390715 0.0017451006 0.0027758093 7.66372e-05 -0.002469183 -0.002025521
take 0.0049340427 0.004566841 -0.0013760184 -0.0050615165 0.0017221405 -0.004078093 -0.00483825 -0.0040699802 0.000890062 -0.000694319 0.0035778412 0.0039826552 0.0010430212 0.0038132283 -0.00185409 -0.0042313486 -0.0019359792 -0.00056873506 -0.0044434955 -0.00088355463 -0.00504653 0.0023676064 0.0030748425 -0.0030990744 -0.00074399554 -0.002782585 0.0015311049 -0.0042750794 0.00045044522 0.0032922968 0.00038241208 -0.0023929623 0.0012340375 -0.0044371854 -0.0010145361 0.004988223 0.0029173796 0.0024674875 0.0047021927 0.0009892778 -0.0009802468 -0.0028700307 0.0021252513 -0.00382429 -0.0015482535 -0.00022538788 -0.00078819256 -0.004194346 -0.0027243048 0.0055100154 0.0036281089 0.0011062943 -0.0045233928 -0.00026534963 -0.00465429 -0.00069650105 -0.004626744 0.0038476444 -0.0010330871 -0.004720301 -0.0021683918 0.002045553 -4.426809e-05 -0.0028514587 0.0018482256 0.002023008 -0.000100238445 -0.001751902 -0.0028931939 0.00066347735 0.00011568829 -0.00015013346 -0.0032847195 0.004802616 -0.0038327854 -0.0029342992 -0.0029561452 0.0040466143 0.0010996035 0.0047610686 -0.0030821217 0.0052083014 -0.0034312503 0.0048493287 0.00475274 -0.00071643275 0.003332025 -0.0023243725 -0.004752387 -0.0016837729 -0.0045132088 -0.0025468906 -0.004536765 4.7820817e-05 -0.002894328 0.0028054055 -0.00047236987 0.001943913 0.0044279196 0.0015183286
work 0.0013260682 -0.0005080658 0.004414755 -0.0019174146 0.0025125947 -0.0036593159 -0.0010996597 -0.0019630014 -0.0007154779 0.0009772393 0.0037637698 0.0020056216 -0.0002462782 -0.0025654722 -0.0039685895 -0.002609396 0.0010059486 9.90645e-05 0.0008310343 -0.0038739154 -0.0029129146 -0.00026595674 -0.0018326312 -0.0042427676 0.003026591 0.0017665359 0.0023922196 -0.0017270016 -0.0005331856 -0.002437706 -0.0020944178 8.1167505e-05 0.004815411 0.0013035312 0.0012881564 0.004923733 -0.0044041174 -0.001203629 0.00013706673 0.001169955 -0.0039124466 0.0006052673 0.0033618296 0.003996992 0.0011008854 -0.0010817106 -0.0009333562 0.0017029112 0.004236408 0.0010677609 -0.0010647414 0.0029252758 0.0022343518 0.0043648984 -0.0031456568 -0.0001920639 -0.004700266 0.001473367 -2.3265626e-05 -0.00288342 -0.0047184424 0.00063607015 0.0041896063 0.0014598157 0.00062008953 -0.003739799 0.00034377808 0.003918441 0.0039155204 0.0019137767 -0.0041440115 0.0044252696 0.0023337337 0.0040316004 0.0041008294 0.00096453883 -0.00095359713 -0.00065003935 0.00013585055 -0.0017249939 -0.0009853811 -0.0016379799 -0.0045348234 0.0046299803 -5.9012445e-06 0.0032739937 0.00031591006 0.0050237444 -0.0023553025 0.00180154 0.004434818 0.0032518168 0.00069761585 0.00035076446 0.002470203 0.002110954 0.0025724275 -0.00030869644 -0.003132465 0.0040706154
story -0.004249659 0.0015454723 -0.0054907505 -0.00045152946 0.0021348062 -0.0022785007 -0.0022930957 0.0011373583 -0.0024953648 5.3696225e-05 0.0026506744 0.0023487061 -0.0041152653 0.0010907745 -0.0039488175 0.0011297317 -0.0034343977 -0.00054962083 0.000507452 0.004340904 0.003118821 0.0013767544 -0.0047044465 0.003655265 0.00020470102 -0.0003248882 -0.00061716576 0.0032207058 0.002594273 -0.002175911 0.0022871355 -0.00022932242 0.0008491815 0.0029425407 -0.0045044343 -0.0047396766 0.0012628111 0.003345609 -0.0029940335 0.0012567831 0.0021465933 0.004862951 0.0021519864 0.0029277517 -0.0007202872 -0.00375244 0.004752297 -0.0046174056 -0.0020225155 -0.002977724 0.0031677762 0.0015270017 0.0051237666 0.0034283956 0.0009361419 -0.00047946715 -0.0011705051 0.0010080625 0.0027010771 -0.00019705883 -0.0032377413 0.0029903625 0.0037075093 -0.0021951434 0.001518289 0.0027480088 -0.004434058 0.005000732 -0.0030702844 -0.0035402197 0.0011187636 -0.00031101846 -0.00033940238 -0.004479827 -0.00028254598 -0.0014726964 0.0046252287 0.0051311725 -0.0011268146 0.00026544926 -0.0038422449 0.004733334 0.0009262575 -0.0019278098 0.0020791213 -0.0024816042 0.002708215 0.004618362 0.0016325801 -0.0032308223 -0.0047274795 -0.0029516737 -0.0019350318 0.0018467274 -0.0011095813 -0.0027193662 0.004165649 0.0036873857 0.0022551918 0.0014918714
bring -0.0039924197 -0.004048649 -0.00040690185 -0.0008444531 -0.0020524042 0.00041429928 0.002938603 -0.0025136308 0.0024062227 0.0032476615 0.00052214606 -0.0023421005 0.002344844 -0.0018613937 -0.003890859 0.00088644214 -0.0028319717 -0.0022229129 -0.00071910303 -0.004351576 0.0016890352 -0.0013758534 -0.0006183546 -0.00015457332 -0.0006384218 -0.0046032895 -0.00089835 0.002389404 0.0021831696 -0.0027785234 -5.2554315e-05 -0.000503215 -0.0020430225 0.0021758743 -0.0005033588 -0.0009954327 0.0028950183 -0.000241524 -0.00062349293 0.0004478595 0.0036975094 0.0030787142 -0.0051285457 0.004052307 -0.0033533825 0.0031454258 0.0037499194 0.0014536773 -0.0015991672 0.0036220911 -0.0034256645 -0.0037824619 0.0034643677 0.00024999474 0.0045565036 -0.00065229024 -0.004347252 0.0007060094 0.0042944276 -0.004079295 0.004742689 -0.004376224 -0.0041365675 0.004530767 0.004143235 0.0037681295 -0.00516132 -0.0022259224 0.0030867225 0.0027213523 -0.0048669004 -0.0033503317 0.0039296285 -0.0025885324 -0.0002551809 -0.004139088 0.002980384 -0.0031472798 0.004728643 0.0014903786 0.0041805804 -0.001267825 0.0013284336 -0.0027640434 0.0021676682 -0.00028050688 0.00061609 -0.0024871891 0.0040875818 0.001943296 0.004495998 0.0020337836 0.004640563 -0.0043456885 -0.0007581116 9.625404e-05 -0.004358578 0.0021978812 -0.0017207185 -0.00015203985
wan 0.0012323284 0.0046897037 -0.0055622156 -0.0020848315 0.0017687704 -7.846867e-05 0.0002907325 -0.003280017 0.001964531 0.00022372977 -0.001884516 -0.0025144406 0.0030723652 -0.002290661 -0.001951631 0.0052433405 0.0031233572 0.0008237882 0.0002424171 -0.0040300046 0.003877803 -0.00046555436 -0.004509417 -0.0039584767 -0.0032029094 0.0046460745 0.0013884752 -0.0014473016 -0.00043836999 0.0005001012 -0.0028565214 -0.0013237172 0.005171838 -0.0031057904 -0.0007212817 0.0036357874 -0.004001075 -0.00069956784 -0.004528398 0.00233966 -0.00017147794 0.0017044655 -0.0039326395 -0.0044905115 0.0027149983 0.0031377221 -0.004050146 -0.002271303 0.0031075869 0.0037687484 -0.003775006 0.002010646 0.0018361779 0.0046137855 -0.0033323276 -0.00018602694 0.0041976743 0.0010722419 0.0022635986 -0.0041882424 -0.0036710193 -0.0051258844 -0.0014610038 0.0045580426 0.0041947635 -0.0020031384 0.00027481577 0.0013942195 0.0027375652 0.002636159 -0.0050095227 0.002326311 -0.0035766864 0.0017262173 -0.0035999792 -0.0034641172 0.00032617652 -0.0016554953 0.00066075416 -0.0014925989 -0.00035027406 -0.0038491567 0.0044096923 0.0012225675 -0.0022413966 0.0009882544 0.0049073845 -0.0047980864 0.00094121386 -0.0030592415 0.0037447978 0.00088944734 0.0036510546 -0.00081098184 -0.0014924243 0.001798022 -0.0038346942 0.0012688588 -0.003845703 0.00026428216
na 0.0028637026 -0.001459667 -0.00046397463 -0.002382306 -0.004216698 -0.0017123321 0.0038806906 -0.0023012673 0.00084227114 0.0022690317 0.0015155983 -0.0047077807 -0.0010487734 -0.00043765843 -0.0015622043 0.0049023493 0.0029696051 0.0034339256 0.0018275616 0.0029558495 -0.0029298079 0.0045293723 -0.003033062 0.00080246385 -0.002612242 -0.003840628 0.002179164 -0.004991245 0.005046601 -0.0030288843 -0.004555582 -0.004350238 -0.0045863898 0.0040088072 -0.0034836011 0.0039704666 0.0041504325 -0.0012833131 -0.004452158 0.0013039605 -0.0001525055 0.0018659439 -0.0042553833 0.0037091624 -0.004028426 -0.0012608988 -0.003555901 -0.00022120796 -0.0034488689 0.005479205 -0.0024055985 0.0012831192 0.004684459 0.0028068249 0.0008701481 -0.00028986993 0.002727468 0.004897741 0.0013549917 0.0035648388 -0.0032460738 -0.0034795837 -0.0002878638 -0.0022259334 -0.0013012111 -0.000716922 -0.0036615771 0.0023008834 5.7010933e-05 0.0029629304 -0.0029080962 -0.00059682364 0.0006543385 -0.0036649546 0.001176024 0.0003663189 0.0034778249 0.0011634692 -0.0003749284 0.004414741 0.002237066 0.0029953218 -0.0012434135 0.0035841519 0.0006685455 0.0029669364 0.0053976057 0.00051346904 -0.0014746662 0.00013695222 -0.00142929 -0.0044992743 2.2291042e-05 -0.0037192614 -0.0012767194 -0.004576124 0.004854604 -0.004153735 -0.0023926627 0.0033420592
star 0.003976824 -0.0023185161 0.001374131 -0.0012470164 0.0031965177 0.0017413773 -0.0028897494 -0.0039652893 0.0030690797 -0.0035095674 0.00091930554 -0.004617222 -4.6718713e-05 0.0025178166 -0.002530876 0.004759641 -0.0004123574 -0.00053392723 -0.0041133715 -0.004768605 0.003636195 0.0027544124 0.001903941 0.0041695116 0.0013336863 0.0004443367 0.0048565133 0.00010028053 -0.004549479 0.0030723612 0.0027067245 0.0018179998 -0.0040252553 0.001948575 -0.00026245287 0.0020359082 0.002277992 -0.001631563 -0.0015706337 0.004936734 -0.0026311895 -0.0016992367 -0.0055478136 -0.0029756527 -0.0049302704 0.004690052 -0.0011764038 -0.0019751305 0.004926615 0.0041577085 0.0044704727 -0.0029245801 0.0040403944 -0.0027136402 0.0016805354 0.0015756226 -0.00062277395 0.000632976 -0.0027483024 -0.0026114224 0.00038467324 0.001780596 0.004116003 0.0036151865 -0.0035674179 -0.0034225902 -0.0026761605 -0.0012138825 -0.0046031135 -0.0025282067 -0.0015984137 0.0026229967 -0.004197257 0.003296838 0.0028410016 -0.00096424064 -0.00056456996 0.0036159519 -0.004844828 0.0025886036 -0.001434078 0.0020407399 0.0012734074 -0.0010054163 0.0034730986 0.00047102102 0.0021843424 -0.0037168304 0.0047083977 -0.0037380157 -0.0019707654 0.0014552353 0.0022506686 0.003099828 0.0018632028 0.0015135702 -0.00019313449 -0.0013644923 0.0007179883 0.0035428284
awful -0.0029570146 -0.0006097032 -0.0016442373 0.0018322179 0.00043173044 -0.0024174633 -0.0013066926 0.00083170057 -0.0026648827 -0.0046815425 -0.00044954102 -0.002997504 0.00044143279 0.002052013 0.0015237611 -0.0035932513 -0.0020075615 -0.003631164 -7.022035e-05 -0.00064463075 -0.003928188 0.0047061592 -0.0045497664 -0.0040531093 0.0012325189 -0.0010552816 0.0015472842 -0.0023074225 -0.0033972124 -0.003553562 0.00030350487 0.0013233044 0.00047613023 0.0029676803 0.00024771286 -0.0021586746 0.0035442577 0.0031499937 0.0043604937 0.0032506918 0.004966495 -0.0047762976 0.003916713 -0.0016084665 -0.0021682824 0.0051135845 -0.0038000972 0.0024033727 -0.0045274897 0.00077041093 -0.002724885 -0.00071139977 0.0009522524 -0.0049320734 -0.0051829377 0.0008887553 -0.00048336037 0.0015849099 0.00090420916 -0.0027306085 3.9649214e-05 0.0012244595 -0.0019124236 0.0042613 -0.0045784903 -0.0030245755 -0.0008866224 -0.0037412692 -0.0027090514 -0.0045322375 -0.0018421476 -0.0005122813 -0.0019166726 -0.0021965948 -0.0016997776 0.00045181636 2.2755354e-05 -0.0017983933 -0.0034121075 0.0041553276 0.0022562714 0.0032764045 0.004716669 -0.0038662748 -0.0028746084 -0.004572315 0.0023580713 -0.00027612085 -0.0013992377 -0.00036966123 0.0037888226 0.0023392641 0.0026796702 -0.00067568914 0.0034942804 -0.00082421716 -0.0036886751 -0.00049394305 0.0030219583 0.0037005716
something -0.004209342 -0.0023731275 -0.0032196878 -0.0022062662 -0.0012467419 6.3514715e-05 0.000755163 -0.0032407672 0.0028722142 0.0026877748 -0.0021687408 0.0024729697 -0.0040733623 0.0026247073 0.004028812 0.001663781 -0.002100528 7.334458e-05 -0.0014243908 -0.0021485237 0.0013988852 0.0023720593 0.0011910078 0.003421769 0.00082523614 0.0017208566 -0.003333911 -0.00517751 -0.0007881109 0.004917938 0.004563635 -0.0013310482 0.0022721754 -0.0048803627 -0.0003568091 0.0036611594 0.004929092 -0.0039597102 0.0043381853 0.0042178305 -0.0018530348 0.001582088 -0.0023728993 4.990213e-05 -0.0050726603 -0.0028591915 -0.00060232624 0.0016430179 4.8075734e-05 0.004424024 -0.003603939 -0.00438084 0.0028930656 0.0038375244 -0.003285156 -0.0028578204 9.4418945e-05 -0.0006970783 -0.0018917761 -0.0028875107 -0.0038840007 0.0044175307 0.0034033135 0.0021494327 0.0006480189 0.001836352 -0.0032233987 -0.002332229 -0.0016548526 -0.0007143554 -0.00069778867 -0.0028651282 -0.0003104393 0.0014604755 -0.0022802602 0.004744974 0.0022245273 -0.0036207212 -0.0010090736 0.0013292717 -0.0041163447 -0.0024311298 0.0027525185 -0.00076621113 0.0035199628 -0.005381426 -0.003201238 0.003804122 -0.0020744563 -0.0011757263 0.0020421129 -0.004798189 -0.0026931723 -0.0020711126 -0.00021489372 -0.00070491835 0.00042946305 0.0045447624 -0.0021074573 0.0035893426
cry -0.0038609924 0.004035812 0.0019271806 -0.003945146 0.0008858192 0.0037335327 0.004585789 0.0038474805 -0.001770694 0.0048909825 0.004010163 -0.0002923868 -0.0035722402 -0.0037146397 -0.004820731 0.0015738119 0.0012457452 -0.0042112735 0.0033918724 -0.004152317 0.0012966109 -0.0036628442 -0.0053011887 -0.004173186 -0.0008606355 -0.0031226238 -0.0046970337 0.00027568496 0.0029091798 0.0043954384 -0.0025545426 -0.0050183195 0.0036693949 0.0022040573 0.0033321325 0.0028411879 -0.0037409835 -0.0035256948 0.002653196 0.0027817783 0.0046297084 -0.0027383647 0.00025449874 0.0027398143 -0.0014563432 -4.879258e-05 0.0046332413 0.0028383322 -0.0024783043 9.52729e-05 -0.003802144 -0.0007822912 -0.0040262057 0.002123116 0.0034271537 0.0025281105 -0.0026995295 0.0048491647 -0.004571199 0.0012170934 0.00042846886 -0.0023273942 0.005264651 0.0053250315 -0.0006052984 0.0026320654 -0.0052525126 -0.004157869 0.004659263 0.004689857 -0.003243848 -0.0023958653 -0.0015233874 -0.0017554668 0.0042622522 0.001418834 -0.00031643859 -0.0042818054 -0.0017206464 -0.0011503681 -0.004840073 0.0037287704 -0.0025876267 0.004846005 -0.003276215 -0.0014083688 0.00125332 0.003637364 0.0011322533 -0.0013387384 -0.00022071377 0.003270757 0.0024581922 0.001864138 0.0011112425 -0.004486816 -0.0038988278 0.00025098462 0.004129178 0.004024565
cinema 0.0017001814 -0.0005182677 -0.0049870014 -0.0018862487 -0.0050467467 -0.0005494806 -0.0009990057 0.00018328516 -0.0042882166 0.001056545 -0.0027208307 -5.0745915e-05 0.005278023 0.0014156812 0.0047429926 0.0023337824 0.0018191336 -0.0010376939 0.0023613055 0.00045053547 0.0021540145 -0.0028853987 -0.0015215672 -0.0003705582 -0.0012588837 0.0049459394 -0.0024261887 -0.00079430203 -0.001773787 0.0002031813 -0.0025097807 9.3853785e-05 -0.004126175 -0.0011380116 -0.005212547 -0.0042025233 0.0012470622 0.0002587904 -0.0022715882 -0.0010309448 -0.000407778 -0.0029096447 -0.0055754776 0.004597575 -0.0047400673 0.00041007274 0.0018483641 0.0026222954 -0.004654443 -0.0011735869 0.00201805 0.003729419 -0.0040950384 0.0022476115 0.00452061 0.0038904403 0.0016330004 -0.0006545728 -0.004204363 0.0023382842 0.004006595 0.004371891 0.0008022794 0.00543677 -0.0019535795 0.004227006 0.0025742399 -0.0019221503 -0.0007597635 -0.003982377 0.004115203 -0.0016911679 -0.0023667354 0.0020615428 0.000733232 -0.0021146203 0.0021790601 -0.003711048 0.0050014597 -0.00023730633 0.0009825843 -0.0010149605 0.00095717644 0.0029286486 0.0016169688 -0.0020619505 0.0045096977 0.00084299466 -0.0017300677 -0.002777424 -0.003637214 0.0028551284 -0.004976395 0.002583552 0.003010703 0.002546597 0.0012603367 0.0009269677 -0.0027905183 -0.0017636508
exactly -0.0047342638 0.0009497256 -0.0030607034 -0.0048209033 0.0011102763 0.00045194934 -0.0043687555 0.004730057 0.0046412507 -0.0015229261 0.003457133 -0.0024070106 -0.004337294 0.0041518486 -0.005002915 -0.0036199896 0.0040041865 -0.0013570708 0.0021093274 0.0013873328 -0.0027348811 0.00057421334 -0.00024001132 0.00017170685 0.0030083228 -0.003747217 0.004729395 0.0018030638 3.6287194e-05 0.0016063813 -0.0032685604 -0.0037731866 -0.0004902684 0.00415486 0.0011158469 0.0017736551 0.0017515643 0.00086090324 0.00117958 -0.0016130041 -0.004641508 -0.0034880454 -0.002829316 -0.000396312 0.003500225 -0.00033251758 0.003661424 0.0047954135 -0.0020676944 0.002780896 -0.00032836045 0.0041513285 -0.0012157412 0.0045327093 -0.0040142457 0.0030993724 0.004818868 0.0005263005 -0.0033919867 0.0043563237 0.00013431365 -0.001845186 0.00400312 0.0012675079 -0.0033179452 0.002938455 -0.0032930751 0.0018537289 0.0006660606 0.0023888089 -0.0011002262 -0.0043675415 -0.004502172 -0.0018304855 0.0035572299 0.00409455 0.0035713802 -5.261488e-05 0.004800865 -0.005021932 0.001772751 -0.0027789937 0.004356701 0.003732639 -0.0012077254 0.0030486304 0.0033395488 -0.004876508 -0.0021608402 0.0037404029 -0.0011226393 -0.0049877143 0.0031489357 -0.0039396873 -0.0038796354 -0.0024148333 -0.004660787 -0.004540133 -0.002799969 0.0014277507
set -0.0028682805 0.0022169657 -0.0045672767 -0.00030781343 0.0012161887 -0.0030236405 0.00283259 -0.0037265704 -0.0036565303 -0.004866171 -0.0028767383 0.0041949623 4.1462037e-05 -0.0014930497 -0.004224977 0.0037186544 0.0022898407 0.004686573 -0.00036097848 0.0051510013 0.0022942342 -0.0017152637 -0.0034967966 0.004219663 -0.0011936069 0.0035430396 -0.0048561543 -0.0049588387 0.0042231404 0.0019869586 -0.0038962355 -0.0009375444 -0.0048950613 0.0025969935 0.0010309077 0.00031766226 -0.0031096481 0.0021588278 0.0032071087 0.0047810473 -0.004446673 -0.0008504447 -0.00064659055 -0.000118697746 -0.0048333444 -0.0043881084 -0.0037018622 0.0011113017 0.004812978 0.004870237 -0.0034680224 0.00068010256 0.0041891015 -0.0001756002 -0.0018294966 0.0009796469 0.0042094793 -0.0005042003 -0.00030450558 -0.0017467951 -0.0025377043 -0.003652416 0.005058148 0.0045476668 0.004022952 -0.0044051055 0.0044612586 0.00044824253 0.0036678794 -0.00041582127 -0.004708778 -0.0021058517 -0.0023284792 -0.0011975006 0.001248025 0.0028041804 -0.004485647 0.0010090574 0.0030921276 -0.0021372798 0.0028168443 0.0008615155 0.003502404 0.003520987 0.0030747391 -0.003906407 -0.0027235602 -0.00031618646 3.6531612e-05 0.0046394994 -0.004661539 0.00088687666 0.002947932 -0.0030993836 -0.004042298 0.00083557586 0.0017611787 0.0034359617 -0.0003240705 -0.0023845618
